\data\
ngram 1=711
ngram 2=1395
ngram 3=1642

\1-grams:
-3.2475393	<unk>	0
0	<s>	-0.21520993
-2.2343886	</s>	0
-1.5303967	SHE	-0.17043525
-3.10098	TEACH	-0.071578905
-2.4343061	YOGA	-0.12518466
-1.9107717	CLASS	-0.27793238
-2.528437	THIS	-0.19111827
-3.10098	AFTERNOON.	-0.071578905
-1.5303967	THEY	-0.12037433
-1.7995578	GO	-0.2163734
-2.528437	MUSIC	-0.19111827
-2.648783	FESTIVAL	-0.071578905
-2.4343061	WEEKEND.	-0.109181836
-2.648783	RESTAURANT	-0.071578905
-2.648783	SERVE	-0.11577821
-2.992803	DELICIOUS	-0.071578875
-3.10098	SUSHI.	-0.071578905
-1.9368919	I	-0.07792877
-3.10098	DENTIST	-0.071578905
-2.648783	CHECK-UP.	-0.11577821
-1.6376394	HE	-0.14286947
-2.528437	STUDY	-0.08763113
-3.10098	FINAL	-0.071578905
-3.10098	EXAMS.	-0.071578905
-2.992803	ORGANIZE	-0.11577821
-3.10098	FUNDRAISER	-0.071578905
-2.992803	CHARITY.	-0.071578905
-2.3569875	TRAIN	-0.16645627
-2.992803	MARATHON.	-0.071578905
-2.992803	LIBRARY	-0.071578875
-2.1388884	HAVE	-0.08006618
-3.10098	LARGE	-0.071578905
-2.1840186	COLLECTION	-0.18389541
-3.10098	BOOK.	-0.071578905
-2.4343061	WATCH	-0.08997354
-3.10098	MOVIE	-0.071578905
-3.10098	NETFLIX.	-0.071578905
-3.10098	FIX	-0.071578905
-3.10098	LEAKY	-0.071578905
-3.10098	FAUCET	-0.071578905
-3.10098	BATHROOM.	-0.071578905
-1.9368919	ATTEND	-0.15428351
-2.528437	CONFERENCE	-0.16443314
-2.528437	WORK.	-0.071578905
-2.992803	HOST	-0.071578905
-3.10098	BARBECUE	-0.071578905
-2.992803	BACKYARD.	-0.071578905
-2.1388884	PARK	-0.14265034
-2.992803	BEAUTIFUL	-0.071578905
-3.10098	ROSE	-0.071578905
-3.10098	GARDEN.	-0.071578905
-2.528437	PLAN	-0.11577821
-1.9368919	TRIP	-0.18163931
-2.0606496	NEW	-0.09947152
-3.10098	YORK	-0.071578905
-2.992803	CITY.	-0.071578905
-2.528437	PLAY	-0.071578905
-2.648783	BASKETBALL	-0.071578905
-2.992803	FRIENDS.	-0.071578905
-2.3569875	TAKE	-0.09091404
-3.10098	DOG	-0.071578905
-2.992803	WALK	-0.071578905
-2.4343061	PARK.	-0.097555205
-2.648783	TRY	-0.11577821
-3.10098	DINNER.	-0.071578905
-2.528437	CONCERT	-0.071578905
-3.10098	TICKET	-0.071578905
-3.10098	SELL	-0.071578905
-3.10098	OUT	-0.071578905
-3.10098	QUICKLY.	-0.071578905
-1.9646842	LEARN	-0.10577965
-2.648783	KNIT	-0.11577821
-3.10098	SCARF.	-0.071578905
-2.2343886	PRACTICE	-0.10120181
-2.992803	PUBLIC	-0.13968776
-3.10098	SPEAKING	-0.071578875
-2.648783	SKILL.	-0.11577821
-2.3569875	DANCE	-0.24361436
-3.10098	FRIDAY.	-0.071578905
-2.648783	CAMPING	-0.2395961
-2.528437	ART	-0.19111827
-2.3569875	MUSEUM	-0.13667469
-2.992803	SPECIAL	-0.071578905
-2.528437	EXHIBIT	-0.071578905
-3.10098	PICASSO.	-0.071578905
-2.992803	WRITE	-0.071578905
-2.992803	LETTER	-0.071578905
-2.528437	FRIEND.	-0.10429954
-3.10098	ABROAD	-0.071578905
-3.10098	SPAIN	-0.071578905
-2.648783	NEXT	-0.071578875
-3.10098	SEMESTER.	-0.071578905
-3.10098	RUN	-0.071578905
-3.10098	RENOVATE	-0.071578905
-2.992803	OLD	-0.071578905
-3.10098	FARMHOUSE.	-0.071578905
-3.10098	WEATHER	-0.071578905
-2.648783	START	-0.071578905
-3.10098	GET	-0.071578905
-3.10098	COLD.	-0.071578905
-2.528437	MAKE	-0.071578905
-3.10098	PANCAKE	-0.071578905
-3.10098	BREAKFAST.	-0.071578905
-3.10098	CHESS.	-0.071578905
-3.10098	VIOLIN	-0.071578905
-2.648783	UPCOMING	-0.071578905
-3.10098	CONCERT.	-0.071578905
-2.4343061	FAMILY	-0.071578905
-3.10098	VACATION	-0.071578905
-2.992803	HAWAII.	-0.071578905
-2.992803	BOOKSTORE	-0.071578905
-3.10098	SALE	-0.071578905
-3.10098	BESTSELLER.	-0.071578905
-2.291376	GYM	-0.1358176
-3.10098	LIFT	-0.071578905
-3.10098	WEIGHTS.	-0.071578905
-3.10098	SUNSET	-0.071578905
-3.10098	BEACH.	-0.071578905
-3.10098	DRIVER'S	-0.071578905
-3.10098	LICENSE	-0.071578905
-2.992803	TEST.	-0.071578905
-2.648783	COMEDY	-0.071578905
-2.992803	SHOW	-0.071578905
-2.992803	TONIGHT.	-0.071578905
-3.10098	CAFE	-0.071578905
-2.992803	PASTRY	-0.071578905
-3.10098	COFFEE.	-0.071578905
-2.528437	VISIT	-0.097555205
-3.10098	GRANDPARENTS	-0.071578905
-3.10098	PAINT	-0.071578905
-3.10098	PORTRAIT	-0.071578905
-3.10098	SISTER.	-0.071578905
-3.10098	CLOSET	-0.071578905
-2.992803	DONATE	-0.071578905
-3.10098	CLOTHES.	-0.071578905
-2.992803	SURPRISE	-0.13968776
-3.10098	PARTY	-0.071578875
-3.10098	HIKING	-0.071578905
-3.10098	TRAIL	-0.071578905
-3.10098	LEAD	-0.071578905
-3.10098	WATERFALL.	-0.071578905
-3.10098	RECIPE	-0.071578905
-3.10098	DINNER	-0.071578905
-3.10098	GUITAR	-0.071578905
-2.2343886	BOOK	-0.16464214
-2.992803	CLUB	-0.071578875
-3.10098	SURF	-0.071578905
-3.10098	FARMER'S	-0.071578905
-2.648783	MARKET	-0.071578875
-2.3569875	FRESH	-0.11577821
-3.10098	PRODUCE	-0.071578905
-2.648783	HANDMADE	-0.071578875
-3.10098	CRAFTS.	-0.071578905
-2.992803	LISTEN	-0.071578905
-3.10098	PODCAST	-0.071578905
-2.992803	COMMUTE	-0.071578905
-3.10098	VET	-0.071578905
-2.992803	TRIATHLON.	-0.13968776
-2.992803	THEATER.	-0.071578905
-2.992803	SECTION	-0.071578905
-2.992803	TRAVEL	-0.071578905
-3.10098	GUIDE.	-0.071578905
-2.0262506	ME	-0.1264536
-2.4343061	PHOTOGRAPHY	-0.12518466
-3.10098	JUMP	-0.071578905
-3.10098	SHOT	-0.071578905
-3.10098	COURT.	-0.071578905
-3.10098	MEET	-0.071578905
-2.528437	FRIEND	-0.071578905
-3.10098	BRUNCH	-0.071578905
-3.10098	SUNDAY.	-0.071578905
-2.648783	WEDDING	-0.071578875
-2.648783	ANCIENT	-0.071578875
-3.10098	ARTIFACT.	-0.071578905
-2.992803	BUY	-0.071578905
-3.10098	OUTFIT	-0.071578905
-2.992803	JOB	-0.071578905
-3.10098	INTERVIEW.	-0.071578905
-2.0262506	VOLUNTEER	-0.16900611
-2.648783	HOMELESS	-0.071578905
-3.10098	SHELTER.	-0.071578905
-3.10098	PIANO.	-0.071578905
-3.10098	REDECORATE	-0.071578905
-3.10098	BEDROOM	-0.071578905
-3.10098	FURNITURE.	-0.071578905
-2.648783	BEACH	-0.071578875
-3.10098	BOARDWALK	-0.071578905
-3.10098	SHOP	-0.071578905
-3.10098	RESTAURANT.	-0.071578905
-2.992803	DOCTOR	-0.071578905
-3.10098	BREAK	-0.071578905
-3.10098	SOCIAL	-0.071578905
-3.10098	MEDIA.	-0.071578905
-3.10098	FRENCH	-0.071578905
-3.10098	PARIS.	-0.071578905
-3.10098	REUNION	-0.071578905
-3.10098	SUMMER.	-0.071578905
-3.10098	VARIETY	-0.071578905
-3.10098	WORKOUT	-0.071578905
-3.10098	EQUIPMENT.	-0.071578905
-2.992803	BLOOD	-0.071578905
-3.10098	DRIVE.	-0.071578905
-3.10098	DAUGHTER	-0.071578905
-3.10098	PLAY.	-0.071578905
-2.992803	GARDEN	-0.071578905
-3.10098	MOUNTAIN.	-0.071578905
-3.10098	ZOO	-0.071578905
-3.10098	ENDANGERED	-0.071578905
-3.10098	SPECIES.	-0.071578905
-2.648783	WORK	-0.071578875
-3.10098	WALK.	-0.071578905
-3.10098	SOCCER	-0.071578905
-2.528437	POTTERY	-0.36453483
-2.992803	COMMUNITY	-0.071578905
-3.10098	CENTER.	-0.071578905
-3.10098	EUROPE	-0.071578905
-3.10098	MONTH-LONG	-0.071578905
-3.10098	TRIP.	-0.071578905
-3.10098	MENU	-0.071578905
-3.10098	VALENTINE'S	-0.071578905
-3.10098	DAY.	-0.071578905
-3.10098	CODE	-0.071578905
-3.10098	FREE	-0.071578905
-3.10098	TIME.	-0.071578905
-2.528437	LOCAL	-0.071578905
-2.992803	MEDITATION	-0.071578905
-2.992803	REDUCE	-0.13968776
-3.10098	STRESS.	-0.071578905
-2.528437	LIVE	-0.071578905
-2.648783	PERFORMANCE	-0.071578875
-2.992803	CITY	-0.071578905
-3.10098	STREET	-0.071578905
-3.10098	MUSIC.	-0.071578905
-3.10098	BIRTHDAY.	-0.071578905
-3.10098	LAS	-0.071578905
-3.10098	VEGAS.	-0.071578905
-3.10098	5K	-0.071578905
-3.10098	CHARITY	-0.071578905
-3.10098	RUN.	-0.071578905
-2.992803	FOOD	-0.13968776
-3.10098	BANK	-0.071578905
-3.10098	MODERN	-0.071578905
-3.10098	ART.	-0.071578905
-3.10098	SUNSET.	-0.071578905
-3.10098	DIY	-0.071578905
-2.992803	HOME	-0.071578905
-3.10098	IMPROVEMENT	-0.071578905
-3.10098	PROJECT.	-0.071578905
-2.648783	READ	-0.071578875
-2.528437	FAVORITE	-0.10429954
-3.10098	AUTHOR.	-0.071578905
-3.10098	DOG-FRIENDLY	-0.071578905
-3.10098	AREA	-0.071578905
-3.10098	PET	-0.071578905
-3.10098	OWNER.	-0.071578905
-3.10098	HIKE	-0.071578905
-2.648783	MOUNTAIN	-0.071578875
-3.10098	BROTHER.	-0.071578905
-2.648783	IMPROVE	-0.071578905
-3.10098	FLEXIBILITY.	-0.071578905
-3.10098	DISNEY	-0.071578905
-2.992803	WORLD	-0.071578905
-3.10098	KIDS.	-0.071578905
-3.10098	GROCERY	-0.071578905
-3.10098	STORE	-0.071578905
-2.992803	WIDE	-0.13968776
-2.992803	SELECTION	-0.071578875
-3.10098	PRODUCE.	-0.071578905
-1.9368919	SKILL	-0.17540455
-3.10098	PRESENTATION.	-0.071578905
-2.992803	BASEBALL	-0.13968776
-2.528437	GAME	-0.097555205
-3.10098	STADIUM.	-0.071578905
-3.10098	COOK	-0.071578905
-3.10098	RECIPE.	-0.071578905
-3.10098	RELATIVE	-0.071578905
-2.992803	ANOTHER	-0.071578905
-3.10098	STATE.	-0.071578905
-2.528437	SCIENCE	-0.36453483
-3.10098	INTERACTIVE	-0.071578905
-3.10098	KID.	-0.071578905
-2.992803	MY	-0.071578905
-3.10098	NAME	-0.071578905
-3.10098	PEN	-0.071578905
-3.10098	PAL	-0.071578905
-3.10098	COUNTRY	-0.071578905
-2.2343886	I.	-0.5433008
-2.992803	PROGRAMMING	-0.071578905
-3.10098	LANGUAGE.	-0.071578905
-2.992803	CALLIGRAPHY	-0.071578905
-3.10098	INVITE.	-0.071578905
-3.10098	BATHROOM	-0.071578905
-3.10098	TILE	-0.071578905
-2.648783	NEW.	-0.097555205
-3.10098	GALLERY	-0.071578905
-3.10098	IMPRESSIONIST	-0.071578905
-3.10098	PAINTING.	-0.071578905
-3.10098	GIFT	-0.071578905
-3.10098	COWORKER	-0.071578905
-3.10098	AFTER	-0.071578905
-2.648783	PAINTING	-0.071578905
-3.10098	EXPRESS	-0.071578905
-3.10098	CREATIVITY.	-0.071578905
-2.992803	ROAD	-0.13968776
-2.992803	NATIONAL	-0.071578905
-3.10098	MINUTE	-0.071578905
-3.10098	SOLD	-0.071578905
-3.10098	OUT.	-0.071578905
-3.10098	VEGAN	-0.071578905
-3.10098	LASAGNA	-0.071578905
-3.10098	GIG.	-0.071578905
-2.992803	WORKSHOP	-0.11577821
-3.10098	CRUISE	-0.071578905
-3.10098	ANNIVERSARY.	-0.071578905
-2.992803	THEME	-0.13968776
-2.992803	ROLLER	-0.13968776
-3.10098	COASTER	-0.071578905
-2.992803	WATER	-0.071578875
-3.10098	RIDE.	-0.071578905
-3.10098	WEEKEND	-0.071578905
-2.992803	ANIMAL	-0.071578905
-2.992803	SHELTER	-0.071578875
-3.10098	WEEK.	-0.071578905
-2.528437	EXAM	-0.10429954
-3.10098	COLLEGE.	-0.071578905
-3.10098	FAMILY.	-0.071578905
-2.528437	BAKERY	-0.10429954
-3.10098	BREAD	-0.071578905
-3.10098	MORNING.	-0.071578905
-3.10098	DAILY	-0.071578905
-3.10098	AUDIOBOOK	-0.071578905
-3.10098	CHESS	-0.071578905
-3.10098	GRANDFATHER.	-0.071578905
-2.992803	MINDFULNESS	-0.071578905
-2.648783	RETREAT	-0.11577821
-3.10098	SALSA.	-0.071578905
-2.992803	AMUSEMENT	-0.13968776
-3.10098	FERRIS	-0.071578905
-3.10098	WHEEL	-0.071578905
-3.10098	CAROUSEL.	-0.071578905
-3.10098	SKETCHBOOK	-0.071578905
-3.10098	DRAWING	-0.071578905
-3.10098	HOSPITAL	-0.071578905
-2.528437	HELP	-0.071578905
-3.10098	PATIENT.	-0.071578905
-2.648783	WRITING	-0.11577821
-3.10098	STORYTELLING.	-0.071578905
-3.10098	JAPAN	-0.071578905
-2.528437	SEE	-0.071578905
-3.10098	CHERRY	-0.071578905
-3.10098	BLOSSOM.	-0.071578905
-3.10098	PILATES	-0.071578905
-3.10098	ZUMBA	-0.071578905
-3.10098	OFFER.	-0.071578905
-3.10098	MEETING	-0.071578905
-3.10098	DISCUSS	-0.071578905
-2.648783	NOVEL	-0.071578875
-3.10098	DRIVE	-0.071578905
-3.10098	STICK	-0.071578905
-3.10098	SHIFT.	-0.071578905
-3.10098	SWIM	-0.071578905
-3.10098	STROKE	-0.071578905
-3.10098	WINERY	-0.071578905
-3.10098	TASTE	-0.071578905
-3.10098	WINE.	-0.071578905
-2.4343061	THEATER	-0.16443314
-2.992803	FAMOUS	-0.071578905
-3.10098	HISTORICAL	-0.071578905
-3.10098	FIGURE.	-0.071578905
-3.10098	RAINY	-0.071578905
-3.10098	DAY	-0.071578905
-3.10098	BOARD	-0.071578905
-3.10098	BAR	-0.071578905
-3.10098	LAWYER	-0.071578905
-2.992803	BECOME.	-0.071578905
-3.10098	MEAL.	-0.071578905
-3.10098	PARENT	-0.071578905
-3.10098	ANNIVERSARY	-0.071578905
-3.10098	PLAN.	-0.071578905
-3.10098	LAKE	-0.071578905
-3.10098	FISH	-0.071578905
-3.10098	BOAT.	-0.071578905
-3.10098	SEWING	-0.071578905
-3.10098	CLOTHES	-0.071578905
-2.992803	STAND-UP	-0.13968776
-3.10098	ROUTINE	-0.071578905
-3.10098	OPEN	-0.071578905
-3.10098	MIC	-0.071578905
-3.10098	NIGHT.	-0.071578905
-3.10098	MUG.	-0.071578905
-3.10098	FARMER	-0.071578905
-3.10098	FRUIT	-0.071578905
-3.10098	VEGETABLE	-0.071578905
-3.10098	CLEAR	-0.071578905
-3.10098	MIND	-0.071578905
-3.10098	ROAD-TRIP	-0.071578905
-3.10098	MONUMENT	-0.071578905
-2.1840186	GO.	-0.071578905
-3.10098	SPACE-EXPLORATION	-0.071578905
-1.8861338	HAVE.	-0.22784701
-3.10098	SOUP-KITCHEN	-0.071578905
-3.10098	FEED.	-0.071578905
-3.10098	CERTIFICATION-EXAM	-0.071578905
-2.992803	ADVANCE	-0.13968776
-3.10098	CAREER.	-0.071578905
-3.10098	CREATIVE-WRITING	-0.071578905
-2.648783	DEVELOP	-0.11577821
-3.10098	SKI-TRIP	-0.071578905
-2.648783	AQUARIUM	-0.11577821
-3.10098	DIVERSE	-0.071578905
-3.10098	MARINE-LIFE	-0.071578905
-3.10098	MUSIC-FESTIVAL	-0.071578905
-2.992803	ARTIST	-0.071578875
-2.4343061	SEE.	-0.071578905
-2.528437	PRACTICE.	-0.19111827
-3.10098	SWEATER	-0.071578905
-2.1840186	LEARN.	-0.08319409
-3.10098	BASKETBALL-GAME	-0.071578905
-3.10098	CHEER	-0.071578905
-2.992803	FAVORITE-TEAM	-0.13968776
-3.10098	THEME-PARK	-0.071578905
-3.10098	ROLLER-COASTER	-0.071578905
-3.10098	WATER-SLIDE	-0.071578905
-3.10098	POSE	-0.071578905
-2.992803	STUDIO	-0.071578905
-3.10098	LEADERSHIP-CONFERENCE	-0.071578905
-2.992803	TRIATHLON	-0.13968776
-2.992803	CHALLENGE	-0.071578905
-3.10098	SELF.	-0.071578905
-3.10098	COMMUNITY-GARDEN	-0.071578905
-2.992803	GROW	-0.071578905
-2.992803	FRESH-PRODUCE.	-0.071578905
-2.992803	MUSICAL	-0.071578905
-3.10098	CATCHY-SONG	-0.071578905
-3.10098	DANCE-NUMBER	-0.071578905
-2.992803	SPA	-0.13968776
-2.992803	RELAX	-0.13968776
-3.10098	MASSAGE.	-0.071578905
-2.992803	CAR	-0.13968776
-3.10098	REPAIR	-0.071578905
-2.992803	HOBBY.	-0.071578905
-2.992803	NUTRITION	-0.13968776
-3.10098	HEALTH.	-0.071578905
-3.10098	RIVER-RAFTING-TRIP	-0.071578905
-2.992803	EXPERIENCE	-0.071578905
-2.992803	ADVENTURE	-0.071578905
-3.10098	CUPCAKE	-0.071578905
-3.10098	COOKIE	-0.071578905
-2.528437	LANGUAGE	-0.10429954
-3.10098	NEW-LANGUAGE	-0.071578905
-2.992803	TAKE.	-0.13968776
-3.10098	PERSONAL-FINANCE	-0.071578905
-3.10098	READ.	-0.071578905
-2.992803	KICKBOXING	-0.13968776
-2.528437	MOVE	-0.19111827
-3.10098	STAY-FIT.	-0.071578905
-3.10098	NEW-YORK-CITY	-0.071578905
-3.10098	SIGHTS	-0.071578905
-3.10098	FAMOUS-ARTIST	-0.071578905
-3.10098	COMEDY-CLUB	-0.071578905
-3.10098	STAND-UP-COMEDY.	-0.071578905
-3.10098	MAGIC-TRICK	-0.071578905
-3.10098	SHOW.	-0.071578905
-3.10098	DANCE-WORKSHOP	-0.071578905
-3.10098	CHOREOGRAPHY.	-0.071578905
-3.10098	KAYAKING-TRIP	-0.071578905
-2.992803	COASTLINE	-0.071578905
-2.992803	EXPLORE	-0.071578905
-3.10098	CARDIO	-0.071578905
-3.10098	WEIGHT-EQUIPMENT	-0.071578905
-3.10098	WILDLIFE-SANCTUARY	-0.071578905
-3.10098	CARE	-0.071578905
-3.10098	ANIMAL.	-0.071578905
-3.10098	CODING-BOOTCAMP	-0.071578905
-3.10098	PROGRAMMING-SKILL	-0.071578905
-3.10098	PUBLIC-SPEAKING	-0.071578905
-3.10098	CONFIDENCE.	-0.071578905
-3.10098	SOUTH-AMERICA	-0.071578905
-2.648783	CULTURE	-0.071578905
-3.10098	AMUSEMENT-PARK	-0.071578905
-3.10098	HAUNTED-HOUSE	-0.071578905
-2.992803	FUNHOUSE	-0.13968776
-3.10098	FARMERS-MARKET	-0.071578905
-2.992803	ACROBATIC	-0.13968776
-3.10098	CIRCUS-PERFORMANCE	-0.071578905
-2.992803	BEAD	-0.13968776
-3.10098	WIRE	-0.071578905
-2.992803	JEWELRY	-0.071578905
-3.10098	FOOTBALL-GAME	-0.071578905
-3.10098	ROOT	-0.071578905
-3.10098	SCIENCE-MUSEUM	-0.071578905
-2.992803	PLANETARIUM	-0.13968776
-3.10098	STARGAZING	-0.071578905
-2.992803	SALSA	-0.13968776
-3.10098	MERENGUE	-0.071578905
-3.10098	WORLD-HISTORY	-0.071578905
-2.992803	MARATHON	-0.13968776
-3.10098	ACHIEVE	-0.071578905
-3.10098	PERSONAL-GOAL.	-0.071578905
-3.10098	CAMPING-TRIP	-0.071578905
-2.992803	DISCONNECT	-0.13968776
-3.10098	UNWIND	-0.071578905
-3.10098	CLASSIC-NOVEL	-0.071578905
-3.10098	NEW-RELEASE	-0.071578905
-3.10098	TED-TALK	-0.071578905
-3.10098	INSPIRING-SPEAKER	-0.071578905
-2.648783	LISTEN.	-0.071578875
-2.992803	TENNIS	-0.13968776
-3.10098	UPCOMING-TOURNAMENT	-0.071578905
-3.10098	WEB-DESIGN	-0.071578905
-2.992803	WEB	-0.071578905
-2.648783	SKI	-0.2395961
-3.10098	ALPS	-0.071578905
-3.10098	THOUGHT-PROVOKING	-0.071578905
-3.10098	PLOT	-0.071578905
-3.10098	COOKING	-0.071578905
-2.528437	COMPETITION	-0.10429954
-3.10098	SHOWCASE	-0.071578905
-2.992803	SKILLS.	-0.071578905
-2.992803	BREAKDANCE	-0.13968776
-2.3569875	FOR.	-0.071578905
-3.10098	BOWL	-0.071578905
-2.992803	MAKE.	-0.071578905
-3.10098	WINE	-0.071578905
-3.10098	TASTE.	-0.071578905
-3.10098	NATIONAL.	-0.071578905
-3.10098	SPACE	-0.071578905
-3.10098	EXPLORATION	-0.071578905
-2.992803	SOUP	-0.13968776
-3.10098	KITCHEN	-0.071578905
-3.10098	FEED	-0.071578905
-3.10098	HOMELESS.	-0.071578905
-3.10098	CERTIFICATION	-0.071578905
-3.10098	CREATIVE	-0.071578905
-3.10098	THEY.	-0.071578905
-3.10098	MARINE	-0.071578905
-3.10098	LIFE	-0.071578905
-3.10098	PERFORM	-0.071578905
-2.992803	IN.	-0.071578905
-3.10098	SHE.	-0.071578905
-3.10098	TEAM	-0.071578905
-3.10098	CHEER.	-0.071578905
-2.992803	SLIDE	-0.071578905
-3.10098	LEADERSHIP	-0.071578905
-3.10098	HERSELF.	-0.071578905
-3.10098	CATCHY	-0.071578905
-3.10098	SONG	-0.071578905
-3.10098	NUMBER	-0.071578905
-3.10098	HEALTH	-0.071578905
-2.528437	IMPROVE.	-0.071578905
-2.992803	RIVER	-0.071578905
-2.992803	RAFTING	-0.13968776
-2.648783	EXPERIENCE.	-0.11577821
-2.992803	PERSONAL	-0.071578905
-2.992803	FINANCE	-0.071578905
-2.992803	HE.	-0.071578905
-3.10098	FIT	-0.071578905
-2.992803	STAY.	-0.071578905
-3.10098	SIGHT	-0.071578905
-3.10098	WATCH.	-0.071578905
-3.10098	MAGIC	-0.071578905
-3.10098	TRICK	-0.071578905
-3.10098	CHOREOGRAPHY	-0.071578905
-2.992803	KAYAKING	-0.071578905
-2.992803	EXPLORE.	-0.071578905
-3.10098	WEIGHT	-0.071578905
-3.10098	EQUIPMENT	-0.071578905
-2.992803	WILDLIFE	-0.071578905
-3.10098	SANCTUARY	-0.071578905
-3.10098	CARE.	-0.071578905
-3.10098	CODING	-0.071578905
-3.10098	BOOTCAMP	-0.071578905
-3.10098	CONFIDENCE	-0.071578905
-3.10098	SOUTH	-0.071578905
-3.10098	AMERICA	-0.071578905
-3.10098	HAUNTED	-0.071578905
-3.10098	HOUSE	-0.071578905
-3.10098	FARMERS	-0.071578905
-3.10098	BUY.	-0.071578905
-3.10098	CIRCUS	-0.071578905
-3.10098	FOOTBALL	-0.071578905
-3.10098	ROOT.	-0.071578905
-2.992803	HISTORY	-0.071578905
-3.10098	GOAL	-0.071578905
-3.10098	ACHIEVE.	-0.071578905
-3.10098	CLASSIC	-0.071578905
-3.10098	RELEASE	-0.071578905
-3.10098	TED	-0.071578905
-2.992803	TALK	-0.071578905
-3.10098	INSPIRING	-0.071578905
-3.10098	SPEAKER	-0.071578905
-3.10098	TOURNAMENT	-0.071578905
-2.528437	DESIGN	-0.36453483
-3.10098	SHOWCASE.	-0.071578905
-3.10098	RELAXATION	-0.071578905
-3.10098	FOCUS.	-0.071578905
-3.10098	SAIL	-0.071578905
-3.10098	BOAT	-0.071578905
-3.10098	SAILING	-0.071578905
-3.10098	WOODWORKING	-0.071578905
-3.10098	FURNITURE	-0.071578905
-3.10098	OWN	-0.071578905
-3.10098	BACKPACKING	-0.071578905
-3.10098	NATURE	-0.071578905
-3.10098	ABSTRACT	-0.071578905
-2.992803	HELP.	-0.071578905
-3.10098	MEDICAL	-0.071578905
-3.10098	FASHION	-0.071578905
-3.10098	DEVELOP.	-0.071578905
-2.992803	HOT	-0.071578905
-3.10098	AIR	-0.071578905
-3.10098	BALLOON	-0.071578905
-3.10098	RIDE	-0.071578905
-3.10098	SCENERY	-0.071578905
-3.10098	ABOVE.	-0.071578905
-3.10098	CROISSANT	-0.071578905
-3.10098	DANISH	-0.071578905
-3.10098	HIP	-0.071578905
-3.10098	HOP	-0.071578905
-3.10098	INVESTING	-0.071578905
-3.10098	BODYBUILDING	-0.071578905
-3.10098	MEAL	-0.071578905
-3.10098	SERVE.	-0.071578905
-3.10098	TOUCH	-0.071578905
-3.10098	TANK	-0.071578905
-3.10098	VISITOR	-0.071578905
-3.10098	INTERACT	-0.071578905
-3.10098	SEA	-0.071578905
-3.10098	CREATURE.	-0.071578905
-3.10098	JAZZ	-0.071578905
-3.10098	ARCHERY	-0.071578905
-3.10098	GRAPHIC	-0.071578905
-3.10098	PORTFOLIO	-0.071578905
-3.10098	SECLUDED	-0.071578905
-3.10098	ISLAND.	-0.071578905
-3.10098	SAUNA	-0.071578905
-3.10098	STEAM	-0.071578905
-3.10098	ROOM	-0.071578905
-3.10098	TUB	-0.071578905
-3.10098	LITERACY	-0.071578905
-3.10098	PROGRAM	-0.071578905
-3.10098	CHILD	-0.071578905
-3.10098	LEGAL	-0.071578905
-3.10098	SEMINAR	-0.071578905
-3.10098	LAW	-0.071578905
-3.10098	CHANGE	-0.071578905
-3.10098	STAY	-0.071578905
-3.10098	UP-TO-DATE.	-0.071578905
-3.10098	POWERLIFTING	-0.071578905
-3.10098	STRENGTH	-0.071578905
-3.10098	ASIA	-0.071578905
-3.10098	DIFFERENT	-0.071578905
-3.10098	LAZY	-0.071578905
-3.10098	TEA	-0.071578905
-3.10098	CEREMONY	-0.071578905
-3.10098	JAPANESE	-0.071578905
-3.10098	PSYCHOLOGY	-0.071578905
-3.10098	HUMAN	-0.071578905
-3.10098	BEHAVIOR	-0.071578905
-3.10098	MARTIAL	-0.071578905
-3.10098	ARTS	-0.071578905
-3.10098	SHAPE	-0.071578905
-3.10098	BIRDWATCHING	-0.071578905
-3.10098	RARE	-0.071578905
-3.10098	SPECIES	-0.071578905
-3.10098	MYTHOLOGY	-0.071578905
-3.10098	LIBRARY.	-0.071578905
-2.992803	ROCK	-0.071578905
-3.10098	CLIMBING	-0.071578905
-2.992803	CLIMB	-0.071578905
-3.10098	INTERIOR	-0.071578905
-3.10098	REDECORATE.	-0.071578905
-3.10098	RAPID	-0.071578905
-3.10098	THROUGH.	-0.071578905
-3.10098	BALLET	-0.071578905
-3.10098	ORCHESTRA.	-0.071578905
-3.10098	ENTREPRENEURSHIP	-0.071578905
-3.10098	STARTUP	-0.071578905
-3.10098	BOXING	-0.071578905
-3.10098	MATCH	-0.071578905
-3.10098	PROFESSIONALLY	-0.071578905
-3.10098	COMPETE.	-0.071578905
-3.10098	SAFARI	-0.071578905
-3.10098	EXOTIC	-0.071578905
-3.10098	SCULPTURE	-0.071578905
-3.10098	INSTALLATION.	-0.071578905
-3.10098	CLEANUP	-0.071578905
-3.10098	ENVIRONMENT.	-0.071578905
-3.10098	PROFICIENCY	-0.071578905
-3.10098	EXAM.	-0.071578905
-3.10098	MAKEUP	-0.071578905
-3.10098	ARTISTRY	-0.071578905
-3.10098	HORSEBACK	-0.071578905
-3.10098	RIDING	-0.071578905
-3.10098	COUNTRYSIDE.	-0.071578905
-3.10098	ARTIFACT	-0.071578905
-3.10098	CIVILIZATION.	-0.071578905
-3.10098	TEDx	-0.071578905
-3.10098	INNOVATIVE	-0.071578905
-3.10098	IDEA.	-0.071578905
-3.10098	SKATEBOARD	-0.071578905
-3.10098	COMPETITION.	-0.071578905
-3.10098	INVITATION.	-0.071578905
-3.10098	SNORKELING	-0.071578905
-3.10098	CORAL	-0.071578905
-3.10098	REEF.	-0.071578905
-3.10098	WALL	-0.071578905
-3.10098	TRAMPOLINE	-0.071578905
-3.10098	PROVIDE	-0.071578905
-3.10098	ASSISTANCE.	-0.071578905

\2-grams:
-1.3672274	WORK. </s>	0
-0.8043931	PRESENTATION. </s>	0
-1.7316127	I. </s>	0
-1.455354	NEW. </s>	0
-1.4518118	SEE. </s>	0
-1.0919504	WEB </s>	0
-0.8043931	ACHIEVE. </s>	0
-0.8043931	ASSISTANCE. </s>	0
-1.4322982	<s> SHE	-0.10518128
-1.1352783	CHECK-UP. SHE	-0.10518128
-0.75213575	EXAMS. SHE	-0.10518128
-0.9957637	CHARITY. SHE	-0.10518128
-0.60676694	TRAIN SHE	-0.26720196
-0.75213575	BATHROOM. SHE	-0.10518128
-1.3171935	ATTEND SHE	-0.4230069
-1.2007109	WORK. SHE	-0.10518128
-0.9957637	FRIENDS. SHE	-0.10518128
-1.5015023	TAKE SHE	-0.10518128
-0.8742901	PARK. SHE	-0.10518128
-1.503713	PRACTICE SHE	-0.10518128
-1.1352783	SKILL. SHE	-0.10518128
-0.75213575	SEMESTER. SHE	-0.10518128
-0.75213575	CHESS. SHE	-0.10518128
-0.75213575	BEACH. SHE	-0.10518128
-0.75213575	SISTER. SHE	-0.10518128
-0.75213575	COURT. SHE	-0.10518128
-0.75213575	SHELTER. SHE	-0.10518128
-0.75213575	MEDIA. SHE	-0.10518128
-0.75213575	PLAY. SHE	-0.10518128
-0.75213575	VEGAS. SHE	-0.10518128
-0.75213575	PROJECT. SHE	-0.10518128
-0.75213575	BROTHER. SHE	-0.10518128
-0.75213575	STADIUM. SHE	-0.10518128
-0.75213575	LANGUAGE. SHE	-0.10518128
-0.8742901	NEW. SHE	-0.19726187
-0.75213575	GIG. SHE	-0.10518128
-0.75213575	WEEK. SHE	-0.10518128
-0.75213575	GRANDFATHER. SHE	-0.10518128
-0.75213575	PATIENT. SHE	-0.10518128
-0.75213575	SHIFT. SHE	-0.10518128
-0.9957637	BECOME. SHE	-0.10518128
-0.75213575	NIGHT. SHE	-0.10518128
-0.9957637	CAREER. SHE	-0.75971216
-0.47236145	PRACTICE. SHE	-0.26887092
-0.9957637	HOBBY. SHE	-0.75971216
-0.75213575	READ. SHE	-0.19726187
-0.75213575	SHOW. SHE	-0.025803218
-0.75213575	EXAM. SHE	-0.10518128
-0.75213575	COMPETITION. SHE	-0.10518128
-2.507139	SHE TEACH	-0.10518128
-0.809471	TEACH YOGA	-0.10518128
-2.1628408	I YOGA	-0.75971216
-1.9754566	TAKE YOGA	-0.10518128
-1.6126455	GYM YOGA	-0.10518128
-2.070161	HAVE. YOGA	-0.10518128
-0.9236413	YOGA CLASS	-0.10518128
-1.7555053	TAKE CLASS	-0.10518128
-1.2142076	SPEAKING CLASS	-0.10518128
-0.41376472	DANCE CLASS	-0.24744147
-1.4023535	PHOTOGRAPHY CLASS	-0.10518128
-0.24160022	POTTERY CLASS	-0.26720196
-1.3151327	PAINTING CLASS	-0.10518128
-0.71496284	WRITING CLASS	-0.10518128
-0.7895063	ZUMBA CLASS	-0.10518128
-0.7895063	SEWING CLASS	-0.10518128
-0.7895063	CREATIVE-WRITING CLASS	-0.75971216
-0.5467641	NUTRITION CLASS	-0.025803218
-0.83215	LANGUAGE CLASS	-0.4230069
-0.7895063	PUBLIC-SPEAKING CLASS	-0.025803218
-0.7895063	WEB-DESIGN CLASS	-0.75971216
-0.24160022	DESIGN CLASS	-0.15074196
-0.7895063	WOODWORKING CLASS	-0.10518128
-2.1304119	CLASS THIS	-0.10518128
-1.4827785	FESTIVAL THIS	-0.10518128
-2.052745	TRIP THIS	-0.10518128
-0.8111769	GRANDPARENTS THIS	-0.10518128
-1.414561	THIS AFTERNOON.	-0.10518128
-0.52003217	<s> THEY	-0.3193005
-0.75213575	AFTERNOON. THEY	-0.10518128
-0.89624876	GO THEY	-0.22409548
-0.9957637	CHARITY. THEY	-0.10518128
-0.9957637	MARATHON. THEY	-0.10518128
-1.2007109	WORK. THEY	-0.10518128
-0.9957637	BACKYARD. THEY	-0.10518128
-1.3195704	PLAN THEY	-0.4230069
-0.9957637	FRIENDS. THEY	-0.10518128
-1.268063	PARK. THEY	-0.10518128
-0.68624395	SKILL. THEY	-0.3193005
-0.75213575	FRIDAY. THEY	-0.10518128
-0.75213575	CONCERT. THEY	-0.10518128
-0.9957637	TEST. THEY	-0.10518128
-0.75213575	CLOTHES. THEY	-0.10518128
-0.5280947	TRIATHLON. THEY	-0.10518128
-0.75213575	SUNDAY. THEY	-0.10518128
-1.2647169	VOLUNTEER THEY	-0.10518128
-0.75213575	PIANO. THEY	-0.10518128
-0.75213575	PARIS. THEY	-0.10518128
-0.75213575	CENTER. THEY	-0.10518128
-0.75213575	STRESS. THEY	-0.10518128
-0.75213575	RUN. THEY	-0.10518128
-0.75213575	AUTHOR. THEY	-0.10518128
-0.75213575	FLEXIBILITY. THEY	-0.10518128
-0.75213575	RECIPE. THEY	-0.10518128
-0.75213575	INVITE. THEY	-0.10518128
-1.268063	NEW. THEY	-0.10518128
-0.75213575	CREATIVITY. THEY	-0.10518128
-0.75213575	COLLEGE. THEY	-0.10518128
-0.75213575	STORYTELLING. THEY	-0.10518128
-0.75213575	MEAL. THEY	-0.10518128
-0.75213575	MUG. THEY	-0.10518128
-1.1287028	LEARN. THEY	-0.19726187
-0.75213575	SELF. THEY	-0.75971216
-0.75213575	HEALTH. THEY	-0.75971216
-0.75213575	STAY-FIT. THEY	-0.75971216
-0.75213575	CHOREOGRAPHY. THEY	-0.025803218
-0.75213575	CONFIDENCE. THEY	-0.025803218
-0.75213575	PERSONAL-GOAL. THEY	-0.025803218
-0.75213575	INVITATION. THEY	-0.10518128
-1.0797423	THEY GO	-0.2356467
-1.3580848	FESTIVAL GO	-0.75971216
-1.5684556	I GO	-0.10518128
-0.6890357	TRIP GO	-0.39378002
-1.2886817	CONCERT GO	-0.10518128
-1.1931107	CLUB GO	-0.10518128
-1.1931107	MARKET GO	-0.10518128
-0.9597569	ME GO	-0.10518125
-1.1931107	WORK GO	-0.10518128
-1.1931107	MOUNTAIN GO	-0.10518128
-0.9111893	GAME GO	-0.75971216
-0.7088211	RETREAT GO	-0.75971216
-1.1931107	NOVEL GO	-0.10518128
-0.78145117	MIND GO	-0.10518128
-0.54280794	SPA GO	-0.4230069
-0.78145117	COMEDY-CLUB GO	-0.025803218
-0.78145117	FARMERS-MARKET GO	-0.025803218
-1.0485182	ALPS GO	-0.10518128
-1.2970045	COMPETITION GO	-0.75971216
-0.78145117	RIDE GO	-0.10518128
-0.78145117	CEREMONY GO	-0.10518128
-0.78145117	SAFARI GO	-0.10518128
-2.3208113	THEY MUSIC	-0.10518128
-2.1633797	GO MUSIC	-0.10518128
-1.3925506	LIVE MUSIC	-0.10518128
-2.092373	HAVE. MUSIC	-0.10518128
-0.49557775	MUSIC FESTIVAL	-0.10518125
-0.8128895	STREET FESTIVAL	-0.10518128
-0.8128895	WINE FESTIVAL	-0.75971216
-2.1087928	CLASS WEEKEND.	-0.10518128
-0.49432442	THIS WEEKEND.	-0.10518125
-1.2694603	WEDDING WEEKEND.	-0.10518128
-1.1018505	BANK WEEKEND.	-0.10518128
-0.809471	VEGETABLE WEEKEND.	-0.10518128
-1.6297977	WEEKEND. RESTAURANT	-0.10518128
-1.898285	NEW RESTAURANT	-0.10518128
-0.8128895	TRIP. RESTAURANT	-0.10518128
-1.399119	RESTAURANT SERVE	-0.10518128
-0.8128895	CAFE SERVE	-0.10518128
-1.2793933	SHELTER SERVE	-0.10518128
-0.73485	SERVE DELICIOUS	-0.10518128
-0.8591114	BAKERY DELICIOUS	-0.025803218
-1.2896935	DELICIOUS SUSHI.	-0.10518128
-0.7381136	GO I	-0.10518128
-0.79113543	SUSHI. I	-0.10518128
-0.79113543	BOOK. I	-0.10518128
-1.1444201	ATTEND I	-0.10518125
-0.79113543	GARDEN. I	-0.10518128
-1.7701302	TAKE I	-0.10518125
-0.79113543	QUICKLY. I	-0.10518128
-1.7655426	PRACTICE I	-0.10518128
-0.79113543	PICASSO. I	-0.10518128
-0.79113543	COLD. I	-0.10518128
-0.79113543	BESTSELLER. I	-0.10518128
-0.79113543	COFFEE. I	-0.10518128
-0.79113543	WATERFALL. I	-0.10518128
-0.79113543	CRAFTS. I	-0.10518128
-0.8243701	VOLUNTEER I	-0.10518128
-0.5088537	HAVE. I	-0.19726187
-2.2559748	GO DENTIST	-0.10518128
-0.8128895	DENTIST CHECK-UP.	-0.10518128
-0.8128895	VET CHECK-UP.	-0.10518128
-1.1085783	DOCTOR CHECK-UP.	-0.10518128
-1.0820024	<s> HE	-0.10518128
-1.0154855	WEEKEND. HE	-0.10518128
-0.69679224	CHECK-UP. HE	-0.10518128
-1.4222945	STUDY HE	-0.10518128
-0.7657757	NETFLIX. HE	-0.10518128
-1.0982685	ATTEND HE	-0.10518128
-1.019956	CITY. HE	-0.10518128
-1.3770497	LEARN HE	-0.10518128
-0.7657757	SCARF. HE	-0.10518128
-1.0695763	PRACTICE HE	-0.16040698
-0.8078859	FRIEND. HE	-0.10518128
-0.7657757	BREAKFAST. HE	-0.10518128
-0.7657757	WEIGHTS. HE	-0.10518128
-1.019956	TONIGHT. HE	-0.10518128
-0.7657757	INTERVIEW. HE	-0.10518128
-0.7657757	DRIVE. HE	-0.10518128
-0.7657757	WALK. HE	-0.10518128
-0.7657757	TIME. HE	-0.10518128
-0.7657757	BIRTHDAY. HE	-0.10518128
-0.7657757	SUNSET. HE	-0.10518128
-0.15274224	I. HE	-0.4230069
-0.7657757	FEED. HE	-0.75971216
-1.3016931	SEE. HE	-0.75971216
-1.2771922	PRACTICE. HE	-0.75971216
-1.019956	FRESH-PRODUCE. HE	-0.025803218
-1.019956	MASSAGE. HE	-0.75971216
-0.53500205	TAKE. HE	-0.19726187
-0.7657757	STAND-UP-COMEDY. HE	-0.025803218
-0.7657757	ANIMAL. HE	-0.025803218
-1.153763	LISTEN. HE	-0.025803218
-0.7657757	ENVIRONMENT. HE	-0.10518128
-0.7657757	IDEA. HE	-0.10518128
-1.9460024	SHE STUDY	-0.10518128
-1.3308505	HE STUDY	-0.10518128
-0.8543344	EXAM STUDY	-0.75971216
-0.8111769	CERTIFICATION-EXAM STUDY	-0.75971216
-1.1585875	STUDY FINAL	-0.10518128
-1.1155022	FINAL EXAMS.	-0.10518128
-1.999558	SHE ORGANIZE	-0.10518128
-2.4304955	HE ORGANIZE	-0.10518128
-0.7352552	ORGANIZE FUNDRAISER	-0.10518128
-1.1144264	FUNDRAISER CHARITY.	-0.10518128
-1.4106101	LOCAL CHARITY.	-0.10518128
-1.610314	SHE TRAIN	-0.10518125
-2.231806	THEY TRAIN	-0.10518128
-0.55559665	TRIATHLON TRAIN	-0.4230069
-0.55559665	MARATHON TRAIN	-0.044329394
-0.85084677	COMPETITION TRAIN	-0.75971216
-0.8077718	MATCH TRAIN	-0.10518128
-1.7989285	TRAIN MARATHON.	-0.10518128
-0.8158399	RUN MARATHON.	-0.10518128
-1.1144264	MARATHON. LIBRARY	-0.10518128
-1.7943277	GO. LIBRARY	-0.044329394
-1.2455785	LIBRARY HAVE	-0.10518128
-0.7447168	PARK HAVE	-0.10518128
-0.8337372	MUSEUM HAVE	-0.3193005
-1.0854734	BOOKSTORE HAVE	-0.10518128
-1.5683197	GYM HAVE	-0.10518128
-1.2455785	MARKET HAVE	-0.10518128
-1.0854734	SECTION HAVE	-0.10518128
-0.80104053	GALLERY HAVE	-0.10518128
-1.4514407	THEATER HAVE	-0.10518128
-0.80104053	TANK HAVE	-0.10518128
-1.9670128	HAVE LARGE	-0.10518128
-1.3755491	HAVE COLLECTION	-0.10518125
-0.80271363	LARGE COLLECTION	-0.10518128
-1.6643	MUSEUM COLLECTION	-0.10518128
-1.3611208	PAINTING COLLECTION	-0.10518128
-0.80271363	DIVERSE COLLECTION	-0.4230069
-1.250251	ARTIST COLLECTION	-0.10518128
-0.80271363	FAMOUS-ARTIST COLLECTION	-0.025803218
-0.80271363	NEW-RELEASE COLLECTION	-0.025803218
-0.80271363	RELEASE COLLECTION	-0.10518128
-1.9133745	COLLECTION BOOK.	-0.10518128
-1.9224042	THEY WATCH	-0.10518128
-2.1366625	GO WATCH	-0.025803218
-2.1628408	I WATCH	-0.10518128
-1.871813	HE WATCH	-0.10518128
-1.2694603	BEACH WATCH	-0.10518128
-1.1011215	WATCH MOVIE	-0.10518128
-1.1155022	MOVIE NETFLIX.	-0.10518128
-2.4497976	HE FIX	-0.10518128
-0.8163805	FIX LEAKY	-0.10518128
-0.8163805	LEAKY FAUCET	-0.10518128
-0.8163805	FAUCET BATHROOM.	-0.10518128
-1.5320817	SHE ATTEND	-0.10518125
-1.9229195	CLASS ATTEND	-0.75971216
-1.9470313	THEY ATTEND	-0.10518128
-1.3958066	FESTIVAL ATTEND	-0.10518128
-1.9468588	HE ATTEND	-0.10518128
-0.5811457	CONFERENCE ATTEND	-0.4230069
-1.6918344	ME ATTEND	-0.10518128
-0.71620166	WORKSHOP ATTEND	-0.10518128
-0.79113543	MUSIC-FESTIVAL ATTEND	-0.75971216
-0.79113543	LEADERSHIP-CONFERENCE ATTEND	-0.75971216
-0.79113543	DANCE-WORKSHOP ATTEND	-0.025803218
-0.79113543	CODING-BOOTCAMP ATTEND	-0.025803218
-0.79113543	TED-TALK ATTEND	-0.025803218
-0.79113543	BOOTCAMP ATTEND	-0.10518128
-1.0666028	TALK ATTEND	-0.10518128
-0.79113543	SEMINAR ATTEND	-0.10518128
-1.5289937	ATTEND CONFERENCE	-0.10518128
-0.8111769	LEADERSHIP CONFERENCE	-0.10518128
-1.1052015	FINANCE CONFERENCE	-0.10518128
-0.8111769	STARTUP CONFERENCE	-0.10518128
-1.489208	CONFERENCE WORK.	-0.10518128
-1.1052015	COMMUTE WORK.	-0.10518128
-0.8111769	AFTER WORK.	-0.10518128
-1.2743984	NOVEL WORK.	-0.10518128
-2.4810781	THEY HOST	-0.10518128
-1.1144264	CITY HOST	-0.10518128
-1.1155022	HOST BARBECUE	-0.10518128
-0.8158399	BARBECUE BACKYARD.	-0.10518128
-1.1144264	GARDEN BACKYARD.	-0.10518128
-2.0858526	HE PARK	-0.10518128
-1.0854734	BACKYARD. PARK	-0.10518128
-1.0854734	CITY. PARK	-0.10518128
-1.0854734	WALK PARK	-0.10518128
-0.80104053	DAUGHTER PARK	-0.10518128
-1.9049301	SKILL PARK	-0.75971216
-0.55236405	THEME PARK	-0.10518128
-1.2455785	WATER PARK	-0.10518128
-0.55236405	AMUSEMENT PARK	-0.10518125
-0.80104053	PLAN. PARK	-0.10518128
-1.9595726	HAVE BEAUTIFUL	-0.10518128
-0.8158399	LEAD BEAUTIFUL	-0.10518128
-1.1155022	BEAUTIFUL ROSE	-0.10518128
-0.8163805	ROSE GARDEN.	-0.10518128
-1.6299297	THEY PLAN	-0.10518125
-2.2024481	I PLAN	-0.10518128
-1.2235092	TRIP PLAN	-0.025803218
-1.8569175	ME PLAN	-0.10518128
-1.9470313	THEY TRIP	-0.10518128
-0.99766594	PLAN TRIP	-0.10518128
-0.36584005	CAMPING TRIP	-0.10518128
-0.79113543	FRENCH TRIP	-0.10518128
-1.0666028	CITY TRIP	-0.10518128
-0.5475597	ROAD TRIP	-0.10518128
-0.36584005	SKI TRIP	-0.4230069
-0.5475597	RAFTING TRIP	-0.75971216
-1.0666028	KAYAKING TRIP	-0.10518128
-0.79113543	AMERICA TRIP	-0.10518128
-0.79113543	SAILING TRIP	-0.10518128
-0.79113543	BACKPACKING TRIP	-0.10518128
-0.79113543	ASIA TRIP	-0.10518128
-0.79113543	BIRDWATCHING TRIP	-0.10518128
-0.79113543	RIDING TRIP	-0.10518128
-0.79113543	SNORKELING TRIP	-0.10518128
-2.0731854	SHE NEW	-0.10518128
-1.9559748	I NEW	-0.10518128
-1.8985622	TRIP NEW	-0.10518128
-0.72119266	TRY NEW	-0.4230069
-1.512389	LEARN NEW	-0.044329394
-1.0790917	BUY NEW	-0.10518128
-0.79771364	BEDROOM NEW	-0.10518128
-1.4774095	SKILL NEW	-0.75971216
-0.79771364	LASAGNA NEW	-0.10518128
-1.2363819	NOVEL NEW	-0.10518128
-1.0790917	STAY. NEW	-0.10518128
-0.79771364	CHOREOGRAPHY NEW	-0.10518128
-1.398786	NEW YORK	-0.10518128
-1.4106101	RESTAURANT CITY.	-0.10518128
-1.1144264	YORK CITY.	-0.10518128
-1.5674449	HE PLAY	-0.3193005
-1.5810633	LEARN PLAY	-0.10518128
-1.4847077	GAME PLAY	-0.10518128
-0.5910091	THEATER PLAY	-0.4230069
-1.6799012	PLAY BASKETBALL	-0.10518128
-0.8128895	SHOT BASKETBALL	-0.10518128
-1.1085783	SHE. BASKETBALL	-0.10518128
-1.4106101	BASKETBALL FRIENDS.	-0.10518128
-1.2880877	CLUB FRIENDS.	-0.10518128
-0.96147877	SHE TAKE	-0.19917655
-0.44498292	CLASS TAKE	-0.32390165
-2.231806	THEY TAKE	-0.10518128
-1.5512018	HE TAKE	-0.10518125
-1.34104	ME TAKE	-0.10518128
-0.8077718	CLOTHES TAKE	-0.10518128
-1.5505656	TAKE DOG	-0.10518128
-1.6478571	WEEKEND. WALK	-0.10518128
-1.1144264	DOG WALK	-0.10518128
-1.1018505	WALK PARK.	-0.10518128
-1.1018505	GUITAR PARK.	-0.10518128
-1.38608	FRIEND PARK.	-0.10518128
-1.1018505	NATIONAL PARK.	-0.10518128
-0.809471	TRAMPOLINE PARK.	-0.10518128
-1.9637847	THEY TRY	-0.75971216
-2.2460337	I TRY	-0.10518128
-1.1085783	RECIPE TRY	-0.10518128
-1.4127405	RESTAURANT DINNER.	-0.10518128
-2.1633797	GO CONCERT	-0.10518128
-1.4847077	PARK. CONCERT	-0.10518128
-0.8111769	DINNER. CONCERT	-0.10518128
-0.8111769	JAZZ CONCERT	-0.10518128
-1.4127405	CONCERT TICKET	-0.10518128
-0.8163805	TICKET SELL	-0.10518128
-0.8163805	SELL OUT	-0.10518128
-0.8163805	OUT QUICKLY.	-0.10518128
-1.7785931	SHE LEARN	-0.10518128
-1.5706193	CLASS LEARN	-0.18049468
-1.9684368	THEY LEARN	-0.10518128
-1.8906182	I LEARN	-0.10518128
-1.7306664	HE LEARN	-0.10518125
-1.1474742	ATTEND LEARN	-0.12481647
-1.7852648	TAKE LEARN	-0.75971216
-1.4024248	MAKE LEARN	-0.10518128
-1.7034323	ME LEARN	-0.10518128
-0.7927707	COOK LEARN	-0.10518128
-1.0696915	SWEATER LEARN	-0.10518128
-0.7927707	REPAIR LEARN	-0.4230069
-1.0696915	TALK LEARN	-0.10518128
-0.7927707	BOAT LEARN	-0.10518128
-0.7927707	CHILD LEARN	-0.10518128
-2.3880935	SHE KNIT	-0.75971216
-2.0774693	LEARN KNIT	-0.10518128
-1.1085783	IN. KNIT	-0.10518128
-1.2902442	KNIT SCARF.	-0.10518128
-1.226243	SHE PRACTICE	-0.10518128
-1.1652399	HE PRACTICE	-0.2356467
-1.7946544	ME PRACTICE	-0.10518128
-0.6625487	SKILL PRACTICE	-0.22042067
-1.0919504	POSE PRACTICE	-0.10518128
-0.49245113	MOVE PRACTICE	-0.75971216
-0.8043931	MAGIC-TRICK PRACTICE	-0.025803218
-0.8043931	TRICK PRACTICE	-0.10518128
-1.526407	PRACTICE PUBLIC	-0.75971216
-1.8340685	LEARN. PUBLIC	-0.10518128
-0.5596931	PUBLIC SPEAKING	-0.10518125
-1.2793933	SPEAKING SKILL.	-0.10518128
-1.490878	IMPROVE SKILL.	-0.10518128
-0.73263663	DEVELOP SKILL.	-0.025803218
-2.231806	THEY DANCE	-0.10518128
-2.126546	I DANCE	-0.025803218
-1.9522247	TAKE DANCE	-0.10518128
-1.5930955	HAVE. DANCE	-0.75971216
-1.5945703	FOR. DANCE	-0.10518128
-0.8077718	SONG DANCE	-0.10518128
-2.203275	CLASS FRIDAY.	-0.10518128
-2.3732436	THEY CAMPING	-0.10518128
-2.1918488	GO CAMPING	-0.75971216
-1.1085783	KAYAKING CAMPING	-0.10518128
-1.6819717	<s> ART	-0.10518128
-1.619595	WEEKEND. ART	-0.10518128
-1.4847077	NEW. ART	-0.10518128
-1.1052015	EXPLORE. ART	-0.10518128
-1.0861746	WEEKEND. MUSEUM	-0.75971216
-0.49369907	ART MUSEUM	-0.4230069
-0.24418823	SCIENCE MUSEUM	-0.055836726
-1.7230167	GO. MUSEUM	-0.025803218
-1.4670192	SEE. MUSEUM	-0.10518128
-0.8077718	COUNTRYSIDE. MUSEUM	-0.10518128
-1.4106101	RESTAURANT SPECIAL	-0.10518128
-1.9595726	HAVE SPECIAL	-0.10518128
-1.7202059	MUSEUM EXHIBIT	-0.4230069
-1.1052015	SPECIAL EXHIBIT	-0.10518128
-0.8111769	ZOO EXHIBIT	-0.10518128
-0.8111769	INTERACTIVE EXHIBIT	-0.10518128
-1.5077671	EXHIBIT PICASSO.	-0.10518128
-2.3326898	I WRITE	-0.10518128
-1.1144264	LETTER WRITE	-0.10518128
-1.1144264	WRITE LETTER	-0.10518128
-0.8158399	COUNTRY LETTER	-0.10518128
-1.4827785	FESTIVAL FRIEND.	-0.10518128
-1.3925506	CONCERT FRIEND.	-0.10518128
-1.1052015	LETTER FRIEND.	-0.10518128
-1.2743984	PARTY FRIEND.	-0.10518128
-1.706824	STUDY ABROAD	-0.10518128
-0.8163805	ABROAD SPAIN	-0.10518128
-0.8128895	SPAIN NEXT	-0.10518128
-1.1085783	JOB NEXT	-0.10518128
-0.8128895	REUNION NEXT	-0.10518128
-1.2896935	NEXT SEMESTER.	-0.10518128
-1.8031254	TRAIN RUN	-0.10518128
-2.0101595	THEY RENOVATE	-0.10518128
-1.1144264	RENOVATE OLD	-0.10518128
-1.1144264	DONATE OLD	-0.10518128
-1.1155022	OLD FARMHOUSE.	-0.10518128
-0.8163805	FARMHOUSE. WEATHER	-0.10518128
-1.9649795	SHE START	-0.10518128
-2.3377073	HE START	-0.10518128
-0.8128895	WEATHER START	-0.10518128
-1.4127405	START GET	-0.10518128
-0.8163805	GET COLD.	-0.10518128
-1.6436113	CLASS MAKE	-0.10518128
-2.2024481	I MAKE	-0.10518128
-1.1052015	WIRE MAKE	-0.10518128
-1.1052015	JEWELRY MAKE	-0.025803218
-1.5077671	MAKE PANCAKE	-0.10518128
-0.8163805	PANCAKE BREAKFAST.	-0.10518128
-1.706285	PLAY CHESS.	-0.10518128
-2.0642307	PRACTICE VIOLIN	-0.10518128
-2.3377073	HE UPCOMING	-0.10518128
-0.8128895	VIOLIN UPCOMING	-0.10518128
-2.0411222	SKILL UPCOMING	-0.10518128
-1.4127405	UPCOMING CONCERT.	-0.10518128
-2.1628408	I FAMILY	-0.10518128
-1.5506303	PLAN FAMILY	-0.10518128
-1.9754566	TAKE FAMILY	-0.10518128
-1.1018505	MY FAMILY	-0.10518128
-0.809471	DAY FAMILY	-0.10518128
-1.5077671	FAMILY VACATION	-0.10518128
-0.8158399	VACATION HAWAII.	-0.10518128
-0.8158399	SURF HAWAII.	-0.10518128
-1.1144264	HAWAII. BOOKSTORE	-0.10518128
-1.1144264	THEATER. BOOKSTORE	-0.10518128
-1.9670128	HAVE SALE	-0.10518128
-0.8163805	SALE BESTSELLER.	-0.10518128
-2.087705	GO GYM	-0.10518128
-0.80607915	SUMMER. GYM	-0.10518128
-0.80607915	BLOSSOM. GYM	-0.10518128
-1.7092838	GO. GYM	-0.025803218
-1.0952255	EXPLORE. GYM	-0.10518128
-0.80607915	ISLAND. GYM	-0.10518128
-0.80607915	REEF. GYM	-0.10518128
-1.6519495	GYM LIFT	-0.10518128
-0.8163805	LIFT WEIGHTS.	-0.10518128
-1.6506937	WATCH SUNSET	-0.10518128
-0.8163805	SUNSET BEACH.	-0.10518128
-1.706824	STUDY DRIVER'S	-0.10518128
-0.8163805	DRIVER'S LICENSE	-0.10518128
-0.8158399	LICENSE TEST.	-0.10518128
-0.8158399	STRENGTH TEST.	-0.10518128
-2.1918488	GO COMEDY	-0.10518128
-0.5580371	STAND-UP COMEDY	-0.10518128
-2.1157823	HAVE. COMEDY	-0.10518128
-2.4304955	HE SHOW	-0.10518128
-1.4106101	COMEDY SHOW	-0.10518128
-1.1144264	SHOW TONIGHT.	-0.10518128
-0.8158399	DINNER TONIGHT.	-0.10518128
-1.1155022	TONIGHT. CAFE	-0.10518128
-1.2880877	DELICIOUS PASTRY	-0.10518128
-0.8158399	BREAD PASTRY	-0.10518128
-1.1155022	PASTRY COFFEE.	-0.10518128
-1.9426018	THEY VISIT	-0.10518128
-2.2024481	I VISIT	-0.10518128
-2.052745	TRIP VISIT	-0.10518128
-0.8111769	ROAD-TRIP VISIT	-0.75971216
-1.508313	VISIT GRANDPARENTS	-0.10518128
-2.4497976	HE PAINT	-0.10518128
-0.8163805	PAINT PORTRAIT	-0.10518128
-0.8163805	PORTRAIT SISTER.	-0.10518128
-1.2902442	ORGANIZE CLOSET	-0.10518128
-0.8158399	CLOSET DONATE	-0.10518128
-1.9048867	ME DONATE	-0.10518128
-1.1155022	OLD CLOTHES.	-0.10518128
-2.4810781	THEY SURPRISE	-0.10518128
-1.0340471	PLAN SURPRISE	-0.75971216
-0.5596931	SURPRISE PARTY	-0.10518125
-1.4132888	FRIEND. HIKING	-0.10518128
-0.8163805	HIKING TRAIL	-0.10518128
-0.8163805	TRAIL LEAD	-0.10518128
-1.1155022	BEAUTIFUL WATERFALL.	-0.10518128
-1.398786	NEW RECIPE	-0.10518128
-1.1155022	RECIPE DINNER	-0.10518128
-2.0642307	PRACTICE GUITAR	-0.10518128
-1.3672274	START BOOK	-0.10518128
-1.2549742	READ BOOK	-0.10518128
-0.8043931	OFFER. BOOK	-0.10518128
-0.8043931	PERSONAL-FINANCE BOOK	-0.75971216
-0.8043931	WORLD-HISTORY BOOK	-0.025803218
-1.0919504	FINANCE BOOK	-0.10518128
-1.0919504	HISTORY BOOK	-0.10518128
-0.8043931	BEHAVIOR BOOK	-0.10518128
-1.4106101	COMEDY CLUB	-0.10518128
-1.1582861	BOOK CLUB	-0.10518128
-2.140996	LEARN SURF	-0.10518128
-1.1155022	HAWAII. FARMER'S	-0.10518128
-0.8128895	FARMER'S MARKET	-0.10518128
-0.8128895	FARMER MARKET	-0.10518128
-0.8128895	FARMERS MARKET	-0.10518128
-2.126546	I FRESH	-0.10518128
-1.8605762	HAVE FRESH	-0.10518128
-1.2645777	MARKET FRESH	-0.10518128
-1.2645777	SELECTION FRESH	-0.10518128
-1.3825301	BAKERY FRESH	-0.10518128
-1.0985254	GROW FRESH	-0.10518128
-1.0348544	FRESH PRODUCE	-0.10518128
-2.3880935	SHE HANDMADE	-0.75971216
-1.490878	MAKE HANDMADE	-0.10518128
-1.1085783	PRODUCE HANDMADE	-0.10518128
-1.2896935	HANDMADE CRAFTS.	-0.10518128
-2.3326898	I LISTEN	-0.10518128
-0.8158399	AUDIOBOOK LISTEN	-0.10518128
-1.1155022	LISTEN PODCAST	-0.10518128
-0.8158399	PODCAST COMMUTE	-0.10518128
-0.8158399	DAILY COMMUTE	-0.10518128
-1.1155022	DOG VET	-0.10518128
-1.7989285	TRAIN TRIATHLON.	-0.10518128
-0.8158399	STROKE TRIATHLON.	-0.10518128
-1.1144264	MOVIE THEATER.	-0.10518128
-1.2880877	PERFORMANCE THEATER.	-0.10518128
-1.1144264	BOOKSTORE SECTION	-0.10518128
-0.8158399	MYTHOLOGY SECTION	-0.10518128
-2.4810781	THEY TRAVEL	-0.10518128
-1.1144264	SECTION TRAVEL	-0.10518128
-1.1155022	TRAVEL GUIDE.	-0.10518128
-1.4212493	PARK. ME	-0.10518128
-0.7960597	GUIDE. ME	-0.10518128
-0.7960597	ARTIFACT. ME	-0.10518128
-0.7960597	RESTAURANT. ME	-0.10518128
-0.7960597	EQUIPMENT. ME	-0.10518128
-0.7960597	SPECIES. ME	-0.10518128
-0.7960597	DAY. ME	-0.10518128
-0.7960597	MUSIC. ME	-0.10518128
-0.7960597	ART. ME	-0.10518128
-0.7960597	OWNER. ME	-0.10518128
-1.0759356	PRODUCE. ME	-0.10518128
-0.7960597	INSTALLATION. ME	-0.10518128
-0.7960597	CIVILIZATION. ME	-0.10518128
-2.2497342	HE PHOTOGRAPHY	-0.75971216
-1.9924104	ATTEND PHOTOGRAPHY	-0.10518128
-1.9754566	TAKE PHOTOGRAPHY	-0.10518128
-1.4748274	SEE. PHOTOGRAPHY	-0.10518128
-0.809471	LIBRARY. PHOTOGRAPHY	-0.10518128
-2.0642307	PRACTICE JUMP	-0.10518128
-0.8163805	JUMP SHOT	-0.10518128
-1.4127405	BASKETBALL COURT.	-0.10518128
-2.507139	SHE MEET	-0.10518128
-1.4827785	FAMILY FRIEND	-0.10518128
-1.2743984	PARTY FRIEND	-0.10518128
-0.8111769	MEET FRIEND	-0.10518128
-0.8111769	SOCCER FRIEND	-0.10518128
-1.4127405	FRIEND BRUNCH	-0.10518128
-0.8163805	BRUNCH SUNDAY.	-0.10518128
-2.0375702	ATTEND WEDDING	-0.10518128
-2.0411222	SKILL WEDDING	-0.10518128
-1.1085783	CALLIGRAPHY WEDDING	-0.10518128
-1.8807926	COLLECTION ANCIENT	-0.10518128
-1.490878	SEE. ANCIENT	-0.10518128
-0.8128895	ARTIFACT ANCIENT	-0.10518128
-1.2896935	ANCIENT ARTIFACT.	-0.10518128
-2.2454383	GO BUY	-0.025803218
-1.9048867	ME BUY	-0.10518128
-1.9399097	NEW OUTFIT	-0.10518128
-1.4106101	START JOB	-0.10518128
-0.8158399	OUTFIT JOB	-0.10518128
-1.1155022	JOB INTERVIEW.	-0.10518128
-2.048986	SHE VOLUNTEER	-0.10518128
-2.0146992	THEY VOLUNTEER	-0.10518128
-1.755462	HE VOLUNTEER	-0.10518128
-1.3067144	ME VOLUNTEER	-0.10518128
-1.0759356	GARDEN VOLUNTEER	-0.10518128
-1.0759356	BANK VOLUNTEER	-0.10518128
-1.2318555	SHELTER VOLUNTEER	-0.10518128
-0.7960597	SOUP-KITCHEN VOLUNTEER	-0.75971216
-0.7960597	COMMUNITY-GARDEN VOLUNTEER	-0.75971216
-0.7960597	WILDLIFE-SANCTUARY VOLUNTEER	-0.025803218
-0.7960597	KITCHEN VOLUNTEER	-0.10518128
-0.7960597	SANCTUARY VOLUNTEER	-0.10518128
-0.7960597	PROGRAM VOLUNTEER	-0.10518128
-1.0913761	VOLUNTEER HOMELESS	-0.4230069
-1.399119	HELP HOMELESS	-0.75971216
-0.8128895	MEAL HOMELESS	-0.10518128
-1.4127405	HOMELESS SHELTER.	-0.10518128
-1.706285	PLAY PIANO.	-0.10518128
-2.5040126	THEY REDECORATE	-0.10518128
-0.8163805	REDECORATE BEDROOM	-0.10518128
-1.9399097	NEW FURNITURE.	-0.10518128
-2.1918488	GO BEACH	-0.10518128
-1.9578891	VOLUNTEER BEACH	-0.10518128
-0.8128895	FURNITURE. BEACH	-0.10518128
-1.2896935	BEACH BOARDWALK	-0.10518128
-0.8163805	BOARDWALK SHOP	-0.10518128
-0.8163805	SHOP RESTAURANT.	-0.10518128
-2.2454383	GO DOCTOR	-0.10518128
-2.4304955	HE DOCTOR	-0.10518128
-1.5505656	TAKE BREAK	-0.10518128
-1.1155022	BREAK SOCIAL	-0.10518128
-0.8163805	SOCIAL MEDIA.	-0.10518128
-2.0642307	PRACTICE FRENCH	-0.10518128
-2.1290987	TRIP PARIS.	-0.10518128
-1.5077671	FAMILY REUNION	-0.10518128
-1.2896935	NEXT SUMMER.	-0.10518128
-0.73920256	GYM VARIETY	-0.14123942
-1.1155022	VARIETY WORKOUT	-0.10518128
-0.8163805	WORKOUT EQUIPMENT.	-0.10518128
-1.1144264	DONATE BLOOD	-0.10518128
-1.1144264	BLOOD BLOOD	-0.10518128
-1.1155022	BLOOD DRIVE.	-0.10518128
-2.0840528	TAKE DAUGHTER	-0.10518128
-1.9115391	PARK PLAY.	-0.10518128
-1.4106101	START GARDEN	-0.10518128
-1.1144264	COMMUNITY GARDEN	-0.10518128
-2.1290987	TRIP MOUNTAIN.	-0.10518128
-0.8163805	MOUNTAIN. ZOO	-0.10518128
-1.5077671	EXHIBIT ENDANGERED	-0.10518128
-0.8163805	ENDANGERED SPECIES.	-0.10518128
-2.3377073	HE WORK	-0.10518128
-1.4958346	CONFERENCE WORK	-0.10518128
-1.1085783	BREAK WORK	-0.10518128
-2.2559748	GO WALK.	-0.10518128
-1.706285	PLAY SOCCER	-0.10518128
-2.3395247	SHE POTTERY	-0.10518128
-2.000002	TAKE POTTERY	-0.10518128
-0.8111769	GIFT POTTERY	-0.10518128
-1.615843	FOR. POTTERY	-0.75971216
-2.1951535	CLASS COMMUNITY	-0.10518128
-1.1144264	HERSELF. COMMUNITY	-0.10518128
-1.1155022	COMMUNITY CENTER.	-0.10518128
-1.1155022	TRAVEL EUROPE	-0.10518128
-0.8163805	EUROPE MONTH-LONG	-0.10518128
-0.8163805	MONTH-LONG TRIP.	-0.10518128
-1.1155022	SPECIAL MENU	-0.10518128
-0.8163805	MENU VALENTINE'S	-0.10518128
-0.8163805	VALENTINE'S DAY.	-0.10518128
-1.610161	LEARN CODE	-0.10518128
-1.1155022	CODE FREE	-0.10518128
-0.8163805	FREE TIME.	-0.10518128
-1.1052015	FUNDRAISER LOCAL	-0.10518128
-0.8111769	WEEKEND LOCAL	-0.10518128
-0.8111769	TASTE LOCAL	-0.10518128
-2.092373	HAVE. LOCAL	-0.10518128
-2.0553803	PRACTICE MEDITATION	-0.10518128
-1.1144264	TASTE. MEDITATION	-0.10518128
-1.1144264	MEDITATION REDUCE	-0.10518128
-1.2887917	RETREAT REDUCE	-0.10518128
-0.5596931	REDUCE STRESS.	-0.75971216
-1.4827785	FESTIVAL LIVE	-0.10518128
-2.2024481	I LIVE	-0.10518128
-1.8998628	HAVE LIVE	-0.10518128
-1.617715	WATCH LIVE	-0.10518128
-1.399119	LIVE PERFORMANCE	-0.10518128
-0.8128895	CIRCUS PERFORMANCE	-0.10518128
-0.8128895	BALLET PERFORMANCE	-0.10518128
-1.1144264	YORK CITY	-0.10518128
-1.1144264	THEATER. CITY	-0.10518128
-1.1155022	HOST STREET	-0.10518128
-1.4127405	LIVE MUSIC.	-0.10518128
-1.4127405	FRIEND BIRTHDAY.	-0.10518128
-1.2896935	WORK LAS	-0.10518128
-0.8163805	LAS VEGAS.	-0.10518128
-1.8031254	TRAIN 5K	-0.10518128
-0.8163805	5K CHARITY	-0.10518128
-0.8163805	CHARITY RUN.	-0.10518128
-1.9920017	VOLUNTEER FOOD	-0.10518128
-1.4106101	LOCAL FOOD	-0.10518128
-0.5596931	FOOD BANK	-0.10518128
-1.9133745	COLLECTION MODERN	-0.10518128
-0.8163805	MODERN ART.	-0.10518128
-1.6506937	WATCH SUNSET.	-0.10518128
-1.2896935	WORK DIY	-0.10518128
-2.486499	SHE HOME	-0.10518128
-0.8158399	DIY HOME	-0.10518128
-1.1155022	HOME IMPROVEMENT	-0.10518128
-0.8163805	IMPROVEMENT PROJECT.	-0.10518128
-2.3880935	SHE READ	-0.10518128
-2.0774693	LEARN READ	-0.10518128
-0.7944008	BOOK READ	-0.025803218
-2.3208113	THEY FAVORITE	-0.75971216
-2.2024481	I FAVORITE	-0.10518128
-2.0144036	ATTEND FAVORITE	-0.75971216
-1.6773435	BOOK FAVORITE	-0.10518128
-1.4132888	FAVORITE AUTHOR.	-0.10518128
-1.9115391	PARK DOG-FRIENDLY	-0.10518128
-0.8163805	DOG-FRIENDLY AREA	-0.10518128
-0.8163805	AREA PET	-0.10518128
-0.8163805	PET OWNER.	-0.10518128
-2.4497976	HE HIKE	-0.10518128
-2.0765216	TRIP MOUNTAIN	-0.10518128
-0.8128895	HIKE MOUNTAIN	-0.10518128
-0.8128895	SKI-TRIP MOUNTAIN	-0.75971216
-1.2896935	MOUNTAIN BROTHER.	-0.10518128
-1.650898	CLASS IMPROVE	-0.10518128
-2.026018	TAKE IMPROVE	-0.19726187
-1.2809184	WORKSHOP IMPROVE	-0.10518128
-1.5077671	IMPROVE FLEXIBILITY.	-0.10518128
-2.1290987	TRIP DISNEY	-0.10518128
-0.8158399	DISNEY WORLD	-0.10518128
-1.8340685	LEARN. WORLD	-0.10518128
-1.1155022	WORLD KIDS.	-0.10518128
-0.8163805	KIDS. GROCERY	-0.10518128
-0.8163805	GROCERY STORE	-0.10518128
-0.8158399	STORE WIDE	-0.10518128
-0.8158399	DANISH WIDE	-0.10518128
-1.2880877	DELICIOUS SELECTION	-0.025803218
-0.5594371	WIDE SELECTION	-0.10518128
-1.0348544	FRESH PRODUCE.	-0.10518128
-1.9835589	SHE SKILL	-0.10518128
-1.6304753	I SKILL	-0.10518128
-1.9468588	HE SKILL	-0.10518128
-1.6978766	NEW SKILL	-0.10518128
-1.4817367	LEARN SKILL	-0.15074196
-1.2185528	SPEAKING SKILL	-0.10518128
-1.0666028	GUITAR SKILL	-0.10518128
-0.9256031	PHOTOGRAPHY SKILL	-0.4230069
-1.0666028	PROGRAMMING SKILL	-0.10518128
-1.0666028	CALLIGRAPHY SKILL	-0.10518128
-0.79113543	DRAWING SKILL	-0.10518128
-0.5475597	ACROBATIC SKILL	-0.044329394
-0.5475597	TENNIS SKILL	-0.044329394
-0.79113543	ARCHERY SKILL	-0.10518128
-0.79113543	CLIMBING SKILL	-0.10518128
-0.79113543	SKATEBOARD SKILL	-0.10518128
-2.090084	SKILL PRESENTATION.	-0.10518128
-2.4810781	THEY BASEBALL	-0.10518128
-1.6471673	WATCH BASEBALL	-0.10518128
-1.3925506	BASKETBALL GAME	-0.10518128
-0.55722207	BASEBALL GAME	-0.10518128
-0.8111769	BOARD GAME	-0.10518128
-0.8111769	FOOTBALL GAME	-0.10518128
-1.508313	GAME STADIUM.	-0.10518128
-2.203275	CLASS COOK	-0.10518128
-1.9399097	NEW RECIPE.	-0.10518128
-1.508313	VISIT RELATIVE	-0.10518128
-0.8158399	RELATIVE ANOTHER	-0.10518128
-0.8158399	PAL ANOTHER	-0.10518128
-1.1155022	ANOTHER STATE.	-0.10518128
-0.8111769	STATE. SCIENCE	-0.10518128
-1.7518582	GO. SCIENCE	-0.75971216
-0.8111769	NATIONAL. SCIENCE	-0.10518128
-0.8111769	ROOT. SCIENCE	-0.10518128
-1.9670128	HAVE INTERACTIVE	-0.10518128
-1.5077671	EXHIBIT KID.	-0.10518128
-0.8158399	KID. MY	-0.10518128
-0.8158399	PAINTING. MY	-0.10518128
-1.1155022	MY NAME	-0.10518128
-0.8163805	NAME PEN	-0.10518128
-0.8163805	PEN PAL	-0.10518128
-1.1155022	ANOTHER COUNTRY	-0.10518128
-1.6599901	GO I.	-0.10518128
-1.6209246	PLAY I.	-0.10518128
-1.4917058	TAKE I.	-0.75971216
-1.2587273	TRY I.	-0.10518128
-1.899115	PRACTICE I.	-0.10518128
-1.0919504	WRITE I.	-0.10518128
-1.0919504	LISTEN I.	-0.10518128
-1.8713747	VOLUNTEER I.	-0.10518128
-2.4304955	HE PROGRAMMING	-0.10518128
-1.1144264	CODE PROGRAMMING	-0.10518128
-1.1155022	PROGRAMMING LANGUAGE.	-0.10518128
-2.1305642	LEARN CALLIGRAPHY	-0.10518128
-2.0553803	PRACTICE CALLIGRAPHY	-0.10518128
-1.2896935	WEDDING INVITE.	-0.10518128
-1.1155022	RENOVATE BATHROOM	-0.10518128
-0.8163805	BATHROOM TILE	-0.10518128
-2.0411222	SKILL NEW.	-0.3193005
-0.8128895	TILE NEW.	-0.10518128
-0.8128895	PROGRAMMING-SKILL NEW.	-0.025803218
-1.414561	ART GALLERY	-0.10518128
-1.9133745	COLLECTION IMPRESSIONIST	-0.10518128
-0.8163805	IMPRESSIONIST PAINTING.	-0.10518128
-1.4127405	FRIEND GIFT	-0.10518128
-1.4127405	BASKETBALL COWORKER	-0.10518128
-0.8163805	COWORKER AFTER	-0.10518128
-2.026018	TAKE PAINTING	-0.10518128
-1.2023203	MUSEUM PAINTING	-0.044329394
-0.8128895	ABSTRACT PAINTING	-0.10518128
-2.203275	CLASS EXPRESS	-0.10518128
-0.8163805	EXPRESS CREATIVITY.	-0.10518128
-2.4810781	THEY ROAD	-0.10518128
-1.1144264	TASTE. ROAD	-0.10518128
-1.5058134	VISIT NATIONAL	-0.10518128
-1.1144264	MONUMENT NATIONAL	-0.75971216
-1.4127405	CONCERT MINUTE	-0.10518128
-0.8163805	MINUTE SOLD	-0.10518128
-0.8163805	SOLD OUT.	-0.10518128
-0.8163805	OUT. VEGAN	-0.10518128
-0.8163805	VEGAN LASAGNA	-0.10518128
-1.4127405	UPCOMING GIG.	-0.10518128
-1.5866109	DANCE WORKSHOP	-0.10518128
-0.9555414	PHOTOGRAPHY WORKSHOP	-0.10518128
-2.5040126	THEY CRUISE	-0.10518128
-0.8163805	CRUISE ANNIVERSARY.	-0.10518128
-0.8158399	ANNIVERSARY. THEME	-0.10518128
-0.8158399	CHEER. THEME	-0.10518128
-1.9595726	HAVE ROLLER	-0.10518128
-1.9058583	PARK ROLLER	-0.10518128
-0.5596931	ROLLER COASTER	-0.75971216
-1.9058583	PARK WATER	-0.10518128
-0.8158399	COASTER WATER	-0.10518128
-1.2896935	WATER RIDE.	-0.10518128
-0.8163805	RIDE. WEEKEND	-0.10518128
-2.3326898	I ANIMAL	-0.10518128
-1.4106101	LOCAL ANIMAL	-0.10518128
-1.4106101	HOMELESS SHELTER	-0.10518128
-1.1144264	ANIMAL SHELTER	-0.10518128
-1.2896935	NEXT WEEK.	-0.10518128
-1.1052015	FINAL EXAM	-0.10518128
-0.8111769	BAR EXAM	-0.10518128
-0.8111769	CERTIFICATION EXAM	-0.10518128
-0.8111769	MEDICAL EXAM	-0.10518128
-1.4132888	EXAM COLLEGE.	-0.10518128
-1.508313	GAME FAMILY.	-0.10518128
-0.8111769	FAMILY. BAKERY	-0.10518128
-1.7518582	GO. BAKERY	-0.75971216
-1.2763885	EXPERIENCE. BAKERY	-0.10518128
-0.8111769	ABOVE. BAKERY	-0.10518128
-1.5861608	FRESH BREAD	-0.10518128
-1.1155022	PASTRY MORNING.	-0.10518128
-0.8163805	MORNING. DAILY	-0.10518128
-1.1155022	COMMUTE AUDIOBOOK	-0.10518128
-1.706285	PLAY CHESS	-0.10518128
-0.8163805	CHESS GRANDFATHER.	-0.10518128
-2.3326898	I MINDFULNESS	-0.10518128
-2.0803862	ATTEND MINDFULNESS	-0.10518128
-1.1085783	MEDITATION RETREAT	-0.10518128
-1.1085783	MINDFULNESS RETREAT	-0.10518128
-1.2809184	WRITING RETREAT	-0.10518128
-2.140996	LEARN SALSA.	-0.10518128
-0.8158399	SALSA. AMUSEMENT	-0.10518128
-0.73485	EXPERIENCE. AMUSEMENT	-0.75971216
-1.9670128	HAVE FERRIS	-0.10518128
-0.8163805	FERRIS WHEEL	-0.10518128
-0.8163805	WHEEL CAROUSEL.	-0.10518128
-0.8163805	CAROUSEL. SKETCHBOOK	-0.10518128
-0.8163805	SKETCHBOOK DRAWING	-0.10518128
-1.9985273	VOLUNTEER HOSPITAL	-0.10518128
-2.2024481	I HELP	-0.10518128
-1.9391525	VOLUNTEER HELP	-0.75971216
-0.8111769	HOSPITAL HELP	-0.10518128
-0.8111769	CLEANUP HELP	-0.10518128
-1.4127405	HELP PATIENT.	-0.10518128
-2.026018	TAKE WRITING	-0.10518128
-0.8128895	CREATIVE WRITING	-0.10518128
-0.8128895	ORCHESTRA. WRITING	-0.10518128
-1.5077671	IMPROVE STORYTELLING.	-0.10518128
-2.1290987	TRIP JAPAN	-0.10518128
-2.052745	TRIP SEE	-0.10518128
-0.8111769	JAPAN SEE	-0.10518128
-0.8111769	SIGHTS SEE	-0.025803218
-0.8111769	SCENERY SEE	-0.10518128
-1.4127405	SEE CHERRY	-0.10518128
-0.8163805	CHERRY BLOSSOM.	-0.10518128
-1.5088595	YOGA PILATES	-0.10518128
-0.8163805	PILATES ZUMBA	-0.10518128
-2.203275	CLASS OFFER.	-0.10518128
-1.2896935	CLUB MEETING	-0.10518128
-0.8163805	MEETING DISCUSS	-0.10518128
-2.2460337	I NOVEL	-0.10518128
-0.8128895	DISCUSS NOVEL	-0.10518128
-0.8128895	CLASSIC NOVEL	-0.10518128
-2.140996	LEARN DRIVE	-0.10518128
-0.8163805	DRIVE STICK	-0.10518128
-0.8163805	STICK SHIFT.	-0.10518128
-2.0642307	PRACTICE SWIM	-0.10518128
-0.8163805	SWIM STROKE	-0.10518128
-2.5040126	THEY WINERY	-0.10518128
-0.8163805	WINERY TASTE	-0.10518128
-1.4127405	LOCAL WINE.	-0.10518128
-1.2694603	PERFORMANCE THEATER	-0.10518128
-0.809471	WINE. THEATER	-0.10518128
-1.7371981	GO. THEATER	-0.10518128
-1.1018505	FRESH-PRODUCE. THEATER	-0.75971216
-1.1018505	THEY. THEATER	-0.10518128
-1.702107	PLAY FAMOUS	-0.10518128
-1.4106101	PAINTING FAMOUS	-0.10518128
-1.1155022	FAMOUS HISTORICAL	-0.10518128
-0.8163805	HISTORICAL FIGURE.	-0.10518128
-0.8163805	FIGURE. RAINY	-0.10518128
-0.8163805	RAINY DAY	-0.10518128
-1.5077671	FAMILY BOARD	-0.10518128
-1.706824	STUDY BAR	-0.10518128
-1.4132888	EXAM LAWYER	-0.10518128
-1.1144264	DOCTOR BECOME.	-0.10518128
-0.8158399	LAWYER BECOME.	-0.10518128
-1.2902442	SERVE MEAL.	-0.10518128
-1.2896935	PARTY PARENT	-0.10518128
-0.8163805	PARENT ANNIVERSARY	-0.10518128
-0.8163805	ANNIVERSARY PLAN.	-0.10518128
-1.9670128	HAVE LAKE	-0.10518128
-0.8163805	LAKE FISH	-0.10518128
-0.8163805	FISH BOAT.	-0.10518128
-0.8163805	BOAT. SEWING	-0.10518128
-1.5077671	MAKE CLOTHES	-0.10518128
-2.3326898	I STAND-UP	-0.10518128
-2.0553803	PRACTICE STAND-UP	-0.10518128
-1.4127405	COMEDY ROUTINE	-0.10518128
-0.8163805	ROUTINE OPEN	-0.10518128
-0.8163805	OPEN MIC	-0.10518128
-0.8163805	MIC NIGHT.	-0.10518128
-1.2896935	HANDMADE MUG.	-0.10518128
-1.4132888	FRIEND. FARMER	-0.10518128
-1.5861608	FRESH FRUIT	-0.10518128
-0.8163805	FRUIT VEGETABLE	-0.10518128
-1.9115391	PARK CLEAR	-0.10518128
-0.8163805	CLEAR MIND	-0.10518128
-2.5040126	THEY ROAD-TRIP	-0.75971216
-0.9560474	VISIT MONUMENT	-0.4230069
-1.250251	MOUNTAIN GO.	-0.75971216
-1.0886998	NATIONAL GO.	-0.75971216
-1.3611208	SEE GO.	-0.025803218
-0.5531699	FAVORITE-TEAM GO.	-0.19726187
-1.0886998	EXPERIENCE GO.	-0.025803218
-1.0886998	ADVENTURE GO.	-0.75971216
-1.0886998	EXPLORE GO.	-0.025803218
-0.80271363	UNWIND GO.	-0.15074196
-1.0886998	ALPS GO.	-0.10518128
-1.5077671	EXHIBIT SPACE-EXPLORATION	-0.75971216
-0.58467805	COLLECTION HAVE.	-0.23977248
-1.2099055	SELECTION HAVE.	-0.10518128
-0.7878833	SPACE-EXPLORATION HAVE.	-0.75971216
-0.7878833	MARINE-LIFE HAVE.	-0.75971216
-0.7878833	WATER-SLIDE HAVE.	-0.75971216
-0.7878833	DANCE-NUMBER HAVE.	-0.75971216
-0.7878833	COOKIE HAVE.	-0.4230069
-0.7878833	WEIGHT-EQUIPMENT HAVE.	-0.025803218
-0.54596996	FUNHOUSE HAVE.	-0.044329394
-0.7878833	STARGAZING HAVE.	-0.044329394
-0.7878833	PLOT HAVE.	-0.75971216
-0.7878833	EXPLORATION HAVE.	-0.10518128
-0.7878833	LIFE HAVE.	-0.10518128
-1.0604905	SLIDE HAVE.	-0.10518128
-0.7878833	NUMBER HAVE.	-0.10518128
-1.0604905	RIVER HAVE.	-0.10518128
-0.7878833	EQUIPMENT HAVE.	-0.10518128
-0.7878833	TUB HAVE.	-0.10518128
-2.3505557	I SOUP-KITCHEN	-0.75971216
-1.4127405	HOMELESS FEED.	-0.75971216
-2.4497976	HE CERTIFICATION-EXAM	-0.75971216
-2.4304955	HE ADVANCE	-0.10518128
-1.7027918	STUDY ADVANCE	-0.75971216
-0.5596931	ADVANCE CAREER.	-0.4230069
-2.507139	SHE CREATIVE-WRITING	-0.75971216
-2.3880935	SHE DEVELOP	-0.10518128
-2.026018	TAKE DEVELOP	-0.75971216
-0.8128895	ARTISTRY DEVELOP	-0.10518128
-2.5040126	THEY SKI-TRIP	-0.75971216
-1.7670306	GO. AQUARIUM	-0.75971216
-1.1085783	THEY. AQUARIUM	-0.10518128
-0.8128895	SERVE. AQUARIUM	-0.10518128
-0.7352552	AQUARIUM DIVERSE	-0.025803218
-1.9133745	COLLECTION MARINE-LIFE	-0.75971216
-2.3505557	I MUSIC-FESTIVAL	-0.75971216
-0.8591114	FAVORITE ARTIST	-0.4230069
-1.1144264	FAMOUS ARTIST	-0.10518128
-1.2694603	ARTIST SEE.	-0.75971216
-0.809471	PERFORM SEE.	-0.10518128
-0.809471	SIGHT SEE.	-0.10518128
-1.1018505	WILDLIFE SEE.	-0.10518128
-0.809471	SPECIES SEE.	-0.10518128
-1.8594564	PARK PRACTICE.	-0.75971216
-1.1052015	STUDIO PRACTICE.	-0.75971216
-0.8111769	CIRCUS-PERFORMANCE PRACTICE.	-0.025803218
-0.8111769	UPCOMING-TOURNAMENT PRACTICE.	-0.025803218
-0.7352552	KNIT SWEATER	-0.4230069
-1.3516603	NEW LEARN.	-0.10518125
-1.4444033	MAKE LEARN.	-0.025803218
-1.9219605	SKILL LEARN.	-0.10518128
-1.0886998	SWEATER LEARN.	-0.75971216
-1.3651582	LANGUAGE LEARN.	-0.10518128
-1.3746535	MOVE LEARN.	-0.10518128
-1.3611208	CULTURE LEARN.	-0.10518128
-1.0886998	MERENGUE LEARN.	-0.10518128
-0.80271363	INVESTING LEARN.	-0.10518128
-2.5040126	THEY BASKETBALL-GAME	-0.75971216
-0.8163805	BASKETBALL-GAME CHEER	-0.75971216
-0.8158399	CHEER FAVORITE-TEAM	-0.75971216
-0.8158399	ROOT FAVORITE-TEAM	-0.025803218
-1.7995002	GO. THEME-PARK	-0.75971216
-0.8163805	THEME-PARK ROLLER-COASTER	-0.75971216
-0.8163805	ROLLER-COASTER WATER-SLIDE	-0.75971216
-0.95620066	YOGA POSE	-0.4230069
-2.3326898	I STUDIO	-0.10518128
-1.1144264	POSE STUDIO	-0.75971216
-2.4497976	HE LEADERSHIP-CONFERENCE	-0.75971216
-2.486499	SHE TRIATHLON	-0.75971216
-1.8340685	LEARN. TRIATHLON	-0.10518128
-2.486499	SHE CHALLENGE	-0.75971216
-1.7989285	TRAIN CHALLENGE	-0.75971216
-1.1155022	CHALLENGE SELF.	-0.75971216
-2.5040126	THEY COMMUNITY-GARDEN	-0.75971216
-2.4810781	THEY GROW	-0.10518128
-1.9920017	VOLUNTEER GROW	-0.75971216
-1.1144264	BUY FRESH-PRODUCE.	-0.025803218
-1.1144264	GROW FRESH-PRODUCE.	-0.75971216
-1.1144264	PRODUCE. MUSICAL	-0.10518128
-1.5074297	THEATER MUSICAL	-0.75971216
-1.1155022	MUSICAL CATCHY-SONG	-0.75971216
-0.8163805	CATCHY-SONG DANCE-NUMBER	-0.75971216
-2.3326898	I SPA	-0.75971216
-2.1590827	HAVE. SPA	-0.10518128
-2.2454383	GO RELAX	-0.75971216
-2.3326898	I RELAX	-0.10518128
-0.5596931	RELAX MASSAGE.	-0.4230069
-2.4304955	HE CAR	-0.75971216
-1.1144264	MASSAGE. CAR	-0.10518128
-0.5596931	CAR REPAIR	-0.025803218
-2.4304955	HE HOBBY.	-0.10518128
-2.1305642	LEARN HOBBY.	-0.75971216
-2.486499	SHE NUTRITION	-0.75971216
-1.1144264	HOBBY. NUTRITION	-0.10518128
-1.5077671	IMPROVE HEALTH.	-0.75971216
-2.5040126	THEY RIVER-RAFTING-TRIP	-0.75971216
-0.8158399	RIVER-RAFTING-TRIP EXPERIENCE	-0.75971216
-1.4106101	CULTURE EXPERIENCE	-0.025803218
-2.4810781	THEY ADVENTURE	-0.10518128
-1.1144264	EXPERIENCE ADVENTURE	-0.75971216
-1.2896935	SELECTION CUPCAKE	-0.025803218
-0.8163805	CUPCAKE COOKIE	-0.025803218
-2.2024481	I LANGUAGE	-0.75971216
-1.6692923	STUDY LANGUAGE	-0.10518128
-1.8791245	NEW LANGUAGE	-0.10518128
-2.092373	HAVE. LANGUAGE	-0.10518128
-2.140996	LEARN NEW-LANGUAGE	-0.75971216
-0.8158399	NEW-LANGUAGE TAKE.	-0.75971216
-1.1144264	MERENGUE TAKE.	-0.025803218
-2.4497976	HE PERSONAL-FINANCE	-0.75971216
-1.1592466	BOOK READ.	-0.24765198
-2.486499	SHE KICKBOXING	-0.75971216
-1.4106101	HE. KICKBOXING	-0.10518128
-0.55722207	KICKBOXING MOVE	-0.025803218
-0.55722207	BREAKDANCE MOVE	-0.75971216
-0.8111769	HOP MOVE	-0.10518128
-0.8111769	ARTS MOVE	-0.10518128
-2.0642307	PRACTICE STAY-FIT.	-0.75971216
-2.0101595	THEY NEW-YORK-CITY	-0.025803218
-0.8163805	NEW-YORK-CITY SIGHTS	-0.025803218
-1.4127405	PAINTING FAMOUS-ARTIST	-0.025803218
-2.3505557	I COMEDY-CLUB	-0.025803218
-1.6506937	WATCH STAND-UP-COMEDY.	-0.025803218
-2.4497976	HE MAGIC-TRICK	-0.025803218
-2.0642307	PRACTICE SHOW.	-0.025803218
-2.507139	SHE DANCE-WORKSHOP	-0.025803218
-1.9399097	NEW CHOREOGRAPHY.	-0.025803218
-2.5040126	THEY KAYAKING-TRIP	-0.025803218
-2.4810781	THEY COASTLINE	-0.10518128
-0.8158399	KAYAKING-TRIP COASTLINE	-0.025803218
-2.120557	TRIP EXPLORE	-0.10518128
-1.1144264	COASTLINE EXPLORE	-0.025803218
-1.1155022	VARIETY CARDIO	-0.044329394
-1.1155022	CARDIO WEIGHT-EQUIPMENT	-0.025803218
-2.3505557	I WILDLIFE-SANCTUARY	-0.025803218
-1.9985273	VOLUNTEER CARE	-0.025803218
-0.8163805	CARE ANIMAL.	-0.025803218
-2.4497976	HE CODING-BOOTCAMP	-0.025803218
-2.140996	LEARN PROGRAMMING-SKILL	-0.025803218
-2.507139	SHE PUBLIC-SPEAKING	-0.025803218
-1.5077671	IMPROVE CONFIDENCE.	-0.025803218
-2.5040126	THEY SOUTH-AMERICA	-0.025803218
-2.3732436	THEY CULTURE	-0.10518128
-0.8128895	SOUTH-AMERICA CULTURE	-0.025803218
-0.8128895	JAPANESE CULTURE	-0.10518128
-1.7995002	GO. AMUSEMENT-PARK	-0.025803218
-0.8163805	AMUSEMENT-PARK HAUNTED-HOUSE	-0.025803218
-0.8158399	HAUNTED-HOUSE FUNHOUSE	-0.025803218
-0.8158399	HOUSE FUNHOUSE	-0.10518128
-2.3505557	I FARMERS-MARKET	-0.025803218
-2.4304955	HE ACROBATIC	-0.025803218
-0.8158399	BUY. ACROBATIC	-0.10518128
-2.090084	SKILL CIRCUS-PERFORMANCE	-0.025803218
-2.486499	SHE BEAD	-0.025803218
-1.1144264	JEWELRY BEAD	-0.10518128
-0.5596931	BEAD WIRE	-0.044329394
-1.1144264	WIRE JEWELRY	-0.025803218
-1.6464787	FOR. JEWELRY	-0.10518128
-2.5040126	THEY FOOTBALL-GAME	-0.025803218
-0.8163805	FOOTBALL-GAME ROOT	-0.025803218
-1.7995002	GO. SCIENCE-MUSEUM	-0.025803218
-1.7538557	MUSEUM PLANETARIUM	-0.10518128
-0.8158399	SCIENCE-MUSEUM PLANETARIUM	-0.025803218
-0.5596931	PLANETARIUM STARGAZING	-0.15074196
-2.3326898	I SALSA	-0.10518128
-2.1305642	LEARN SALSA	-0.025803218
-0.5596931	SALSA MERENGUE	-0.044329394
-2.4497976	HE WORLD-HISTORY	-0.025803218
-2.486499	SHE MARATHON	-0.025803218
-1.4106101	HE. MARATHON	-0.10518128
-1.8031254	TRAIN ACHIEVE	-0.025803218
-0.8163805	ACHIEVE PERSONAL-GOAL.	-0.025803218
-2.5040126	THEY CAMPING-TRIP	-0.025803218
-2.120557	TRIP DISCONNECT	-0.10518128
-0.8158399	CAMPING-TRIP DISCONNECT	-0.025803218
-0.5596931	DISCONNECT UNWIND	-0.15074196
-1.2896935	LIBRARY CLASSIC-NOVEL	-0.025803218
-0.8163805	CLASSIC-NOVEL NEW-RELEASE	-0.025803218
-2.3505557	I TED-TALK	-0.025803218
-2.0886772	ATTEND INSPIRING-SPEAKER	-0.025803218
-1.4041352	MUSIC LISTEN.	-0.10518128
-0.8128895	INSPIRING-SPEAKER LISTEN.	-0.025803218
-0.8128895	SPEAKER LISTEN.	-0.10518128
-2.4304955	HE TENNIS	-0.025803218
-1.2880877	LISTEN. TENNIS	-0.10518128
-2.090084	SKILL UPCOMING-TOURNAMENT	-0.025803218
-2.507139	SHE WEB-DESIGN	-0.75971216
-2.486499	SHE WEB	-0.10518128
-1.6464787	FOR. WEB	-0.10518128
-2.3732436	THEY SKI	-0.10518128
-1.805005	LEARN. SKI	-0.10518128
-1.1085783	SKILLS. SKI	-0.10518128
-2.1290987	TRIP ALPS	-0.10518128
-1.706285	PLAY THOUGHT-PROVOKING	-0.75971216
-0.8163805	THOUGHT-PROVOKING PLOT	-0.75971216
-2.1674733	HAVE. COOKING	-0.75971216
-2.291497	HE COMPETITION	-0.025803218
-0.8111769	COOKING COMPETITION	-0.75971216
-0.8111769	BODYBUILDING COMPETITION	-0.10518128
-0.8111769	POWERLIFTING COMPETITION	-0.10518128
-2.3505557	I SHOWCASE	-0.10518128
-1.2887917	DEVELOP SKILLS.	-0.10518128
-0.8158399	SHOWCASE SKILLS.	-0.10518128
-1.1144264	SKILLS. BREAKDANCE	-0.10518128
-0.8158399	SHOWCASE. BREAKDANCE	-0.10518128
-2.0087733	TRIP FOR.	-0.10518128
-1.0985254	SHOW FOR.	-0.10518128
-1.2645777	PERFORMANCE FOR.	-0.10518128
-1.3825301	COMPETITION FOR.	-0.4230069
-0.8077718	TOURNAMENT FOR.	-0.10518128
-1.0985254	CLIMB FOR.	-0.10518128
-1.2896935	HANDMADE BOWL	-0.75971216
-0.8158399	BOWL MAKE.	-0.75971216
-0.8158399	OWN MAKE.	-0.10518128
-1.1155022	MAKE. WINE	-0.75971216
-2.5040126	THEY TASTE.	-0.10518128
-1.1155022	MONUMENT NATIONAL.	-0.10518128
-1.5077671	EXHIBIT SPACE	-0.10518128
-0.8163805	SPACE EXPLORATION	-0.10518128
-2.1590827	HAVE. SOUP	-0.10518128
-1.1144264	HERSELF. SOUP	-0.10518128
-0.5596931	SOUP KITCHEN	-0.75971216
-1.4127405	HELP FEED	-0.10518128
-0.8163805	FEED HOMELESS.	-0.10518128
-0.8163805	HOMELESS. CERTIFICATION	-0.10518128
-1.1155022	CAREER. CREATIVE	-0.10518128
-1.7254322	GO THEY.	-0.10518128
-1.9133745	COLLECTION MARINE	-0.10518128
-0.8163805	MARINE LIFE	-0.10518128
-1.2896935	ARTIST PERFORM	-0.10518128
-1.9058583	PARK IN.	-0.10518128
-1.1144264	STUDIO IN.	-0.10518128
-1.610161	LEARN SHE.	-0.10518128
-1.4132888	FAVORITE TEAM	-0.10518128
-1.1155022	TEAM CHEER.	-0.10518128
-1.9058583	PARK SLIDE	-0.10518128
-1.2880877	WATER SLIDE	-0.10518128
-1.1155022	IN. LEADERSHIP	-0.10518128
-1.1155022	CHALLENGE HERSELF.	-0.10518128
-1.1155022	MUSICAL CATCHY	-0.10518128
-0.8163805	CATCHY SONG	-0.10518128
-1.588761	DANCE NUMBER	-0.10518128
-2.507139	SHE HEALTH	-0.10518128
-2.0188508	SKILL IMPROVE.	-0.10518128
-0.8111769	HEALTH IMPROVE.	-0.10518128
-0.8111769	CONFIDENCE IMPROVE.	-0.10518128
-0.8111769	PORTFOLIO IMPROVE.	-0.10518128
-1.4106101	IMPROVE. RIVER	-0.10518128
-0.8158399	LAZY RIVER	-0.10518128
-1.1144264	RIVER RAFTING	-0.10518128
-0.8158399	REDECORATE. RAFTING	-0.10518128
-1.1085783	ADVENTURE EXPERIENCE.	-0.10518128
-1.399119	CULTURE EXPERIENCE.	-0.10518128
-0.8128895	DIFFERENT EXPERIENCE.	-0.10518128
-1.8340685	LEARN. PERSONAL	-0.10518128
-0.8158399	GOAL PERSONAL	-0.10518128
-1.8340685	LEARN. FINANCE	-0.10518128
-1.1144264	PERSONAL FINANCE	-0.10518128
-2.0803862	ATTEND HE.	-0.10518128
-1.2880877	READ HE.	-0.10518125
-2.507139	SHE FIT	-0.10518128
-0.8158399	FIT STAY.	-0.10518128
-0.8158399	SHAPE STAY.	-0.10518128
-2.5040126	THEY SIGHT	-0.10518128
-1.4127405	COMEDY WATCH.	-0.10518128
-0.8163805	WATCH. MAGIC	-0.10518128
-0.8163805	MAGIC TRICK	-0.10518128
-2.507139	SHE CHOREOGRAPHY	-0.10518128
-1.8340685	LEARN. KAYAKING	-0.10518128
-1.4106101	IMPROVE. KAYAKING	-0.10518128
-1.1144264	COASTLINE EXPLORE.	-0.10518128
-0.8158399	NATURE EXPLORE.	-0.10518128
-1.1155022	CARDIO WEIGHT	-0.10518128
-0.8163805	WEIGHT EQUIPMENT	-0.10518128
-2.1590827	HAVE. WILDLIFE	-0.10518128
-0.8158399	EXOTIC WILDLIFE	-0.10518128
-1.1155022	WILDLIFE SANCTUARY	-0.10518128
-1.1155022	ANIMAL CARE.	-0.10518128
-0.8163805	CARE. CODING	-0.10518128
-0.8163805	CODING BOOTCAMP	-0.10518128
-2.507139	SHE CONFIDENCE	-0.10518128
-1.4127405	IMPROVE. SOUTH	-0.10518128
-0.8163805	SOUTH AMERICA	-0.10518128
-1.9115391	PARK HAUNTED	-0.10518128
-0.8163805	HAUNTED HOUSE	-0.10518128
-2.1674733	HAVE. FARMERS	-0.10518128
-1.1155022	PRODUCE BUY.	-0.10518128
-2.4497976	HE CIRCUS	-0.10518128
-1.1155022	SHE. FOOTBALL	-0.10518128
-1.1155022	TEAM ROOT.	-0.10518128
-1.2880877	ANCIENT HISTORY	-0.10518128
-1.1144264	WORLD HISTORY	-0.10518128
-2.507139	SHE GOAL	-0.10518128
-1.1155022	PERSONAL ACHIEVE.	-0.10518128
-1.2896935	LIBRARY CLASSIC	-0.10518128
-1.9399097	NEW RELEASE	-0.10518128
-2.1674733	HAVE. TED	-0.10518128
-0.8158399	TED TALK	-0.10518128
-0.8158399	TEDx TALK	-0.10518128
-2.3505557	I INSPIRING	-0.10518128
-0.8163805	INSPIRING SPEAKER	-0.10518128
-1.4127405	UPCOMING TOURNAMENT	-0.10518128
-1.1052015	WEB DESIGN	-0.10518128
-0.8111769	FASHION DESIGN	-0.10518128
-0.8111769	GRAPHIC DESIGN	-0.10518128
-0.8111769	INTERIOR DESIGN	-0.10518128
-2.090084	SKILL SHOWCASE.	-0.10518128
-1.1155022	MINDFULNESS RELAXATION	-0.10518128
-0.8163805	RELAXATION FOCUS.	-0.10518128
-0.8163805	FOCUS. SAIL	-0.10518128
-0.8163805	SAIL BOAT	-0.10518128
-2.4497976	HE SAILING	-0.10518128
-1.6501524	FOR. WOODWORKING	-0.10518128
-2.507139	SHE FURNITURE	-0.10518128
-0.8163805	FURNITURE OWN	-0.10518128
-1.1155022	MAKE. BACKPACKING	-0.10518128
-2.5040126	THEY NATURE	-0.10518128
-1.7579068	MUSEUM ABSTRACT	-0.10518128
-1.5051172	FAMILY HELP.	-0.10518128
-1.2880877	READ HELP.	-0.10518128
-1.1155022	HELP. MEDICAL	-0.10518128
-1.1155022	BECOME. FASHION	-0.10518128
-2.090084	SKILL DEVELOP.	-0.10518128
-0.8158399	DEVELOP. HOT	-0.10518128
-0.8158399	ROOM HOT	-0.10518128
-1.1155022	HOT AIR	-0.10518128
-0.8163805	AIR BALLOON	-0.10518128
-0.8163805	BALLOON RIDE	-0.10518128
-2.5040126	THEY SCENERY	-0.10518128
-1.4127405	SEE ABOVE.	-0.10518128
-1.4132888	BAKERY CROISSANT	-0.10518128
-0.8163805	CROISSANT DANISH	-0.10518128
-2.3505557	I HIP	-0.10518128
-0.8163805	HIP HOP	-0.10518128
-2.4497976	HE INVESTING	-0.10518128
-1.8395892	LEARN. BODYBUILDING	-0.10518128
-2.5040126	THEY MEAL	-0.10518128
-1.4127405	HOMELESS SERVE.	-0.10518128
-1.2902442	AQUARIUM TOUCH	-0.10518128
-0.8163805	TOUCH TANK	-0.10518128
-1.9670128	HAVE VISITOR	-0.10518128
-0.8163805	VISITOR INTERACT	-0.10518128
-0.8163805	INTERACT SEA	-0.10518128
-0.8163805	SEA CREATURE.	-0.10518128
-0.8163805	CREATURE. JAZZ	-0.10518128
-1.2896935	LISTEN. ARCHERY	-0.10518128
-1.6501524	FOR. GRAPHIC	-0.10518128
-2.507139	SHE PORTFOLIO	-0.10518128
-2.5040126	THEY SECLUDED	-0.10518128
-0.8163805	SECLUDED ISLAND.	-0.10518128
-1.6519495	GYM SAUNA	-0.10518128
-0.8163805	SAUNA STEAM	-0.10518128
-0.8163805	STEAM ROOM	-0.10518128
-1.1155022	HOT TUB	-0.10518128
-2.1674733	HAVE. LITERACY	-0.10518128
-0.8163805	LITERACY PROGRAM	-0.10518128
-2.3505557	I CHILD	-0.10518128
-1.1155022	HELP. LEGAL	-0.10518128
-0.8163805	LEGAL SEMINAR	-0.10518128
-2.4497976	HE LAW	-0.10518128
-0.8163805	LAW CHANGE	-0.10518128
-0.8163805	CHANGE STAY	-0.10518128
-0.8163805	STAY UP-TO-DATE.	-0.10518128
-0.8163805	UP-TO-DATE. POWERLIFTING	-0.10518128
-2.507139	SHE STRENGTH	-0.10518128
-1.1155022	TEST. ASIA	-0.10518128
-1.4127405	CULTURE DIFFERENT	-0.10518128
-1.1155022	SLIDE LAZY	-0.10518128
-2.1674733	HAVE. TEA	-0.10518128
-0.8163805	TEA CEREMONY	-0.10518128
-2.3505557	I JAPANESE	-0.10518128
-1.8395892	LEARN. PSYCHOLOGY	-0.10518128
-0.8163805	PSYCHOLOGY HUMAN	-0.10518128
-0.8163805	HUMAN BEHAVIOR	-0.10518128
-1.4127405	HE. MARTIAL	-0.10518128
-0.8163805	MARTIAL ARTS	-0.10518128
-2.507139	SHE SHAPE	-0.10518128
-1.1155022	STAY. BIRDWATCHING	-0.10518128
-2.5040126	THEY RARE	-0.10518128
-0.8163805	RARE SPECIES	-0.10518128
-1.1155022	HISTORY MYTHOLOGY	-0.10518128
-1.9670128	HAVE LIBRARY.	-0.10518128
-1.9595726	HAVE ROCK	-0.10518128
-1.4106101	IMPROVE. ROCK	-0.10518128
-1.1155022	ROCK CLIMBING	-0.10518128
-1.4106101	UPCOMING CLIMB	-0.10518128
-1.1144264	ROCK CLIMB	-0.10518128
-1.6501524	FOR. INTERIOR	-0.10518128
-1.1155022	HOME REDECORATE.	-0.10518128
-2.5040126	THEY RAPID	-0.10518128
-0.8163805	RAPID THROUGH.	-0.10518128
-0.8163805	THROUGH. BALLET	-0.10518128
-1.4127405	LIVE ORCHESTRA.	-0.10518128
-1.4127405	WORK. ENTREPRENEURSHIP	-0.10518128
-0.8163805	ENTREPRENEURSHIP STARTUP	-0.10518128
-1.4127405	HE. BOXING	-0.10518128
-0.8163805	BOXING MATCH	-0.10518128
-2.507139	SHE PROFESSIONALLY	-0.10518128
-0.8163805	PROFESSIONALLY COMPETE.	-0.10518128
-0.8163805	COMPETE. SAFARI	-0.10518128
-2.5040126	THEY EXOTIC	-0.10518128
-1.9133745	COLLECTION SCULPTURE	-0.10518128
-0.8163805	SCULPTURE INSTALLATION.	-0.10518128
-1.2896935	BEACH CLEANUP	-0.10518128
-1.4127405	HELP ENVIRONMENT.	-0.10518128
-1.4132888	LANGUAGE PROFICIENCY	-0.10518128
-0.8163805	PROFICIENCY EXAM.	-0.10518128
-2.203275	CLASS MAKEUP	-0.10518128
-0.8163805	MAKEUP ARTISTRY	-0.10518128
-2.2559748	GO HORSEBACK	-0.10518128
-0.8163805	HORSEBACK RIDING	-0.10518128
-1.1155022	EXPLORE COUNTRYSIDE.	-0.10518128
-1.9133745	COLLECTION ARTIFACT	-0.10518128
-1.2896935	ANCIENT CIVILIZATION.	-0.10518128
-2.0886772	ATTEND TEDx	-0.10518128
-2.140996	LEARN INNOVATIVE	-0.10518128
-0.8163805	INNOVATIVE IDEA.	-0.10518128
-2.0642307	PRACTICE SKATEBOARD	-0.10518128
-2.090084	SKILL COMPETITION.	-0.10518128
-1.2896935	WEDDING INVITATION.	-0.10518128
-2.2559748	GO SNORKELING	-0.10518128
-1.4127405	SEE CORAL	-0.10518128
-0.8163805	CORAL REEF.	-0.10518128
-1.1155022	CLIMB WALL	-0.10518128
-0.8163805	WALL TRAMPOLINE	-0.10518128
-1.2896935	SHELTER PROVIDE	-0.10518128
-0.8163805	PROVIDE ASSISTANCE.	-0.10518128

\3-grams:
-0.6041687	COMMUTE WORK. </s>
-0.4707756	SKILL PRESENTATION. </s>
-0.91325754	GO I. </s>
-1.1513526	SKILL NEW. </s>
-0.6147053	WILDLIFE SEE. </s>
-0.55500966	SHE WEB </s>
-0.4707756	PERSONAL ACHIEVE. </s>
-0.4707756	PROVIDE ASSISTANCE. </s>
-0.5645137	VET CHECK-UP. SHE
-0.45101404	FINAL EXAMS. SHE
-0.53113264	LOCAL CHARITY. SHE
-0.7823282	TRIATHLON TRAIN SHE
-0.5573937	MARATHON TRAIN SHE
-0.06092532	COMPETITION TRAIN SHE
-0.3880603	MATCH TRAIN SHE
-0.45101404	FAUCET BATHROOM. SHE
-0.078583114	CLASS ATTEND SHE
-0.8375621	WORKSHOP ATTEND SHE
-0.5775162	AFTER WORK. SHE
-0.53113264	BASKETBALL FRIENDS. SHE
-0.5828869	CLASS TAKE SHE
-0.49494168	GUITAR PARK. SHE
-0.49494168	FRIEND PARK. SHE
-0.5515712	MOVE PRACTICE SHE
-0.5645137	SPEAKING SKILL. SHE
-0.45101404	NEXT SEMESTER. SHE
-0.45101404	PLAY CHESS. SHE
-0.45101404	SUNSET BEACH. SHE
-0.45101404	PORTRAIT SISTER. SHE
-0.45101404	BASKETBALL COURT. SHE
-0.45101404	HOMELESS SHELTER. SHE
-0.45101404	SOCIAL MEDIA. SHE
-0.45101404	PARK PLAY. SHE
-0.45101404	LAS VEGAS. SHE
-0.45101404	IMPROVEMENT PROJECT. SHE
-0.45101404	MOUNTAIN BROTHER. SHE
-0.45101404	GAME STADIUM. SHE
-0.45101404	PROGRAMMING LANGUAGE. SHE
-0.32140318	SKILL NEW. SHE
-0.7362479	PROGRAMMING-SKILL NEW. SHE
-0.45101404	UPCOMING GIG. SHE
-0.45101404	NEXT WEEK. SHE
-0.45101404	CHESS GRANDFATHER. SHE
-0.45101404	HELP PATIENT. SHE
-0.45101404	STICK SHIFT. SHE
-0.53113264	LAWYER BECOME. SHE
-0.45101404	MIC NIGHT. SHE
-0.2299856	ADVANCE CAREER. SHE
-0.05319976	PARK PRACTICE. SHE
-0.42567867	CIRCUS-PERFORMANCE PRACTICE. SHE
-0.42567867	UPCOMING-TOURNAMENT PRACTICE. SHE
-0.07383012	LEARN HOBBY. SHE
-0.2719231	BOOK READ. SHE
-0.6489158	PRACTICE SHOW. SHE
-0.45101404	PROFICIENCY EXAM. SHE
-0.45101404	SKILL COMPETITION. SHE
-0.66247344	<s> SHE TEACH
-0.47261748	SHE TEACH YOGA
-1.1521035	HAVE. I YOGA
-1.4739763	SHE TAKE YOGA
-0.63033473	BLOSSOM. GYM YOGA
-0.6540968	SLIDE HAVE. YOGA
-0.51050436	TEACH YOGA CLASS
-0.51050436	TAKE YOGA CLASS
-0.66228914	SHE TAKE CLASS
-0.922168	PUBLIC SPEAKING CLASS
-0.28582028	THEY DANCE CLASS
-0.375591	I DANCE CLASS
-0.28582028	TAKE DANCE CLASS
-0.049063962	HAVE. DANCE CLASS
-0.6087632	TAKE PHOTOGRAPHY CLASS
-0.17711416	SHE POTTERY CLASS
-0.17711416	TAKE POTTERY CLASS
-0.17711416	GIFT POTTERY CLASS
-0.03348144	FOR. POTTERY CLASS
-0.59673613	TAKE PAINTING CLASS
-0.43604693	TAKE WRITING CLASS
-0.43604693	CREATIVE WRITING CLASS
-0.4652963	PILATES ZUMBA CLASS
-0.4652963	BOAT. SEWING CLASS
-0.06836961	SHE CREATIVE-WRITING CLASS
-0.057752974	SHE NUTRITION CLASS
-0.358562	HOBBY. NUTRITION CLASS
-0.06971402	I LANGUAGE CLASS
-0.48067725	HAVE. LANGUAGE CLASS
-0.6763701	SHE PUBLIC-SPEAKING CLASS
-0.06836961	SHE WEB-DESIGN CLASS
-0.17711416	WEB DESIGN CLASS
-0.17711416	FASHION DESIGN CLASS
-0.17711416	GRAPHIC DESIGN CLASS
-0.17711416	INTERIOR DESIGN CLASS
-0.4652963	FOR. WOODWORKING CLASS
-0.9455435	YOGA CLASS THIS
-1.0108958	MUSIC FESTIVAL THIS
-1.2166365	CAMPING TRIP THIS
-0.4732332	VISIT GRANDPARENTS THIS
-0.61028564	CLASS THIS AFTERNOON.
-0.45101404	THIS AFTERNOON. THEY
-0.07150853	FESTIVAL GO THEY
-0.18880525	TRIP GO THEY
-0.07150853	GAME GO THEY
-0.5020158	RIDE GO THEY
-0.5020158	SAFARI GO THEY
-0.53113264	FUNDRAISER CHARITY. THEY
-0.53113264	RUN MARATHON. THEY
-0.5775162	CONFERENCE WORK. THEY
-0.53113264	GARDEN BACKYARD. THEY
-0.987879	TRIP PLAN THEY
-0.53113264	CLUB FRIENDS. THEY
-0.5893365	WALK PARK. THEY
-0.4239563	IMPROVE SKILL. THEY
-0.5990287	DEVELOP SKILL. THEY
-0.45101404	CLASS FRIDAY. THEY
-0.45101404	UPCOMING CONCERT. THEY
-0.53113264	LICENSE TEST. THEY
-0.45101404	OLD CLOTHES. THEY
-0.34896123	TRAIN TRIATHLON. THEY
-0.34896123	STROKE TRIATHLON. THEY
-0.45101404	BRUNCH SUNDAY. THEY
-0.58878446	GARDEN VOLUNTEER THEY
-0.82328963	KITCHEN VOLUNTEER THEY
-0.45101404	PLAY PIANO. THEY
-0.45101404	TRIP PARIS. THEY
-0.45101404	COMMUNITY CENTER. THEY
-0.0670818	REDUCE STRESS. THEY
-0.45101404	CHARITY RUN. THEY
-0.45101404	FAVORITE AUTHOR. THEY
-0.45101404	IMPROVE FLEXIBILITY. THEY
-0.45101404	NEW RECIPE. THEY
-0.45101404	WEDDING INVITE. THEY
-1.0989043	SKILL NEW. THEY
-0.45101404	EXPRESS CREATIVITY. THEY
-0.45101404	EXAM COLLEGE. THEY
-0.45101404	IMPROVE STORYTELLING. THEY
-0.45101404	SERVE MEAL. THEY
-0.45101404	HANDMADE MUG. THEY
-0.8936479	MAKE LEARN. THEY
-0.076220274	SWEATER LEARN. THEY
-0.0670818	CHALLENGE SELF. THEY
-0.0670818	IMPROVE HEALTH. THEY
-0.0670818	PRACTICE STAY-FIT. THEY
-0.6489158	NEW CHOREOGRAPHY. THEY
-0.6489158	IMPROVE CONFIDENCE. THEY
-0.6489158	ACHIEVE PERSONAL-GOAL. THEY
-0.45101404	WEDDING INVITATION. THEY
-0.55219626	AFTERNOON. THEY GO
-0.55219626	BACKYARD. THEY GO
-1.0283922	SKILL. THEY GO
-0.55219626	FRIDAY. THEY GO
-0.55219626	TEST. THEY GO
-0.55219626	INVITATION. THEY GO
-0.078975074	WINE FESTIVAL GO
-0.6265484	SUSHI. I GO
-0.6265484	BESTSELLER. I GO
-0.66880184	CAMPING TRIP GO
-0.5716062	ROAD TRIP GO
-0.06464971	RAFTING TRIP GO
-0.42515197	KAYAKING TRIP GO
-0.42515197	BACKPACKING TRIP GO
-0.42515197	BIRDWATCHING TRIP GO
-0.59266126	JAZZ CONCERT GO
-0.5760855	COMEDY CLUB GO
-0.5760855	FARMERS MARKET GO
-0.5211397	RESTAURANT. ME GO
-0.5211397	ART. ME GO
-0.5211397	OWNER. ME GO
-0.5760855	BREAK WORK GO
-0.5760855	TRIP MOUNTAIN GO
-0.5066915	BASKETBALL GAME GO
-0.5066915	FOOTBALL GAME GO
-0.43350014	MEDITATION RETREAT GO
-0.43350014	WRITING RETREAT GO
-0.5760855	DISCUSS NOVEL GO
-0.46228188	CLEAR MIND GO
-0.05752888	I SPA GO
-0.35654426	HAVE. SPA GO
-0.6705056	I COMEDY-CLUB GO
-0.6705056	I FARMERS-MARKET GO
-0.7502145	TRIP ALPS GO
-0.07837573	COOKING COMPETITION GO
-0.46228188	BALLOON RIDE GO
-0.46228188	TEA CEREMONY GO
-0.46228188	COMPETE. SAFARI GO
-0.6598696	MUG. THEY MUSIC
-1.399695	THEY GO MUSIC
-0.60751337	I LIVE MUSIC
-0.6547493	LIFE HAVE. MUSIC
-0.3317613	THEY MUSIC FESTIVAL
-0.3317613	GO MUSIC FESTIVAL
-0.3317613	HAVE. MUSIC FESTIVAL
-0.4738498	HOST STREET FESTIVAL
-0.0691226	MAKE. WINE FESTIVAL
-0.65521127	PHOTOGRAPHY CLASS WEEKEND.
-0.3310862	FESTIVAL THIS WEEKEND.
-0.3310862	TRIP THIS WEEKEND.
-0.3310862	GRANDPARENTS THIS WEEKEND.
-0.58956605	ATTEND WEDDING WEEKEND.
-0.7705015	FOOD BANK WEEKEND.
-0.47261748	FRUIT VEGETABLE WEEKEND.
-1.0452465	THIS WEEKEND. RESTAURANT
-0.25530925	TRY NEW RESTAURANT
-0.4738498	MONTH-LONG TRIP. RESTAURANT
-0.60835356	WEEKEND. RESTAURANT SERVE
-0.4738498	TONIGHT. CAFE SERVE
-0.82740825	HOMELESS SHELTER SERVE
-0.44414935	RESTAURANT SERVE DELICIOUS
-0.44414935	CAFE SERVE DELICIOUS
-0.07050031	GO. BAKERY DELICIOUS
-0.48990902	EXPERIENCE. BAKERY DELICIOUS
-0.8302393	SERVE DELICIOUS SUSHI.
-0.44545805	CONCERT GO I
-0.44545805	CLUB GO I
-0.44545805	MARKET GO I
-0.06657032	RETREAT GO I
-0.8516992	SPA GO I
-0.06657032	COMPETITION GO I
-0.44545805	CEREMONY GO I
-0.46590167	DELICIOUS SUSHI. I
-0.46590167	COLLECTION BOOK. I
-0.5664256	FESTIVAL ATTEND I
-0.7856018	WORKSHOP ATTEND I
-0.5664256	TALK ATTEND I
-0.46590167	ROSE GARDEN. I
-1.7879803	CLASS TAKE I
-0.46590167	OUT QUICKLY. I
-0.6410012	POSE PRACTICE I
-0.46590167	EXHIBIT PICASSO. I
-0.46590167	GET COLD. I
-0.46590167	SALE BESTSELLER. I
-0.46590167	PASTRY COFFEE. I
-0.46590167	BEAUTIFUL WATERFALL. I
-0.46590167	HANDMADE CRAFTS. I
-0.47794297	BANK VOLUNTEER I
-0.6475141	KITCHEN VOLUNTEER I
-0.47794297	SANCTUARY VOLUNTEER I
-0.47794297	PROGRAM VOLUNTEER I
-0.27494428	COLLECTION HAVE. I
-0.05552448	SPACE-EXPLORATION HAVE. I
-0.05552448	MARINE-LIFE HAVE. I
-0.05552448	WATER-SLIDE HAVE. I
-0.05552448	DANCE-NUMBER HAVE. I
-0.17540304	COOKIE HAVE. I
-0.45635796	WEIGHT-EQUIPMENT HAVE. I
-0.49073988	FUNHOUSE HAVE. I
-0.49073988	STARGAZING HAVE. I
-0.9511715	I GO DENTIST
-0.4738498	GO DENTIST CHECK-UP.
-0.4738498	DOG VET CHECK-UP.
-0.5587447	GO DOCTOR CHECK-UP.
-0.5363557	CLASS WEEKEND. HE
-0.8313884	THIS WEEKEND. HE
-0.4284509	DENTIST CHECK-UP. HE
-0.4284509	DOCTOR CHECK-UP. HE
-0.07952125	EXAM STUDY HE
-0.45631498	MOVIE NETFLIX. HE
-0.23593792	CONFERENCE ATTEND HE
-0.55644196	BOOTCAMP ATTEND HE
-0.55644196	SEMINAR ATTEND HE
-0.53751546	YORK CITY. HE
-1.0577725	REPAIR LEARN HE
-0.60548615	BOAT LEARN HE
-0.45631498	KNIT SCARF. HE
-0.38356483	SKILL PRACTICE HE
-0.5373272	MOVE PRACTICE HE
-0.5498067	TRICK PRACTICE HE
-0.472044	CONCERT FRIEND. HE
-0.472044	LETTER FRIEND. HE
-0.45631498	PANCAKE BREAKFAST. HE
-0.45631498	LIFT WEIGHTS. HE
-0.53751546	DINNER TONIGHT. HE
-0.45631498	JOB INTERVIEW. HE
-0.45631498	BLOOD DRIVE. HE
-0.45631498	GO WALK. HE
-0.45631498	FREE TIME. HE
-0.45631498	FRIEND BIRTHDAY. HE
-0.45631498	WATCH SUNSET. HE
-0.18063988	GO I. HE
-0.115053624	PLAY I. HE
-0.022990923	TAKE I. HE
-0.115053624	TRY I. HE
-0.115053624	PRACTICE I. HE
-0.115053624	WRITE I. HE
-0.115053624	LISTEN I. HE
-0.115053624	VOLUNTEER I. HE
-0.06756428	HOMELESS FEED. HE
-0.07842475	ARTIST SEE. HE
-0.07816268	STUDIO PRACTICE. HE
-0.8306689	BUY FRESH-PRODUCE. HE
-0.2315118	RELAX MASSAGE. HE
-0.057081066	NEW-LANGUAGE TAKE. HE
-0.47808266	MERENGUE TAKE. HE
-0.65900886	WATCH STAND-UP-COMEDY. HE
-0.65900886	CARE ANIMAL. HE
-0.90721303	INSPIRING-SPEAKER LISTEN. HE
-0.45631498	HELP ENVIRONMENT. HE
-0.45631498	INNOVATIVE IDEA. HE
-0.64979017	BEACH. SHE STUDY
-0.64979017	WEEK. SHE STUDY
-0.8410736	CHECK-UP. HE STUDY
-0.8410736	FRIEND. HE STUDY
-1.3816938	I. HE STUDY
-0.5990596	ENVIRONMENT. HE STUDY
-0.48830077	CERTIFICATION EXAM STUDY
-0.48830077	MEDICAL EXAM STUDY
-0.06906879	HE CERTIFICATION-EXAM STUDY
-0.79041713	SHE STUDY FINAL
-0.96556294	HE STUDY FINAL
-0.7754482	STUDY FINAL EXAMS.
-0.6517942	EXAMS. SHE ORGANIZE
-0.6517942	SISTER. SHE ORGANIZE
-0.66153365	TIME. HE ORGANIZE
-0.5986945	SHE ORGANIZE FUNDRAISER
-0.44431213	HE ORGANIZE FUNDRAISER
-0.77506196	ORGANIZE FUNDRAISER CHARITY.
-0.609797	FUNDRAISER LOCAL CHARITY.
-0.63014364	CHECK-UP. SHE TRAIN
-0.63014364	SEMESTER. SHE TRAIN
-0.63014364	VEGAS. SHE TRAIN
-0.6581803	CHARITY. THEY TRAIN
-0.058246385	SHE TRIATHLON TRAIN
-0.36303425	LEARN. TRIATHLON TRAIN
-0.49503478	SHE MARATHON TRAIN
-0.36303425	HE. MARATHON TRAIN
-0.48711917	BODYBUILDING COMPETITION TRAIN
-0.48711917	POWERLIFTING COMPETITION TRAIN
-0.47200269	BOXING MATCH TRAIN
-0.64289886	THEY TRAIN MARATHON.
-0.47490832	TRAIN RUN MARATHON.
-0.5600321	TRAIN MARATHON. LIBRARY
-0.5162545	UNWIND GO. LIBRARY
-0.5855576	MARATHON. LIBRARY HAVE
-0.44808793	BACKYARD. PARK HAVE
-0.6040922	THEME PARK HAVE
-0.6716525	AMUSEMENT PARK HAVE
-0.44808793	PLAN. PARK HAVE
-0.21745275	ART MUSEUM HAVE
-0.76454777	SCIENCE MUSEUM HAVE
-0.4812312	COUNTRYSIDE. MUSEUM HAVE
-0.5535247	HAWAII. BOOKSTORE HAVE
-0.62653625	REEF. GYM HAVE
-0.5855576	FARMER'S MARKET HAVE
-0.5535247	MYTHOLOGY SECTION HAVE
-0.46955198	ART GALLERY HAVE
-0.61466295	PERFORMANCE THEATER HAVE
-0.46955198	TOUCH TANK HAVE
-0.65060484	LIBRARY HAVE LARGE
-0.36326844	MUSEUM HAVE COLLECTION
-0.60528654	GALLERY HAVE COLLECTION
-0.47016338	HAVE LARGE COLLECTION
-0.08098907	WEEKEND. MUSEUM COLLECTION
-0.6033365	ABSTRACT PAINTING COLLECTION
-0.6859212	AQUARIUM DIVERSE COLLECTION
-0.58635634	FAMOUS ARTIST COLLECTION
-0.6859212	PAINTING FAMOUS-ARTIST COLLECTION
-0.6859212	CLASSIC-NOVEL NEW-RELEASE COLLECTION
-0.47016338	NEW RELEASE COLLECTION
-0.6484476	LARGE COLLECTION BOOK.
-0.9320718	TRIATHLON. THEY WATCH
-0.9320718	STRESS. THEY WATCH
-1.1900184	COMEDY-CLUB GO WATCH
-0.6566172	BOOK. I WATCH
-0.92778677	<s> HE WATCH
-0.6465915	WEIGHTS. HE WATCH
-0.58956605	GO BEACH WATCH
-0.7702345	THEY WATCH MOVIE
-0.5570834	I WATCH MOVIE
-0.7754482	WATCH MOVIE NETFLIX.
-0.66178596	NETFLIX. HE FIX
-0.4751018	HE FIX LEAKY
-0.4751018	FIX LEAKY FAUCET
-0.4751018	LEAKY FAUCET BATHROOM.
-0.6231575	BATHROOM. SHE ATTEND
-0.6231575	GIG. SHE ATTEND
-0.6231575	GRANDFATHER. SHE ATTEND
-0.47250333	POTTERY CLASS ATTEND
-0.64983094	SUNDAY. THEY ATTEND
-0.9861171	MUSIC FESTIVAL ATTEND
-0.6498241	BIRTHDAY. HE ATTEND
-0.37571794	LEADERSHIP CONFERENCE ATTEND
-0.37571794	FINANCE CONFERENCE ATTEND
-0.37571794	STARTUP CONFERENCE ATTEND
-0.6362935	CIVILIZATION. ME ATTEND
-0.4365581	DANCE WORKSHOP ATTEND
-0.5876723	PHOTOGRAPHY WORKSHOP ATTEND
-0.06842337	I MUSIC-FESTIVAL ATTEND
-0.06842337	HE LEADERSHIP-CONFERENCE ATTEND
-0.6775525	SHE DANCE-WORKSHOP ATTEND
-0.6775525	HE CODING-BOOTCAMP ATTEND
-0.6775525	I TED-TALK ATTEND
-0.46590167	CODING BOOTCAMP ATTEND
-0.5490996	TED TALK ATTEND
-0.46590167	LEGAL SEMINAR ATTEND
-1.0226635	SHE ATTEND CONFERENCE
-0.62285763	HE ATTEND CONFERENCE
-0.4732332	IN. LEADERSHIP CONFERENCE
-0.55799514	LEARN. FINANCE CONFERENCE
-0.4732332	ENTREPRENEURSHIP STARTUP CONFERENCE
-0.87617606	ATTEND CONFERENCE WORK.
-0.55799514	PODCAST COMMUTE WORK.
-0.4732332	COWORKER AFTER WORK.
-0.5903722	I NOVEL WORK.
-0.66217214	WORK. THEY HOST
-0.5600321	THEATER. CITY HOST
-0.5602675	THEY HOST BARBECUE
-0.47490832	HOST BARBECUE BACKYARD.
-0.5600321	START GARDEN BACKYARD.
-1.4873347	PRACTICE HE PARK
-0.5535247	BARBECUE BACKYARD. PARK
-0.5535247	RESTAURANT CITY. PARK
-0.5535247	WEEKEND. WALK PARK
-0.46955198	TAKE DAUGHTER PARK
-0.25536588	PHOTOGRAPHY SKILL PARK
-0.36140266	ANNIVERSARY. THEME PARK
-0.36140266	CHEER. THEME PARK
-0.5855576	PARK WATER PARK
-0.36140266	SALSA. AMUSEMENT PARK
-0.05806689	EXPERIENCE. AMUSEMENT PARK
-0.46955198	ANNIVERSARY PLAN. PARK
-1.2049	PARK HAVE BEAUTIFUL
-0.47490832	TRAIL LEAD BEAUTIFUL
-0.5602675	HAVE BEAUTIFUL ROSE
-0.4751018	BEAUTIFUL ROSE GARDEN.
-0.6317223	CLOTHES. THEY PLAN
-0.6317223	PARIS. THEY PLAN
-0.6317223	FLEXIBILITY. THEY PLAN
-0.65754443	GARDEN. I PLAN
-0.5816874	CITY TRIP PLAN
-0.5816874	AMERICA TRIP PLAN
-0.5816874	ASIA TRIP PLAN
-0.6458839	MUSIC. ME PLAN
-0.64983094	STORYTELLING. THEY TRIP
-0.8221429	THEY PLAN TRIP
-0.53164405	I PLAN TRIP
-0.25716472	THEY CAMPING TRIP
-0.045275774	GO CAMPING TRIP
-0.25716472	KAYAKING CAMPING TRIP
-0.46590167	PRACTICE FRENCH TRIP
-0.5490996	YORK CITY TRIP
-0.35896665	THEY ROAD TRIP
-0.35896665	TASTE. ROAD TRIP
-0.25716472	THEY SKI TRIP
-0.25716472	LEARN. SKI TRIP
-0.25716472	SKILLS. SKI TRIP
-0.35896665	RIVER RAFTING TRIP
-0.35896665	REDECORATE. RAFTING TRIP
-0.5490996	LEARN. KAYAKING TRIP
-0.46590167	SOUTH AMERICA TRIP
-0.46590167	HE SAILING TRIP
-0.46590167	MAKE. BACKPACKING TRIP
-0.46590167	TEST. ASIA TRIP
-0.46590167	STAY. BIRDWATCHING TRIP
-0.46590167	HORSEBACK RIDING TRIP
-0.46590167	GO SNORKELING TRIP
-1.4747175	TAKE SHE NEW
-1.0948312	TAKE I NEW
-0.93010926	PLAN TRIP NEW
-0.06593155	THEY TRY NEW
-0.43860874	I TRY NEW
-1.3498101	ATTEND LEARN NEW
-0.62121165	COOK LEARN NEW
-0.55204463	ME BUY NEW
-0.4683318	REDECORATE BEDROOM NEW
-0.6175538	HE SKILL NEW
-0.6175538	PROGRAMMING SKILL NEW
-0.4683318	VEGAN LASAGNA NEW
-0.5839645	CLASSIC NOVEL NEW
-0.55204463	FIT STAY. NEW
-0.4683318	SHE CHOREOGRAPHY NEW
-0.60831124	TRIP NEW YORK
-0.60831124	STAY. NEW YORK
-0.85999626	NEW RESTAURANT CITY.
-0.77506196	NEW YORK CITY.
-0.62645763	CITY. HE PLAY
-0.62645763	WALK. HE PLAY
-0.71264374	I. HE PLAY
-0.8923128	SHE LEARN PLAY
-1.0348357	HE LEARN PLAY
-0.6183389	BOARD GAME PLAY
-0.38051406	WINE. THEATER PLAY
-0.38051406	GO. THEATER PLAY
-0.38051406	THEY. THEATER PLAY
-0.37358698	HE PLAY BASKETBALL
-0.4738498	JUMP SHOT BASKETBALL
-0.77295166	LEARN SHE. BASKETBALL
-0.85999626	PLAY BASKETBALL FRIENDS.
-0.82980114	BOOK CLUB FRIENDS.
-0.52163124	WORK. SHE TAKE
-0.52163124	FRIENDS. SHE TAKE
-0.7137301	PARK. SHE TAKE
-0.52163124	SKILL. SHE TAKE
-0.52163124	BROTHER. SHE TAKE
-0.52163124	STADIUM. SHE TAKE
-0.52163124	PATIENT. SHE TAKE
-0.52163124	EXAM. SHE TAKE
-0.3037976	SPEAKING CLASS TAKE
-0.3574691	DANCE CLASS TAKE
-0.625207	POTTERY CLASS TAKE
-0.4097404	WRITING CLASS TAKE
-0.05133183	CREATIVE-WRITING CLASS TAKE
-0.40239814	NUTRITION CLASS TAKE
-0.68356943	LANGUAGE CLASS TAKE
-0.40239814	PUBLIC-SPEAKING CLASS TAKE
-0.05133183	WEB-DESIGN CLASS TAKE
-0.26206335	DESIGN CLASS TAKE
-0.3037976	WOODWORKING CLASS TAKE
-0.6581803	CONCERT. THEY TAKE
-0.88737285	<s> HE TAKE
-0.88737285	CHECK-UP. HE TAKE
-0.62497205	DRIVE. HE TAKE
-0.60052794	GUIDE. ME TAKE
-0.60052794	SPECIES. ME TAKE
-0.47200269	MAKE CLOTHES TAKE
-1.3498882	SHE TAKE DOG
-1.0278422	HE TAKE DOG
-0.6331087	VEGETABLE WEEKEND. WALK
-0.77506196	TAKE DOG WALK
-0.55724686	DOG WALK PARK.
-0.7705015	PRACTICE GUITAR PARK.
-0.6066748	SOCCER FRIEND PARK.
-0.55724686	VISIT NATIONAL PARK.
-0.47261748	WALL TRAMPOLINE PARK.
-0.6504821	PARK. THEY TRY
-0.6504821	AUTHOR. THEY TRY
-0.6584736	WATERFALL. I TRY
-0.77295166	NEW RECIPE TRY
-0.86046594	NEW RESTAURANT DINNER.
-1.1130273	ME GO CONCERT
-0.6183389	NATIONAL PARK. CONCERT
-0.4732332	RESTAURANT DINNER. CONCERT
-0.4732332	CREATURE. JAZZ CONCERT
-0.610061	DINNER. CONCERT TICKET
-0.4751018	CONCERT TICKET SELL
-0.4751018	TICKET SELL OUT
-0.4751018	SELL OUT QUICKLY.
-0.64175946	SHELTER. SHE LEARN
-0.64175946	COMPETITION. SHE LEARN
-0.73806655	DANCE CLASS LEARN
-0.25112668	LANGUAGE CLASS LEARN
-0.65065867	FRIENDS. THEY LEARN
-0.64745235	QUICKLY. I LEARN
-0.6388668	BREAKFAST. HE LEARN
-0.71988016	I. HE LEARN
-0.0765035	LEADERSHIP-CONFERENCE ATTEND LEARN
-0.90384257	DANCE-WORKSHOP ATTEND LEARN
-0.90384257	CODING-BOOTCAMP ATTEND LEARN
-1.0632148	CLASS TAKE LEARN
-0.6087722	WIRE MAKE LEARN
-0.63708466	DAY. ME LEARN
-0.46650797	CLASS COOK LEARN
-0.98356724	KNIT SWEATER LEARN
-0.67873824	CAR REPAIR LEARN
-0.549834	TEDx TALK LEARN
-0.46650797	SAIL BOAT LEARN
-0.46650797	I CHILD LEARN
-0.68041664	PRACTICE. SHE KNIT
-0.65431505	I LEARN KNIT
-0.5587447	PARK IN. KNIT
-0.5929078	LEARN KNIT SCARF.
-0.5821757	CHARITY. SHE PRACTICE
-0.5821757	CHESS. SHE PRACTICE
-0.5821757	MEDIA. SHE PRACTICE
-0.5821757	LANGUAGE. SHE PRACTICE
-0.5821757	SHIFT. SHE PRACTICE
-0.79264265	WEEKEND. HE PRACTICE
-0.57066256	SCARF. HE PRACTICE
-0.57066256	TONIGHT. HE PRACTICE
-0.6790508	I. HE PRACTICE
-0.57066256	IDEA. HE PRACTICE
-0.64266354	PRODUCE. ME PRACTICE
-0.8129971	PHOTOGRAPHY SKILL PRACTICE
-0.4136306	DRAWING SKILL PRACTICE
-0.60177493	ACROBATIC SKILL PRACTICE
-0.60177493	TENNIS SKILL PRACTICE
-0.4136306	ARCHERY SKILL PRACTICE
-0.4136306	CLIMBING SKILL PRACTICE
-0.9903385	YOGA POSE PRACTICE
-0.4426191	KICKBOXING MOVE PRACTICE
-0.05450217	BREAKDANCE MOVE PRACTICE
-0.33007553	ARTS MOVE PRACTICE
-0.68713	HE MAGIC-TRICK PRACTICE
-0.4707756	MAGIC TRICK PRACTICE
-1.2745401	HE PRACTICE PUBLIC
-0.6226049	ME PRACTICE PUBLIC
-1.0798832	NEW LEARN. PUBLIC
-0.058472004	PRACTICE PUBLIC SPEAKING
-0.36509323	LEARN. PUBLIC SPEAKING
-0.9471234	PUBLIC SPEAKING SKILL.
-0.61899346	WORKSHOP IMPROVE SKILL.
-0.06636618	TAKE DEVELOP SKILL.
-0.44325846	ARTISTRY DEVELOP SKILL.
-0.9502056	STRESS. THEY DANCE
-1.9330577	HAVE. I DANCE
-1.4692477	SHE TAKE DANCE
-0.628703	SELECTION HAVE. DANCE
-1.1145374	STARGAZING HAVE. DANCE
-0.62882847	SHOW FOR. DANCE
-0.47200269	CATCHY SONG DANCE
-1.4650894	DANCE CLASS FRIDAY.
-1.2533438	<s> THEY CAMPING
-0.55423224	THEY GO CAMPING
-0.5587447	IMPROVE. KAYAKING CAMPING
-1.0431424	THIS WEEKEND. ART
-0.6183389	TILE NEW. ART
-0.55799514	NATURE EXPLORE. ART
-0.5536862	WEDDING WEEKEND. MUSEUM
-0.5536862	BANK WEEKEND. MUSEUM
-0.33074903	<s> ART MUSEUM
-0.33074903	WEEKEND. ART MUSEUM
-0.33074903	EXPLORE. ART MUSEUM
-0.17886357	STATE. SCIENCE MUSEUM
-0.033759404	GO. SCIENCE MUSEUM
-0.17886357	NATIONAL. SCIENCE MUSEUM
-0.17886357	ROOT. SCIENCE MUSEUM
-1.1219684	SEE GO. MUSEUM
-0.6164155	SIGHT SEE. MUSEUM
-0.47200269	EXPLORE COUNTRYSIDE. MUSEUM
-0.609797	TRIP. RESTAURANT SPECIAL
-1.2288924	MUSEUM HAVE SPECIAL
-1.2893926	SCIENCE MUSEUM EXHIBIT
-0.55799514	HAVE SPECIAL EXHIBIT
-0.4732332	MOUNTAIN. ZOO EXHIBIT
-0.4732332	HAVE INTERACTIVE EXHIBIT
-0.62074333	SPECIAL EXHIBIT PICASSO.
-0.6600704	PICASSO. I WRITE
-0.5600321	COUNTRY LETTER WRITE
-0.5600321	I WRITE LETTER
-0.47490832	ANOTHER COUNTRY LETTER
-1.0108958	MUSIC FESTIVAL FRIEND.
-0.60751337	GO CONCERT FRIEND.
-0.55799514	WRITE LETTER FRIEND.
-0.94529253	SURPRISE PARTY FRIEND.
-1.1599578	HE STUDY ABROAD
-0.4751018	STUDY ABROAD SPAIN
-0.4738498	ABROAD SPAIN NEXT
-0.5587447	START JOB NEXT
-0.4738498	FAMILY REUNION NEXT
-0.59282094	SPAIN NEXT SEMESTER.
-1.0754721	SHE TRAIN RUN
-0.65216345	MARATHON. THEY RENOVATE
-0.65216345	INVITE. THEY RENOVATE
-0.77506196	THEY RENOVATE OLD
-0.5600321	CLOSET DONATE OLD
-0.5602675	RENOVATE OLD FARMHOUSE.
-0.4751018	OLD FARMHOUSE. WEATHER
-0.9353389	PARK. SHE START
-0.6505276	PLAY. SHE START
-1.5911826	I. HE START
-0.4738498	FARMHOUSE. WEATHER START
-0.610061	WEATHER START GET
-0.4751018	START GET COLD.
-1.2572899	POTTERY CLASS MAKE
-0.6327851	SEWING CLASS MAKE
-0.65754443	COLD. I MAKE
-0.9043282	BEAD WIRE MAKE
-0.8806013	WIRE JEWELRY MAKE
-0.62074333	I MAKE PANCAKE
-0.4751018	MAKE PANCAKE BREAKFAST.
-0.91015846	LEARN PLAY CHESS.
-1.3028718	SHE PRACTICE VIOLIN
-0.678397	PRACTICE HE UPCOMING
-0.4738498	PRACTICE VIOLIN UPCOMING
-0.6531933	GUITAR SKILL UPCOMING
-0.610061	VIOLIN UPCOMING CONCERT.
-1.2279142	VOLUNTEER I FAMILY
-1.0278574	THEY PLAN FAMILY
-0.6509217	THEY TAKE FAMILY
-0.55724686	PAINTING. MY FAMILY
-0.47261748	RAINY DAY FAMILY
-0.62074333	TAKE FAMILY VACATION
-0.47490832	FAMILY VACATION HAWAII.
-0.47490832	LEARN SURF HAWAII.
-0.5600321	VACATION HAWAII. BOOKSTORE
-0.5600321	MOVIE THEATER. BOOKSTORE
-0.65060484	BOOKSTORE HAVE SALE
-0.4751018	HAVE SALE BESTSELLER.
-0.94324833	I GO GYM
-0.47138873	NEXT SUMMER. GYM
-0.47138873	CHERRY BLOSSOM. GYM
-1.1186862	EXPLORE GO. GYM
-0.5557541	COASTLINE EXPLORE. GYM
-0.47138873	SECLUDED ISLAND. GYM
-0.47138873	CORAL REEF. GYM
-0.6334178	GO GYM LIFT
-0.4751018	GYM LIFT WEIGHTS.
-0.9027778	HE WATCH SUNSET
-0.4751018	WATCH SUNSET BEACH.
-0.9102261	SHE STUDY DRIVER'S
-0.4751018	STUDY DRIVER'S LICENSE
-0.47490832	DRIVER'S LICENSE TEST.
-0.47490832	SHE STRENGTH TEST.
-1.4024637	THEY GO COMEDY
-0.364262	I STAND-UP COMEDY
-0.364262	PRACTICE STAND-UP COMEDY
-1.5480726	COLLECTION HAVE. COMEDY
-1.5308915	PRACTICE HE SHOW
-0.609797	GO COMEDY SHOW
-0.5600321	COMEDY SHOW TONIGHT.
-0.47490832	RECIPE DINNER TONIGHT.
-0.5602675	SHOW TONIGHT. CAFE
-0.82980114	SERVE DELICIOUS PASTRY
-0.47490832	FRESH BREAD PASTRY
-0.5602675	DELICIOUS PASTRY COFFEE.
-1.6315646	GO THEY VISIT
-0.6496547	RECIPE. THEY VISIT
-0.65754443	COFFEE. I VISIT
-0.9412042	ROAD TRIP VISIT
-0.06906879	THEY ROAD-TRIP VISIT
-0.6207989	I VISIT GRANDPARENTS
-0.9572974	WEEKEND. HE PAINT
-0.4751018	HE PAINT PORTRAIT
-0.4751018	PAINT PORTRAIT SISTER.
-0.8303893	SHE ORGANIZE CLOSET
-0.47490832	ORGANIZE CLOSET DONATE
-0.6480822	EQUIPMENT. ME DONATE
-0.5602675	DONATE OLD CLOTHES.
-0.66217214	MEAL. THEY SURPRISE
-0.8408246	THEY PLAN SURPRISE
-0.5411138	ME PLAN SURPRISE
-0.36509323	THEY SURPRISE PARTY
-0.058472004	PLAN SURPRISE PARTY
-0.6101287	PARTY FRIEND. HIKING
-0.4751018	FRIEND. HIKING TRAIL
-0.4751018	HIKING TRAIL LEAD
-0.5602675	LEAD BEAUTIFUL WATERFALL.
-1.0616274	TRY NEW RECIPE
-0.60831124	LASAGNA NEW RECIPE
-0.7754482	NEW RECIPE DINNER
-0.5522506	HE PRACTICE GUITAR
-0.8500329	SHE START BOOK
-0.58715653	SHE READ BOOK
-0.4707756	CLASS OFFER. BOOK
-0.06885356	HE PERSONAL-FINANCE BOOK
-0.68713	HE WORLD-HISTORY BOOK
-0.55500966	PERSONAL FINANCE BOOK
-0.55500966	WORLD HISTORY BOOK
-0.4707756	HUMAN BEHAVIOR BOOK
-0.609797	HAVE. COMEDY CLUB
-0.56926537	START BOOK CLUB
-0.56926537	OFFER. BOOK CLUB
-0.6560694	THEY LEARN SURF
-0.5602675	SURF HAWAII. FARMER'S
-0.4738498	HAWAII. FARMER'S MARKET
-0.4738498	FRIEND. FARMER MARKET
-0.4738498	HAVE. FARMERS MARKET
-1.526306	GO I FRESH
-0.6460598	MARKET HAVE FRESH
-0.5887614	FARMER MARKET FRESH
-0.82325006	WIDE SELECTION FRESH
-0.60621005	FAMILY. BAKERY FRESH
-0.55649984	THEY GROW FRESH
-0.5413173	I FRESH PRODUCE
-0.5413173	HAVE FRESH PRODUCE
-0.2578396	ATTEND SHE HANDMADE
-0.87649506	CLASS MAKE HANDMADE
-0.77295166	FRESH PRODUCE HANDMADE
-0.59282094	PRODUCE HANDMADE CRAFTS.
-0.6600704	CRAFTS. I LISTEN
-0.47490832	COMMUTE AUDIOBOOK LISTEN
-0.5602675	I LISTEN PODCAST
-0.47490832	LISTEN PODCAST COMMUTE
-0.47490832	MORNING. DAILY COMMUTE
-0.7754482	TAKE DOG VET
-1.0748528	SHE TRAIN TRIATHLON.
-0.47490832	SWIM STROKE TRIATHLON.
-0.77506196	WATCH MOVIE THEATER.
-0.59256727	LIVE PERFORMANCE THEATER.
-0.5600321	THEATER. BOOKSTORE SECTION
-0.47490832	HISTORY MYTHOLOGY SECTION
-0.66217214	CENTER. THEY TRAVEL
-0.5600321	BOOKSTORE SECTION TRAVEL
-0.5602675	SECTION TRAVEL GUIDE.
-0.61110395	TRAMPOLINE PARK. ME
-0.467723	TRAVEL GUIDE. ME
-0.467723	ANCIENT ARTIFACT. ME
-0.467723	SHOP RESTAURANT. ME
-0.467723	WORKOUT EQUIPMENT. ME
-0.467723	ENDANGERED SPECIES. ME
-0.467723	VALENTINE'S DAY. ME
-0.467723	LIVE MUSIC. ME
-0.467723	MODERN ART. ME
-0.467723	PET OWNER. ME
-0.76083654	FRESH PRODUCE. ME
-0.467723	SCULPTURE INSTALLATION. ME
-0.467723	ANCIENT CIVILIZATION. ME
-0.082450815	SEE. HE PHOTOGRAPHY
-1.0986245	SHE ATTEND PHOTOGRAPHY
-0.93609846	ME TAKE PHOTOGRAPHY
-0.61727315	PERFORM SEE. PHOTOGRAPHY
-0.47261748	HAVE LIBRARY. PHOTOGRAPHY
-1.3886808	HE PRACTICE JUMP
-0.4751018	PRACTICE JUMP SHOT
-0.610061	SHOT BASKETBALL COURT.
-0.66247344	COURT. SHE MEET
-0.6181325	MY FAMILY FRIEND
-0.94529253	SURPRISE PARTY FRIEND
-0.4732332	SHE MEET FRIEND
-0.4732332	PLAY SOCCER FRIEND
-0.610061	MEET FRIEND BRUNCH
-0.4751018	FRIEND BRUNCH SUNDAY.
-0.6530788	THEY ATTEND WEDDING
-0.6531933	CALLIGRAPHY SKILL WEDDING
-0.5587447	LEARN CALLIGRAPHY WEDDING
-0.928581	MUSEUM COLLECTION ANCIENT
-0.61899346	SPECIES SEE. ANCIENT
-0.4738498	COLLECTION ARTIFACT ANCIENT
-0.59282094	COLLECTION ANCIENT ARTIFACT.
-1.2003939	FARMERS-MARKET GO BUY
-0.6480822	ARTIFACT. ME BUY
-0.64954674	BUY NEW OUTFIT
-0.609797	HE START JOB
-0.47490832	NEW OUTFIT JOB
-0.5602675	OUTFIT JOB INTERVIEW.
-0.6534438	BECOME. SHE VOLUNTEER
-0.65231895	RUN. THEY VOLUNTEER
-0.64040077	INTERVIEW. HE VOLUNTEER
-1.5152819	I. HE VOLUNTEER
-0.59546196	PARK. ME VOLUNTEER
-0.59546196	INSTALLATION. ME VOLUNTEER
-0.5513065	COMMUNITY GARDEN VOLUNTEER
-0.76083654	FOOD BANK VOLUNTEER
-0.5831701	ANIMAL SHELTER VOLUNTEER
-0.06858461	I SOUP-KITCHEN VOLUNTEER
-0.06858461	THEY COMMUNITY-GARDEN VOLUNTEER
-0.6811194	I WILDLIFE-SANCTUARY VOLUNTEER
-0.06858461	SOUP KITCHEN VOLUNTEER
-0.467723	WILDLIFE SANCTUARY VOLUNTEER
-0.467723	LITERACY PROGRAM VOLUNTEER
-0.5548787	SHE VOLUNTEER HOMELESS
-0.7666385	HE VOLUNTEER HOMELESS
-0.7666385	ME VOLUNTEER HOMELESS
-0.079333276	VOLUNTEER HELP HOMELESS
-0.4738498	THEY MEAL HOMELESS
-1.0640194	VOLUNTEER HOMELESS SHELTER.
-0.91015846	LEARN PLAY PIANO.
-0.6624383	PIANO. THEY REDECORATE
-0.4751018	THEY REDECORATE BEDROOM
-0.64954674	BEDROOM NEW FURNITURE.
-1.1149577	ME GO BEACH
-0.93481517	ME VOLUNTEER BEACH
-0.4738498	NEW FURNITURE. BEACH
-0.59282094	FURNITURE. BEACH BOARDWALK
-0.4751018	BEACH BOARDWALK SHOP
-0.4751018	BOARDWALK SHOP RESTAURANT.
-1.1182855	ME GO DOCTOR
-0.9567992	STUDY HE DOCTOR
-1.0278422	HE TAKE BREAK
-0.8872645	ME TAKE BREAK
-0.7754482	TAKE BREAK SOCIAL
-0.4751018	BREAK SOCIAL MEDIA.
-1.3028718	SHE PRACTICE FRENCH
-0.6557596	FRENCH TRIP PARIS.
-0.62074333	PLAN FAMILY REUNION
-0.59282094	REUNION NEXT SUMMER.
-0.4458934	SUMMER. GYM VARIETY
-0.6392701	GO. GYM VARIETY
-0.4458934	EXPLORE. GYM VARIETY
-1.0070652	GYM VARIETY WORKOUT
-0.4751018	VARIETY WORKOUT EQUIPMENT.
-0.5600321	ME DONATE BLOOD
-0.5600321	DONATE BLOOD BLOOD
-0.5602675	BLOOD BLOOD DRIVE.
