\data\
ngram 1=711
ngram 2=1395
ngram 3=1642
ngram 4=1705

\1-grams:
-3.2475393	<unk>	0
0	<s>	-0.21520993
-2.2343886	</s>	0
-1.5303967	SHE	-0.17043525
-3.10098	TEACH	-0.071578905
-2.4343061	YOGA	-0.12518466
-1.9107717	CLASS	-0.27793238
-2.528437	THIS	-0.19111827
-3.10098	AFTERNOON.	-0.071578905
-1.5303967	THEY	-0.12037433
-1.7995578	GO	-0.2163734
-2.528437	MUSIC	-0.19111827
-2.648783	FESTIVAL	-0.071578905
-2.4343061	WEEKEND.	-0.109181836
-2.648783	RESTAURANT	-0.071578905
-2.648783	SERVE	-0.11577821
-2.992803	DELICIOUS	-0.071578875
-3.10098	SUSHI.	-0.071578905
-1.9368919	I	-0.07792877
-3.10098	DENTIST	-0.071578905
-2.648783	CHECK-UP.	-0.11577821
-1.6376394	HE	-0.14286947
-2.528437	STUDY	-0.08763113
-3.10098	FINAL	-0.071578905
-3.10098	EXAMS.	-0.071578905
-2.992803	ORGANIZE	-0.11577821
-3.10098	FUNDRAISER	-0.071578905
-2.992803	CHARITY.	-0.071578905
-2.3569875	TRAIN	-0.16645627
-2.992803	MARATHON.	-0.071578905
-2.992803	LIBRARY	-0.071578875
-2.1388884	HAVE	-0.08006618
-3.10098	LARGE	-0.071578905
-2.1840186	COLLECTION	-0.18389541
-3.10098	BOOK.	-0.071578905
-2.4343061	WATCH	-0.08997354
-3.10098	MOVIE	-0.071578905
-3.10098	NETFLIX.	-0.071578905
-3.10098	FIX	-0.071578905
-3.10098	LEAKY	-0.071578905
-3.10098	FAUCET	-0.071578905
-3.10098	BATHROOM.	-0.071578905
-1.9368919	ATTEND	-0.15428351
-2.528437	CONFERENCE	-0.16443314
-2.528437	WORK.	-0.071578905
-2.992803	HOST	-0.071578905
-3.10098	BARBECUE	-0.071578905
-2.992803	BACKYARD.	-0.071578905
-2.1388884	PARK	-0.14265034
-2.992803	BEAUTIFUL	-0.071578905
-3.10098	ROSE	-0.071578905
-3.10098	GARDEN.	-0.071578905
-2.528437	PLAN	-0.11577821
-1.9368919	TRIP	-0.18163931
-2.0606496	NEW	-0.09947152
-3.10098	YORK	-0.071578905
-2.992803	CITY.	-0.071578905
-2.528437	PLAY	-0.071578905
-2.648783	BASKETBALL	-0.071578905
-2.992803	FRIENDS.	-0.071578905
-2.3569875	TAKE	-0.09091404
-3.10098	DOG	-0.071578905
-2.992803	WALK	-0.071578905
-2.4343061	PARK.	-0.097555205
-2.648783	TRY	-0.11577821
-3.10098	DINNER.	-0.071578905
-2.528437	CONCERT	-0.071578905
-3.10098	TICKET	-0.071578905
-3.10098	SELL	-0.071578905
-3.10098	OUT	-0.071578905
-3.10098	QUICKLY.	-0.071578905
-1.9646842	LEARN	-0.10577965
-2.648783	KNIT	-0.11577821
-3.10098	SCARF.	-0.071578905
-2.2343886	PRACTICE	-0.10120181
-2.992803	PUBLIC	-0.13968776
-3.10098	SPEAKING	-0.071578875
-2.648783	SKILL.	-0.11577821
-2.3569875	DANCE	-0.24361436
-3.10098	FRIDAY.	-0.071578905
-2.648783	CAMPING	-0.2395961
-2.528437	ART	-0.19111827
-2.3569875	MUSEUM	-0.13667469
-2.992803	SPECIAL	-0.071578905
-2.528437	EXHIBIT	-0.071578905
-3.10098	PICASSO.	-0.071578905
-2.992803	WRITE	-0.071578905
-2.992803	LETTER	-0.071578905
-2.528437	FRIEND.	-0.10429954
-3.10098	ABROAD	-0.071578905
-3.10098	SPAIN	-0.071578905
-2.648783	NEXT	-0.071578875
-3.10098	SEMESTER.	-0.071578905
-3.10098	RUN	-0.071578905
-3.10098	RENOVATE	-0.071578905
-2.992803	OLD	-0.071578905
-3.10098	FARMHOUSE.	-0.071578905
-3.10098	WEATHER	-0.071578905
-2.648783	START	-0.071578905
-3.10098	GET	-0.071578905
-3.10098	COLD.	-0.071578905
-2.528437	MAKE	-0.071578905
-3.10098	PANCAKE	-0.071578905
-3.10098	BREAKFAST.	-0.071578905
-3.10098	CHESS.	-0.071578905
-3.10098	VIOLIN	-0.071578905
-2.648783	UPCOMING	-0.071578905
-3.10098	CONCERT.	-0.071578905
-2.4343061	FAMILY	-0.071578905
-3.10098	VACATION	-0.071578905
-2.992803	HAWAII.	-0.071578905
-2.992803	BOOKSTORE	-0.071578905
-3.10098	SALE	-0.071578905
-3.10098	BESTSELLER.	-0.071578905
-2.291376	GYM	-0.1358176
-3.10098	LIFT	-0.071578905
-3.10098	WEIGHTS.	-0.071578905
-3.10098	SUNSET	-0.071578905
-3.10098	BEACH.	-0.071578905
-3.10098	DRIVER'S	-0.071578905
-3.10098	LICENSE	-0.071578905
-2.992803	TEST.	-0.071578905
-2.648783	COMEDY	-0.071578905
-2.992803	SHOW	-0.071578905
-2.992803	TONIGHT.	-0.071578905
-3.10098	CAFE	-0.071578905
-2.992803	PASTRY	-0.071578905
-3.10098	COFFEE.	-0.071578905
-2.528437	VISIT	-0.097555205
-3.10098	GRANDPARENTS	-0.071578905
-3.10098	PAINT	-0.071578905
-3.10098	PORTRAIT	-0.071578905
-3.10098	SISTER.	-0.071578905
-3.10098	CLOSET	-0.071578905
-2.992803	DONATE	-0.071578905
-3.10098	CLOTHES.	-0.071578905
-2.992803	SURPRISE	-0.13968776
-3.10098	PARTY	-0.071578875
-3.10098	HIKING	-0.071578905
-3.10098	TRAIL	-0.071578905
-3.10098	LEAD	-0.071578905
-3.10098	WATERFALL.	-0.071578905
-3.10098	RECIPE	-0.071578905
-3.10098	DINNER	-0.071578905
-3.10098	GUITAR	-0.071578905
-2.2343886	BOOK	-0.16464214
-2.992803	CLUB	-0.071578875
-3.10098	SURF	-0.071578905
-3.10098	FARMER'S	-0.071578905
-2.648783	MARKET	-0.071578875
-2.3569875	FRESH	-0.11577821
-3.10098	PRODUCE	-0.071578905
-2.648783	HANDMADE	-0.071578875
-3.10098	CRAFTS.	-0.071578905
-2.992803	LISTEN	-0.071578905
-3.10098	PODCAST	-0.071578905
-2.992803	COMMUTE	-0.071578905
-3.10098	VET	-0.071578905
-2.992803	TRIATHLON.	-0.13968776
-2.992803	THEATER.	-0.071578905
-2.992803	SECTION	-0.071578905
-2.992803	TRAVEL	-0.071578905
-3.10098	GUIDE.	-0.071578905
-2.0262506	ME	-0.1264536
-2.4343061	PHOTOGRAPHY	-0.12518466
-3.10098	JUMP	-0.071578905
-3.10098	SHOT	-0.071578905
-3.10098	COURT.	-0.071578905
-3.10098	MEET	-0.071578905
-2.528437	FRIEND	-0.071578905
-3.10098	BRUNCH	-0.071578905
-3.10098	SUNDAY.	-0.071578905
-2.648783	WEDDING	-0.071578875
-2.648783	ANCIENT	-0.071578875
-3.10098	ARTIFACT.	-0.071578905
-2.992803	BUY	-0.071578905
-3.10098	OUTFIT	-0.071578905
-2.992803	JOB	-0.071578905
-3.10098	INTERVIEW.	-0.071578905
-2.0262506	VOLUNTEER	-0.16900611
-2.648783	HOMELESS	-0.071578905
-3.10098	SHELTER.	-0.071578905
-3.10098	PIANO.	-0.071578905
-3.10098	REDECORATE	-0.071578905
-3.10098	BEDROOM	-0.071578905
-3.10098	FURNITURE.	-0.071578905
-2.648783	BEACH	-0.071578875
-3.10098	BOARDWALK	-0.071578905
-3.10098	SHOP	-0.071578905
-3.10098	RESTAURANT.	-0.071578905
-2.992803	DOCTOR	-0.071578905
-3.10098	BREAK	-0.071578905
-3.10098	SOCIAL	-0.071578905
-3.10098	MEDIA.	-0.071578905
-3.10098	FRENCH	-0.071578905
-3.10098	PARIS.	-0.071578905
-3.10098	REUNION	-0.071578905
-3.10098	SUMMER.	-0.071578905
-3.10098	VARIETY	-0.071578905
-3.10098	WORKOUT	-0.071578905
-3.10098	EQUIPMENT.	-0.071578905
-2.992803	BLOOD	-0.071578905
-3.10098	DRIVE.	-0.071578905
-3.10098	DAUGHTER	-0.071578905
-3.10098	PLAY.	-0.071578905
-2.992803	GARDEN	-0.071578905
-3.10098	MOUNTAIN.	-0.071578905
-3.10098	ZOO	-0.071578905
-3.10098	ENDANGERED	-0.071578905
-3.10098	SPECIES.	-0.071578905
-2.648783	WORK	-0.071578875
-3.10098	WALK.	-0.071578905
-3.10098	SOCCER	-0.071578905
-2.528437	POTTERY	-0.36453483
-2.992803	COMMUNITY	-0.071578905
-3.10098	CENTER.	-0.071578905
-3.10098	EUROPE	-0.071578905
-3.10098	MONTH-LONG	-0.071578905
-3.10098	TRIP.	-0.071578905
-3.10098	MENU	-0.071578905
-3.10098	VALENTINE'S	-0.071578905
-3.10098	DAY.	-0.071578905
-3.10098	CODE	-0.071578905
-3.10098	FREE	-0.071578905
-3.10098	TIME.	-0.071578905
-2.528437	LOCAL	-0.071578905
-2.992803	MEDITATION	-0.071578905
-2.992803	REDUCE	-0.13968776
-3.10098	STRESS.	-0.071578905
-2.528437	LIVE	-0.071578905
-2.648783	PERFORMANCE	-0.071578875
-2.992803	CITY	-0.071578905
-3.10098	STREET	-0.071578905
-3.10098	MUSIC.	-0.071578905
-3.10098	BIRTHDAY.	-0.071578905
-3.10098	LAS	-0.071578905
-3.10098	VEGAS.	-0.071578905
-3.10098	5K	-0.071578905
-3.10098	CHARITY	-0.071578905
-3.10098	RUN.	-0.071578905
-2.992803	FOOD	-0.13968776
-3.10098	BANK	-0.071578905
-3.10098	MODERN	-0.071578905
-3.10098	ART.	-0.071578905
-3.10098	SUNSET.	-0.071578905
-3.10098	DIY	-0.071578905
-2.992803	HOME	-0.071578905
-3.10098	IMPROVEMENT	-0.071578905
-3.10098	PROJECT.	-0.071578905
-2.648783	READ	-0.071578875
-2.528437	FAVORITE	-0.10429954
-3.10098	AUTHOR.	-0.071578905
-3.10098	DOG-FRIENDLY	-0.071578905
-3.10098	AREA	-0.071578905
-3.10098	PET	-0.071578905
-3.10098	OWNER.	-0.071578905
-3.10098	HIKE	-0.071578905
-2.648783	MOUNTAIN	-0.071578875
-3.10098	BROTHER.	-0.071578905
-2.648783	IMPROVE	-0.071578905
-3.10098	FLEXIBILITY.	-0.071578905
-3.10098	DISNEY	-0.071578905
-2.992803	WORLD	-0.071578905
-3.10098	KIDS.	-0.071578905
-3.10098	GROCERY	-0.071578905
-3.10098	STORE	-0.071578905
-2.992803	WIDE	-0.13968776
-2.992803	SELECTION	-0.071578875
-3.10098	PRODUCE.	-0.071578905
-1.9368919	SKILL	-0.17540455
-3.10098	PRESENTATION.	-0.071578905
-2.992803	BASEBALL	-0.13968776
-2.528437	GAME	-0.097555205
-3.10098	STADIUM.	-0.071578905
-3.10098	COOK	-0.071578905
-3.10098	RECIPE.	-0.071578905
-3.10098	RELATIVE	-0.071578905
-2.992803	ANOTHER	-0.071578905
-3.10098	STATE.	-0.071578905
-2.528437	SCIENCE	-0.36453483
-3.10098	INTERACTIVE	-0.071578905
-3.10098	KID.	-0.071578905
-2.992803	MY	-0.071578905
-3.10098	NAME	-0.071578905
-3.10098	PEN	-0.071578905
-3.10098	PAL	-0.071578905
-3.10098	COUNTRY	-0.071578905
-2.2343886	I.	-0.5433008
-2.992803	PROGRAMMING	-0.071578905
-3.10098	LANGUAGE.	-0.071578905
-2.992803	CALLIGRAPHY	-0.071578905
-3.10098	INVITE.	-0.071578905
-3.10098	BATHROOM	-0.071578905
-3.10098	TILE	-0.071578905
-2.648783	NEW.	-0.097555205
-3.10098	GALLERY	-0.071578905
-3.10098	IMPRESSIONIST	-0.071578905
-3.10098	PAINTING.	-0.071578905
-3.10098	GIFT	-0.071578905
-3.10098	COWORKER	-0.071578905
-3.10098	AFTER	-0.071578905
-2.648783	PAINTING	-0.071578905
-3.10098	EXPRESS	-0.071578905
-3.10098	CREATIVITY.	-0.071578905
-2.992803	ROAD	-0.13968776
-2.992803	NATIONAL	-0.071578905
-3.10098	MINUTE	-0.071578905
-3.10098	SOLD	-0.071578905
-3.10098	OUT.	-0.071578905
-3.10098	VEGAN	-0.071578905
-3.10098	LASAGNA	-0.071578905
-3.10098	GIG.	-0.071578905
-2.992803	WORKSHOP	-0.11577821
-3.10098	CRUISE	-0.071578905
-3.10098	ANNIVERSARY.	-0.071578905
-2.992803	THEME	-0.13968776
-2.992803	ROLLER	-0.13968776
-3.10098	COASTER	-0.071578905
-2.992803	WATER	-0.071578875
-3.10098	RIDE.	-0.071578905
-3.10098	WEEKEND	-0.071578905
-2.992803	ANIMAL	-0.071578905
-2.992803	SHELTER	-0.071578875
-3.10098	WEEK.	-0.071578905
-2.528437	EXAM	-0.10429954
-3.10098	COLLEGE.	-0.071578905
-3.10098	FAMILY.	-0.071578905
-2.528437	BAKERY	-0.10429954
-3.10098	BREAD	-0.071578905
-3.10098	MORNING.	-0.071578905
-3.10098	DAILY	-0.071578905
-3.10098	AUDIOBOOK	-0.071578905
-3.10098	CHESS	-0.071578905
-3.10098	GRANDFATHER.	-0.071578905
-2.992803	MINDFULNESS	-0.071578905
-2.648783	RETREAT	-0.11577821
-3.10098	SALSA.	-0.071578905
-2.992803	AMUSEMENT	-0.13968776
-3.10098	FERRIS	-0.071578905
-3.10098	WHEEL	-0.071578905
-3.10098	CAROUSEL.	-0.071578905
-3.10098	SKETCHBOOK	-0.071578905
-3.10098	DRAWING	-0.071578905
-3.10098	HOSPITAL	-0.071578905
-2.528437	HELP	-0.071578905
-3.10098	PATIENT.	-0.071578905
-2.648783	WRITING	-0.11577821
-3.10098	STORYTELLING.	-0.071578905
-3.10098	JAPAN	-0.071578905
-2.528437	SEE	-0.071578905
-3.10098	CHERRY	-0.071578905
-3.10098	BLOSSOM.	-0.071578905
-3.10098	PILATES	-0.071578905
-3.10098	ZUMBA	-0.071578905
-3.10098	OFFER.	-0.071578905
-3.10098	MEETING	-0.071578905
-3.10098	DISCUSS	-0.071578905
-2.648783	NOVEL	-0.071578875
-3.10098	DRIVE	-0.071578905
-3.10098	STICK	-0.071578905
-3.10098	SHIFT.	-0.071578905
-3.10098	SWIM	-0.071578905
-3.10098	STROKE	-0.071578905
-3.10098	WINERY	-0.071578905
-3.10098	TASTE	-0.071578905
-3.10098	WINE.	-0.071578905
-2.4343061	THEATER	-0.16443314
-2.992803	FAMOUS	-0.071578905
-3.10098	HISTORICAL	-0.071578905
-3.10098	FIGURE.	-0.071578905
-3.10098	RAINY	-0.071578905
-3.10098	DAY	-0.071578905
-3.10098	BOARD	-0.071578905
-3.10098	BAR	-0.071578905
-3.10098	LAWYER	-0.071578905
-2.992803	BECOME.	-0.071578905
-3.10098	MEAL.	-0.071578905
-3.10098	PARENT	-0.071578905
-3.10098	ANNIVERSARY	-0.071578905
-3.10098	PLAN.	-0.071578905
-3.10098	LAKE	-0.071578905
-3.10098	FISH	-0.071578905
-3.10098	BOAT.	-0.071578905
-3.10098	SEWING	-0.071578905
-3.10098	CLOTHES	-0.071578905
-2.992803	STAND-UP	-0.13968776
-3.10098	ROUTINE	-0.071578905
-3.10098	OPEN	-0.071578905
-3.10098	MIC	-0.071578905
-3.10098	NIGHT.	-0.071578905
-3.10098	MUG.	-0.071578905
-3.10098	FARMER	-0.071578905
-3.10098	FRUIT	-0.071578905
-3.10098	VEGETABLE	-0.071578905
-3.10098	CLEAR	-0.071578905
-3.10098	MIND	-0.071578905
-3.10098	ROAD-TRIP	-0.071578905
-3.10098	MONUMENT	-0.071578905
-2.1840186	GO.	-0.071578905
-3.10098	SPACE-EXPLORATION	-0.071578905
-1.8861338	HAVE.	-0.22784701
-3.10098	SOUP-KITCHEN	-0.071578905
-3.10098	FEED.	-0.071578905
-3.10098	CERTIFICATION-EXAM	-0.071578905
-2.992803	ADVANCE	-0.13968776
-3.10098	CAREER.	-0.071578905
-3.10098	CREATIVE-WRITING	-0.071578905
-2.648783	DEVELOP	-0.11577821
-3.10098	SKI-TRIP	-0.071578905
-2.648783	AQUARIUM	-0.11577821
-3.10098	DIVERSE	-0.071578905
-3.10098	MARINE-LIFE	-0.071578905
-3.10098	MUSIC-FESTIVAL	-0.071578905
-2.992803	ARTIST	-0.071578875
-2.4343061	SEE.	-0.071578905
-2.528437	PRACTICE.	-0.19111827
-3.10098	SWEATER	-0.071578905
-2.1840186	LEARN.	-0.08319409
-3.10098	BASKETBALL-GAME	-0.071578905
-3.10098	CHEER	-0.071578905
-2.992803	FAVORITE-TEAM	-0.13968776
-3.10098	THEME-PARK	-0.071578905
-3.10098	ROLLER-COASTER	-0.071578905
-3.10098	WATER-SLIDE	-0.071578905
-3.10098	POSE	-0.071578905
-2.992803	STUDIO	-0.071578905
-3.10098	LEADERSHIP-CONFERENCE	-0.071578905
-2.992803	TRIATHLON	-0.13968776
-2.992803	CHALLENGE	-0.071578905
-3.10098	SELF.	-0.071578905
-3.10098	COMMUNITY-GARDEN	-0.071578905
-2.992803	GROW	-0.071578905
-2.992803	FRESH-PRODUCE.	-0.071578905
-2.992803	MUSICAL	-0.071578905
-3.10098	CATCHY-SONG	-0.071578905
-3.10098	DANCE-NUMBER	-0.071578905
-2.992803	SPA	-0.13968776
-2.992803	RELAX	-0.13968776
-3.10098	MASSAGE.	-0.071578905
-2.992803	CAR	-0.13968776
-3.10098	REPAIR	-0.071578905
-2.992803	HOBBY.	-0.071578905
-2.992803	NUTRITION	-0.13968776
-3.10098	HEALTH.	-0.071578905
-3.10098	RIVER-RAFTING-TRIP	-0.071578905
-2.992803	EXPERIENCE	-0.071578905
-2.992803	ADVENTURE	-0.071578905
-3.10098	CUPCAKE	-0.071578905
-3.10098	COOKIE	-0.071578905
-2.528437	LANGUAGE	-0.10429954
-3.10098	NEW-LANGUAGE	-0.071578905
-2.992803	TAKE.	-0.13968776
-3.10098	PERSONAL-FINANCE	-0.071578905
-3.10098	READ.	-0.071578905
-2.992803	KICKBOXING	-0.13968776
-2.528437	MOVE	-0.19111827
-3.10098	STAY-FIT.	-0.071578905
-3.10098	NEW-YORK-CITY	-0.071578905
-3.10098	SIGHTS	-0.071578905
-3.10098	FAMOUS-ARTIST	-0.071578905
-3.10098	COMEDY-CLUB	-0.071578905
-3.10098	STAND-UP-COMEDY.	-0.071578905
-3.10098	MAGIC-TRICK	-0.071578905
-3.10098	SHOW.	-0.071578905
-3.10098	DANCE-WORKSHOP	-0.071578905
-3.10098	CHOREOGRAPHY.	-0.071578905
-3.10098	KAYAKING-TRIP	-0.071578905
-2.992803	COASTLINE	-0.071578905
-2.992803	EXPLORE	-0.071578905
-3.10098	CARDIO	-0.071578905
-3.10098	WEIGHT-EQUIPMENT	-0.071578905
-3.10098	WILDLIFE-SANCTUARY	-0.071578905
-3.10098	CARE	-0.071578905
-3.10098	ANIMAL.	-0.071578905
-3.10098	CODING-BOOTCAMP	-0.071578905
-3.10098	PROGRAMMING-SKILL	-0.071578905
-3.10098	PUBLIC-SPEAKING	-0.071578905
-3.10098	CONFIDENCE.	-0.071578905
-3.10098	SOUTH-AMERICA	-0.071578905
-2.648783	CULTURE	-0.071578905
-3.10098	AMUSEMENT-PARK	-0.071578905
-3.10098	HAUNTED-HOUSE	-0.071578905
-2.992803	FUNHOUSE	-0.13968776
-3.10098	FARMERS-MARKET	-0.071578905
-2.992803	ACROBATIC	-0.13968776
-3.10098	CIRCUS-PERFORMANCE	-0.071578905
-2.992803	BEAD	-0.13968776
-3.10098	WIRE	-0.071578905
-2.992803	JEWELRY	-0.071578905
-3.10098	FOOTBALL-GAME	-0.071578905
-3.10098	ROOT	-0.071578905
-3.10098	SCIENCE-MUSEUM	-0.071578905
-2.992803	PLANETARIUM	-0.13968776
-3.10098	STARGAZING	-0.071578905
-2.992803	SALSA	-0.13968776
-3.10098	MERENGUE	-0.071578905
-3.10098	WORLD-HISTORY	-0.071578905
-2.992803	MARATHON	-0.13968776
-3.10098	ACHIEVE	-0.071578905
-3.10098	PERSONAL-GOAL.	-0.071578905
-3.10098	CAMPING-TRIP	-0.071578905
-2.992803	DISCONNECT	-0.13968776
-3.10098	UNWIND	-0.071578905
-3.10098	CLASSIC-NOVEL	-0.071578905
-3.10098	NEW-RELEASE	-0.071578905
-3.10098	TED-TALK	-0.071578905
-3.10098	INSPIRING-SPEAKER	-0.071578905
-2.648783	LISTEN.	-0.071578875
-2.992803	TENNIS	-0.13968776
-3.10098	UPCOMING-TOURNAMENT	-0.071578905
-3.10098	WEB-DESIGN	-0.071578905
-2.992803	WEB	-0.071578905
-2.648783	SKI	-0.2395961
-3.10098	ALPS	-0.071578905
-3.10098	THOUGHT-PROVOKING	-0.071578905
-3.10098	PLOT	-0.071578905
-3.10098	COOKING	-0.071578905
-2.528437	COMPETITION	-0.10429954
-3.10098	SHOWCASE	-0.071578905
-2.992803	SKILLS.	-0.071578905
-2.992803	BREAKDANCE	-0.13968776
-2.3569875	FOR.	-0.071578905
-3.10098	BOWL	-0.071578905
-2.992803	MAKE.	-0.071578905
-3.10098	WINE	-0.071578905
-3.10098	TASTE.	-0.071578905
-3.10098	NATIONAL.	-0.071578905
-3.10098	SPACE	-0.071578905
-3.10098	EXPLORATION	-0.071578905
-2.992803	SOUP	-0.13968776
-3.10098	KITCHEN	-0.071578905
-3.10098	FEED	-0.071578905
-3.10098	HOMELESS.	-0.071578905
-3.10098	CERTIFICATION	-0.071578905
-3.10098	CREATIVE	-0.071578905
-3.10098	THEY.	-0.071578905
-3.10098	MARINE	-0.071578905
-3.10098	LIFE	-0.071578905
-3.10098	PERFORM	-0.071578905
-2.992803	IN.	-0.071578905
-3.10098	SHE.	-0.071578905
-3.10098	TEAM	-0.071578905
-3.10098	CHEER.	-0.071578905
-2.992803	SLIDE	-0.071578905
-3.10098	LEADERSHIP	-0.071578905
-3.10098	HERSELF.	-0.071578905
-3.10098	CATCHY	-0.071578905
-3.10098	SONG	-0.071578905
-3.10098	NUMBER	-0.071578905
-3.10098	HEALTH	-0.071578905
-2.528437	IMPROVE.	-0.071578905
-2.992803	RIVER	-0.071578905
-2.992803	RAFTING	-0.13968776
-2.648783	EXPERIENCE.	-0.11577821
-2.992803	PERSONAL	-0.071578905
-2.992803	FINANCE	-0.071578905
-2.992803	HE.	-0.071578905
-3.10098	FIT	-0.071578905
-2.992803	STAY.	-0.071578905
-3.10098	SIGHT	-0.071578905
-3.10098	WATCH.	-0.071578905
-3.10098	MAGIC	-0.071578905
-3.10098	TRICK	-0.071578905
-3.10098	CHOREOGRAPHY	-0.071578905
-2.992803	KAYAKING	-0.071578905
-2.992803	EXPLORE.	-0.071578905
-3.10098	WEIGHT	-0.071578905
-3.10098	EQUIPMENT	-0.071578905
-2.992803	WILDLIFE	-0.071578905
-3.10098	SANCTUARY	-0.071578905
-3.10098	CARE.	-0.071578905
-3.10098	CODING	-0.071578905
-3.10098	BOOTCAMP	-0.071578905
-3.10098	CONFIDENCE	-0.071578905
-3.10098	SOUTH	-0.071578905
-3.10098	AMERICA	-0.071578905
-3.10098	HAUNTED	-0.071578905
-3.10098	HOUSE	-0.071578905
-3.10098	FARMERS	-0.071578905
-3.10098	BUY.	-0.071578905
-3.10098	CIRCUS	-0.071578905
-3.10098	FOOTBALL	-0.071578905
-3.10098	ROOT.	-0.071578905
-2.992803	HISTORY	-0.071578905
-3.10098	GOAL	-0.071578905
-3.10098	ACHIEVE.	-0.071578905
-3.10098	CLASSIC	-0.071578905
-3.10098	RELEASE	-0.071578905
-3.10098	TED	-0.071578905
-2.992803	TALK	-0.071578905
-3.10098	INSPIRING	-0.071578905
-3.10098	SPEAKER	-0.071578905
-3.10098	TOURNAMENT	-0.071578905
-2.528437	DESIGN	-0.36453483
-3.10098	SHOWCASE.	-0.071578905
-3.10098	RELAXATION	-0.071578905
-3.10098	FOCUS.	-0.071578905
-3.10098	SAIL	-0.071578905
-3.10098	BOAT	-0.071578905
-3.10098	SAILING	-0.071578905
-3.10098	WOODWORKING	-0.071578905
-3.10098	FURNITURE	-0.071578905
-3.10098	OWN	-0.071578905
-3.10098	BACKPACKING	-0.071578905
-3.10098	NATURE	-0.071578905
-3.10098	ABSTRACT	-0.071578905
-2.992803	HELP.	-0.071578905
-3.10098	MEDICAL	-0.071578905
-3.10098	FASHION	-0.071578905
-3.10098	DEVELOP.	-0.071578905
-2.992803	HOT	-0.071578905
-3.10098	AIR	-0.071578905
-3.10098	BALLOON	-0.071578905
-3.10098	RIDE	-0.071578905
-3.10098	SCENERY	-0.071578905
-3.10098	ABOVE.	-0.071578905
-3.10098	CROISSANT	-0.071578905
-3.10098	DANISH	-0.071578905
-3.10098	HIP	-0.071578905
-3.10098	HOP	-0.071578905
-3.10098	INVESTING	-0.071578905
-3.10098	BODYBUILDING	-0.071578905
-3.10098	MEAL	-0.071578905
-3.10098	SERVE.	-0.071578905
-3.10098	TOUCH	-0.071578905
-3.10098	TANK	-0.071578905
-3.10098	VISITOR	-0.071578905
-3.10098	INTERACT	-0.071578905
-3.10098	SEA	-0.071578905
-3.10098	CREATURE.	-0.071578905
-3.10098	JAZZ	-0.071578905
-3.10098	ARCHERY	-0.071578905
-3.10098	GRAPHIC	-0.071578905
-3.10098	PORTFOLIO	-0.071578905
-3.10098	SECLUDED	-0.071578905
-3.10098	ISLAND.	-0.071578905
-3.10098	SAUNA	-0.071578905
-3.10098	STEAM	-0.071578905
-3.10098	ROOM	-0.071578905
-3.10098	TUB	-0.071578905
-3.10098	LITERACY	-0.071578905
-3.10098	PROGRAM	-0.071578905
-3.10098	CHILD	-0.071578905
-3.10098	LEGAL	-0.071578905
-3.10098	SEMINAR	-0.071578905
-3.10098	LAW	-0.071578905
-3.10098	CHANGE	-0.071578905
-3.10098	STAY	-0.071578905
-3.10098	UP-TO-DATE.	-0.071578905
-3.10098	POWERLIFTING	-0.071578905
-3.10098	STRENGTH	-0.071578905
-3.10098	ASIA	-0.071578905
-3.10098	DIFFERENT	-0.071578905
-3.10098	LAZY	-0.071578905
-3.10098	TEA	-0.071578905
-3.10098	CEREMONY	-0.071578905
-3.10098	JAPANESE	-0.071578905
-3.10098	PSYCHOLOGY	-0.071578905
-3.10098	HUMAN	-0.071578905
-3.10098	BEHAVIOR	-0.071578905
-3.10098	MARTIAL	-0.071578905
-3.10098	ARTS	-0.071578905
-3.10098	SHAPE	-0.071578905
-3.10098	BIRDWATCHING	-0.071578905
-3.10098	RARE	-0.071578905
-3.10098	SPECIES	-0.071578905
-3.10098	MYTHOLOGY	-0.071578905
-3.10098	LIBRARY.	-0.071578905
-2.992803	ROCK	-0.071578905
-3.10098	CLIMBING	-0.071578905
-2.992803	CLIMB	-0.071578905
-3.10098	INTERIOR	-0.071578905
-3.10098	REDECORATE.	-0.071578905
-3.10098	RAPID	-0.071578905
-3.10098	THROUGH.	-0.071578905
-3.10098	BALLET	-0.071578905
-3.10098	ORCHESTRA.	-0.071578905
-3.10098	ENTREPRENEURSHIP	-0.071578905
-3.10098	STARTUP	-0.071578905
-3.10098	BOXING	-0.071578905
-3.10098	MATCH	-0.071578905
-3.10098	PROFESSIONALLY	-0.071578905
-3.10098	COMPETE.	-0.071578905
-3.10098	SAFARI	-0.071578905
-3.10098	EXOTIC	-0.071578905
-3.10098	SCULPTURE	-0.071578905
-3.10098	INSTALLATION.	-0.071578905
-3.10098	CLEANUP	-0.071578905
-3.10098	ENVIRONMENT.	-0.071578905
-3.10098	PROFICIENCY	-0.071578905
-3.10098	EXAM.	-0.071578905
-3.10098	MAKEUP	-0.071578905
-3.10098	ARTISTRY	-0.071578905
-3.10098	HORSEBACK	-0.071578905
-3.10098	RIDING	-0.071578905
-3.10098	COUNTRYSIDE.	-0.071578905
-3.10098	ARTIFACT	-0.071578905
-3.10098	CIVILIZATION.	-0.071578905
-3.10098	TEDx	-0.071578905
-3.10098	INNOVATIVE	-0.071578905
-3.10098	IDEA.	-0.071578905
-3.10098	SKATEBOARD	-0.071578905
-3.10098	COMPETITION.	-0.071578905
-3.10098	INVITATION.	-0.071578905
-3.10098	SNORKELING	-0.071578905
-3.10098	CORAL	-0.071578905
-3.10098	REEF.	-0.071578905
-3.10098	WALL	-0.071578905
-3.10098	TRAMPOLINE	-0.071578905
-3.10098	PROVIDE	-0.071578905
-3.10098	ASSISTANCE.	-0.071578905

\2-grams:
-1.3672274	WORK. </s>	0
-0.8043931	PRESENTATION. </s>	0
-1.7316127	I. </s>	0
-1.455354	NEW. </s>	0
-1.4518118	SEE. </s>	0
-1.0919504	WEB </s>	0
-0.8043931	ACHIEVE. </s>	0
-0.8043931	ASSISTANCE. </s>	0
-1.4322982	<s> SHE	-0.027085815
-1.1352783	CHECK-UP. SHE	-0.027085815
-0.75213575	EXAMS. SHE	-0.027085815
-0.9957637	CHARITY. SHE	-0.027085815
-0.60676694	TRAIN SHE	-0.026126226
-0.75213575	BATHROOM. SHE	-0.027085815
-1.3171935	ATTEND SHE	-0.027085815
-1.2007109	WORK. SHE	-0.027085815
-0.9957637	FRIENDS. SHE	-0.027085815
-1.5015023	TAKE SHE	-0.027085815
-0.8742901	PARK. SHE	-0.027085815
-1.503713	PRACTICE SHE	-0.027085815
-1.1352783	SKILL. SHE	-0.027085815
-0.75213575	SEMESTER. SHE	-0.027085815
-0.75213575	CHESS. SHE	-0.027085815
-0.75213575	BEACH. SHE	-0.027085815
-0.75213575	SISTER. SHE	-0.027085815
-0.75213575	COURT. SHE	-0.027085815
-0.75213575	SHELTER. SHE	-0.027085815
-0.75213575	MEDIA. SHE	-0.027085815
-0.75213575	PLAY. SHE	-0.027085815
-0.75213575	VEGAS. SHE	-0.027085815
-0.75213575	PROJECT. SHE	-0.027085815
-0.75213575	BROTHER. SHE	-0.027085815
-0.75213575	STADIUM. SHE	-0.027085815
-0.75213575	LANGUAGE. SHE	-0.027085815
-0.8742901	NEW. SHE	-0.027085815
-0.75213575	GIG. SHE	-0.027085815
-0.75213575	WEEK. SHE	-0.027085815
-0.75213575	GRANDFATHER. SHE	-0.027085815
-0.75213575	PATIENT. SHE	-0.027085815
-0.75213575	SHIFT. SHE	-0.027085815
-0.9957637	BECOME. SHE	-0.027085815
-0.75213575	NIGHT. SHE	-0.027085815
-0.9957637	CAREER. SHE	-0.027085815
-0.47236145	PRACTICE. SHE	-0.027085815
-0.9957637	HOBBY. SHE	-0.027085815
-0.75213575	READ. SHE	-0.027085815
-0.75213575	SHOW. SHE	-0.027085815
-0.75213575	EXAM. SHE	-0.027085815
-0.75213575	COMPETITION. SHE	-0.027085815
-2.507139	SHE TEACH	-0.027085815
-0.809471	TEACH YOGA	-0.027085815
-2.1628408	I YOGA	-0.027085815
-1.9754566	TAKE YOGA	-0.027085815
-1.6126455	GYM YOGA	-0.027085815
-2.070161	HAVE. YOGA	-0.027085815
-0.9236413	YOGA CLASS	-0.027085815
-1.7555053	TAKE CLASS	-0.027085815
-1.2142076	SPEAKING CLASS	-0.027085815
-0.41376472	DANCE CLASS	-0.025886709
-1.4023535	PHOTOGRAPHY CLASS	-0.027085815
-0.24160022	POTTERY CLASS	-0.027085815
-1.3151327	PAINTING CLASS	-0.027085815
-0.71496284	WRITING CLASS	-0.027085815
-0.7895063	ZUMBA CLASS	-0.027085815
-0.7895063	SEWING CLASS	-0.027085815
-0.7895063	CREATIVE-WRITING CLASS	-0.027085815
-0.5467641	NUTRITION CLASS	-0.024690876
-0.83215	LANGUAGE CLASS	-0.027085815
-0.7895063	PUBLIC-SPEAKING CLASS	-0.027085815
-0.7895063	WEB-DESIGN CLASS	-0.027085815
-0.24160022	DESIGN CLASS	-0.55248356
-0.7895063	WOODWORKING CLASS	-0.027085815
-2.1304119	CLASS THIS	-0.027085815
-1.4827785	FESTIVAL THIS	-0.027085815
-2.052745	TRIP THIS	-0.027085815
-0.8111769	GRANDPARENTS THIS	-0.027085815
-1.414561	THIS AFTERNOON.	-0.027085815
-0.52003217	<s> THEY	-0.025886709
-0.75213575	AFTERNOON. THEY	-0.027085815
-0.89624876	GO THEY	-0.027085815
-0.9957637	CHARITY. THEY	-0.027085815
-0.9957637	MARATHON. THEY	-0.027085815
-1.2007109	WORK. THEY	-0.027085815
-0.9957637	BACKYARD. THEY	-0.027085815
-1.3195704	PLAN THEY	-0.027085815
-0.9957637	FRIENDS. THEY	-0.027085815
-1.268063	PARK. THEY	-0.027085815
-0.68624395	SKILL. THEY	-0.027085787
-0.75213575	FRIDAY. THEY	-0.027085815
-0.75213575	CONCERT. THEY	-0.027085815
-0.9957637	TEST. THEY	-0.027085815
-0.75213575	CLOTHES. THEY	-0.027085815
-0.5280947	TRIATHLON. THEY	-0.027085815
-0.75213575	SUNDAY. THEY	-0.027085815
-1.2647169	VOLUNTEER THEY	-0.027085815
-0.75213575	PIANO. THEY	-0.027085815
-0.75213575	PARIS. THEY	-0.027085815
-0.75213575	CENTER. THEY	-0.027085815
-0.75213575	STRESS. THEY	-0.027085815
-0.75213575	RUN. THEY	-0.027085815
-0.75213575	AUTHOR. THEY	-0.027085815
-0.75213575	FLEXIBILITY. THEY	-0.027085815
-0.75213575	RECIPE. THEY	-0.027085815
-0.75213575	INVITE. THEY	-0.027085815
-1.268063	NEW. THEY	-0.027085815
-0.75213575	CREATIVITY. THEY	-0.027085815
-0.75213575	COLLEGE. THEY	-0.027085815
-0.75213575	STORYTELLING. THEY	-0.027085815
-0.75213575	MEAL. THEY	-0.027085815
-0.75213575	MUG. THEY	-0.027085815
-1.1287028	LEARN. THEY	-0.027085815
-0.75213575	SELF. THEY	-0.027085815
-0.75213575	HEALTH. THEY	-0.027085815
-0.75213575	STAY-FIT. THEY	-0.027085815
-0.75213575	CHOREOGRAPHY. THEY	-0.027085815
-0.75213575	CONFIDENCE. THEY	-0.027085815
-0.75213575	PERSONAL-GOAL. THEY	-0.027085815
-0.75213575	INVITATION. THEY	-0.027085815
-1.0797423	THEY GO	-0.026286034
-1.3580848	FESTIVAL GO	-0.027085815
-1.5684556	I GO	-0.027085815
-0.6890357	TRIP GO	-0.7285748
-1.2886817	CONCERT GO	-0.027085815
-1.1931107	CLUB GO	-0.027085815
-1.1931107	MARKET GO	-0.027085815
-0.9597569	ME GO	-0.027085787
-1.1931107	WORK GO	-0.027085815
-1.1931107	MOUNTAIN GO	-0.027085815
-0.9111893	GAME GO	-0.024690876
-0.7088211	RETREAT GO	-0.024690876
-1.1931107	NOVEL GO	-0.027085815
-0.78145117	MIND GO	-0.027085815
-0.54280794	SPA GO	-0.027085815
-0.78145117	COMEDY-CLUB GO	-0.027085815
-0.78145117	FARMERS-MARKET GO	-0.027085815
-1.0485182	ALPS GO	-0.027085815
-1.2970045	COMPETITION GO	-0.027085815
-0.78145117	RIDE GO	-0.027085815
-0.78145117	CEREMONY GO	-0.027085815
-0.78145117	SAFARI GO	-0.027085815
-2.3208113	THEY MUSIC	-0.027085815
-2.1633797	GO MUSIC	-0.027085815
-1.3925506	LIVE MUSIC	-0.027085815
-2.092373	HAVE. MUSIC	-0.027085815
-0.49557775	MUSIC FESTIVAL	-0.027085787
-0.8128895	STREET FESTIVAL	-0.027085815
-0.8128895	WINE FESTIVAL	-0.027085815
-2.1087928	CLASS WEEKEND.	-0.027085815
-0.49432442	THIS WEEKEND.	-0.027085787
-1.2694603	WEDDING WEEKEND.	-0.027085815
-1.1018505	BANK WEEKEND.	-0.027085815
-0.809471	VEGETABLE WEEKEND.	-0.027085815
-1.6297977	WEEKEND. RESTAURANT	-0.027085815
-1.898285	NEW RESTAURANT	-0.027085815
-0.8128895	TRIP. RESTAURANT	-0.027085815
-1.399119	RESTAURANT SERVE	-0.027085815
-0.8128895	CAFE SERVE	-0.027085815
-1.2793933	SHELTER SERVE	-0.027085815
-0.73485	SERVE DELICIOUS	-0.027085815
-0.8591114	BAKERY DELICIOUS	-0.024690876
-1.2896935	DELICIOUS SUSHI.	-0.027085815
-0.7381136	GO I	-0.027085787
-0.79113543	SUSHI. I	-0.027085815
-0.79113543	BOOK. I	-0.027085815
-1.1444201	ATTEND I	-0.027085787
-0.79113543	GARDEN. I	-0.027085815
-1.7701302	TAKE I	-0.027085787
-0.79113543	QUICKLY. I	-0.027085815
-1.7655426	PRACTICE I	-0.027085815
-0.79113543	PICASSO. I	-0.027085815
-0.79113543	COLD. I	-0.027085815
-0.79113543	BESTSELLER. I	-0.027085815
-0.79113543	COFFEE. I	-0.027085815
-0.79113543	WATERFALL. I	-0.027085815
-0.79113543	CRAFTS. I	-0.027085815
-0.8243701	VOLUNTEER I	-0.027085815
-0.5088537	HAVE. I	-0.027085815
-2.2559748	GO DENTIST	-0.027085815
-0.8128895	DENTIST CHECK-UP.	-0.027085815
-0.8128895	VET CHECK-UP.	-0.027085815
-1.1085783	DOCTOR CHECK-UP.	-0.027085815
-1.0820024	<s> HE	-0.027085815
-1.0154855	WEEKEND. HE	-0.027085815
-0.69679224	CHECK-UP. HE	-0.027085815
-1.4222945	STUDY HE	-0.027085815
-0.7657757	NETFLIX. HE	-0.027085815
-1.0982685	ATTEND HE	-0.027085815
-1.019956	CITY. HE	-0.027085815
-1.3770497	LEARN HE	-0.027085815
-0.7657757	SCARF. HE	-0.027085815
-1.0695763	PRACTICE HE	-0.026286034
-0.8078859	FRIEND. HE	-0.027085815
-0.7657757	BREAKFAST. HE	-0.027085815
-0.7657757	WEIGHTS. HE	-0.027085815
-1.019956	TONIGHT. HE	-0.027085815
-0.7657757	INTERVIEW. HE	-0.027085815
-0.7657757	DRIVE. HE	-0.027085815
-0.7657757	WALK. HE	-0.027085815
-0.7657757	TIME. HE	-0.027085815
-0.7657757	BIRTHDAY. HE	-0.027085815
-0.7657757	SUNSET. HE	-0.027085815
-0.15274224	I. HE	-0.025487749
-0.7657757	FEED. HE	-0.027085815
-1.3016931	SEE. HE	-0.027085815
-1.2771922	PRACTICE. HE	-0.027085815
-1.019956	FRESH-PRODUCE. HE	-0.027085815
-1.019956	MASSAGE. HE	-0.027085815
-0.53500205	TAKE. HE	-0.027085815
-0.7657757	STAND-UP-COMEDY. HE	-0.027085815
-0.7657757	ANIMAL. HE	-0.027085815
-1.153763	LISTEN. HE	-0.027085815
-0.7657757	ENVIRONMENT. HE	-0.027085815
-0.7657757	IDEA. HE	-0.027085815
-1.9460024	SHE STUDY	-0.027085815
-1.3308505	HE STUDY	-0.027085815
-0.8543344	EXAM STUDY	-0.024690876
-0.8111769	CERTIFICATION-EXAM STUDY	-0.027085815
-1.1585875	STUDY FINAL	-0.027085815
-1.1155022	FINAL EXAMS.	-0.027085815
-1.999558	SHE ORGANIZE	-0.027085815
-2.4304955	HE ORGANIZE	-0.027085815
-0.7352552	ORGANIZE FUNDRAISER	-0.027085815
-1.1144264	FUNDRAISER CHARITY.	-0.027085815
-1.4106101	LOCAL CHARITY.	-0.027085815
-1.610314	SHE TRAIN	-0.027085787
-2.231806	THEY TRAIN	-0.027085815
-0.55559665	TRIATHLON TRAIN	-0.027085815
-0.55559665	MARATHON TRAIN	-0.027085815
-0.85084677	COMPETITION TRAIN	-0.024690876
-0.8077718	MATCH TRAIN	-0.027085815
-1.7989285	TRAIN MARATHON.	-0.027085815
-0.8158399	RUN MARATHON.	-0.027085815
-1.1144264	MARATHON. LIBRARY	-0.027085815
-1.7943277	GO. LIBRARY	-0.027085815
-1.2455785	LIBRARY HAVE	-0.027085815
-0.7447168	PARK HAVE	-0.027085815
-0.8337372	MUSEUM HAVE	-0.025886709
-1.0854734	BOOKSTORE HAVE	-0.027085815
-1.5683197	GYM HAVE	-0.027085815
-1.2455785	MARKET HAVE	-0.027085815
-1.0854734	SECTION HAVE	-0.027085815
-0.80104053	GALLERY HAVE	-0.027085815
-1.4514407	THEATER HAVE	-0.027085815
-0.80104053	TANK HAVE	-0.027085815
-1.9670128	HAVE LARGE	-0.027085815
-1.3755491	HAVE COLLECTION	-0.027085787
-0.80271363	LARGE COLLECTION	-0.027085815
-1.6643	MUSEUM COLLECTION	-0.027085815
-1.3611208	PAINTING COLLECTION	-0.027085815
-0.80271363	DIVERSE COLLECTION	-0.027085815
-1.250251	ARTIST COLLECTION	-0.027085815
-0.80271363	FAMOUS-ARTIST COLLECTION	-0.027085815
-0.80271363	NEW-RELEASE COLLECTION	-0.027085815
-0.80271363	RELEASE COLLECTION	-0.027085815
-1.9133745	COLLECTION BOOK.	-0.027085815
-1.9224042	THEY WATCH	-0.027085815
-2.1366625	GO WATCH	-0.027085815
-2.1628408	I WATCH	-0.027085815
-1.871813	HE WATCH	-0.027085815
-1.2694603	BEACH WATCH	-0.027085815
-1.1011215	WATCH MOVIE	-0.027085815
-1.1155022	MOVIE NETFLIX.	-0.027085815
-2.4497976	HE FIX	-0.027085815
-0.8163805	FIX LEAKY	-0.027085815
-0.8163805	LEAKY FAUCET	-0.027085815
-0.8163805	FAUCET BATHROOM.	-0.027085815
-1.5320817	SHE ATTEND	-0.027085787
-1.9229195	CLASS ATTEND	-0.027085815
-1.9470313	THEY ATTEND	-0.027085815
-1.3958066	FESTIVAL ATTEND	-0.027085815
-1.9468588	HE ATTEND	-0.027085815
-0.5811457	CONFERENCE ATTEND	-0.025487723
-1.6918344	ME ATTEND	-0.027085815
-0.71620166	WORKSHOP ATTEND	-0.027085815
-0.79113543	MUSIC-FESTIVAL ATTEND	-0.027085815
-0.79113543	LEADERSHIP-CONFERENCE ATTEND	-0.027085815
-0.79113543	DANCE-WORKSHOP ATTEND	-0.027085815
-0.79113543	CODING-BOOTCAMP ATTEND	-0.027085815
-0.79113543	TED-TALK ATTEND	-0.027085815
-0.79113543	BOOTCAMP ATTEND	-0.027085815
-1.0666028	TALK ATTEND	-0.027085815
-0.79113543	SEMINAR ATTEND	-0.027085815
-1.5289937	ATTEND CONFERENCE	-0.027085815
-0.8111769	LEADERSHIP CONFERENCE	-0.027085815
-1.1052015	FINANCE CONFERENCE	-0.027085815
-0.8111769	STARTUP CONFERENCE	-0.027085815
-1.489208	CONFERENCE WORK.	-0.027085815
-1.1052015	COMMUTE WORK.	-0.027085815
-0.8111769	AFTER WORK.	-0.027085815
-1.2743984	NOVEL WORK.	-0.027085815
-2.4810781	THEY HOST	-0.027085815
-1.1144264	CITY HOST	-0.027085815
-1.1155022	HOST BARBECUE	-0.027085815
-0.8158399	BARBECUE BACKYARD.	-0.027085815
-1.1144264	GARDEN BACKYARD.	-0.027085815
-2.0858526	HE PARK	-0.027085815
-1.0854734	BACKYARD. PARK	-0.027085815
-1.0854734	CITY. PARK	-0.027085815
-1.0854734	WALK PARK	-0.027085815
-0.80104053	DAUGHTER PARK	-0.027085815
-1.9049301	SKILL PARK	-0.027085815
-0.55236405	THEME PARK	-0.027085815
-1.2455785	WATER PARK	-0.027085815
-0.55236405	AMUSEMENT PARK	-0.027085787
-0.80104053	PLAN. PARK	-0.027085815
-1.9595726	HAVE BEAUTIFUL	-0.027085815
-0.8158399	LEAD BEAUTIFUL	-0.027085815
-1.1155022	BEAUTIFUL ROSE	-0.027085815
-0.8163805	ROSE GARDEN.	-0.027085815
-1.6299297	THEY PLAN	-0.027085787
-2.2024481	I PLAN	-0.027085815
-1.2235092	TRIP PLAN	-0.4275448
-1.8569175	ME PLAN	-0.027085815
-1.9470313	THEY TRIP	-0.027085815
-0.99766594	PLAN TRIP	-0.027085815
-0.36584005	CAMPING TRIP	-0.027085815
-0.79113543	FRENCH TRIP	-0.027085815
-1.0666028	CITY TRIP	-0.027085815
-0.5475597	ROAD TRIP	-0.027085815
-0.36584005	SKI TRIP	-0.025487723
-0.5475597	RAFTING TRIP	-0.024690876
-1.0666028	KAYAKING TRIP	-0.027085815
-0.79113543	AMERICA TRIP	-0.027085815
-0.79113543	SAILING TRIP	-0.027085815
-0.79113543	BACKPACKING TRIP	-0.027085815
-0.79113543	ASIA TRIP	-0.027085815
-0.79113543	BIRDWATCHING TRIP	-0.027085815
-0.79113543	RIDING TRIP	-0.027085815
-0.79113543	SNORKELING TRIP	-0.027085815
-2.0731854	SHE NEW	-0.027085815
-1.9559748	I NEW	-0.027085815
-1.8985622	TRIP NEW	-0.027085815
-0.72119266	TRY NEW	-0.027085815
-1.512389	LEARN NEW	-0.027085815
-1.0790917	BUY NEW	-0.027085815
-0.79771364	BEDROOM NEW	-0.027085815
-1.4774095	SKILL NEW	-0.024690876
-0.79771364	LASAGNA NEW	-0.027085815
-1.2363819	NOVEL NEW	-0.027085815
-1.0790917	STAY. NEW	-0.027085815
-0.79771364	CHOREOGRAPHY NEW	-0.027085815
-1.398786	NEW YORK	-0.027085815
-1.4106101	RESTAURANT CITY.	-0.027085815
-1.1144264	YORK CITY.	-0.027085815
-1.5674449	HE PLAY	-0.025886709
-1.5810633	LEARN PLAY	-0.027085815
-1.4847077	GAME PLAY	-0.027085815
-0.5910091	THEATER PLAY	-0.025487723
-1.6799012	PLAY BASKETBALL	-0.027085815
-0.8128895	SHOT BASKETBALL	-0.027085815
-1.1085783	SHE. BASKETBALL	-0.027085815
-1.4106101	BASKETBALL FRIENDS.	-0.027085815
-1.2880877	CLUB FRIENDS.	-0.027085815
-0.96147877	SHE TAKE	-0.02648582
-0.44498292	CLASS TAKE	-0.19164999
-2.231806	THEY TAKE	-0.027085815
-1.5512018	HE TAKE	-0.027085787
-1.34104	ME TAKE	-0.027085815
-0.8077718	CLOTHES TAKE	-0.027085815
-1.5505656	TAKE DOG	-0.027085815
-1.6478571	WEEKEND. WALK	-0.027085815
-1.1144264	DOG WALK	-0.027085815
-1.1018505	WALK PARK.	-0.027085815
-1.1018505	GUITAR PARK.	-0.027085815
-1.38608	FRIEND PARK.	-0.027085815
-1.1018505	NATIONAL PARK.	-0.027085815
-0.809471	TRAMPOLINE PARK.	-0.027085815
-1.9637847	THEY TRY	-0.024690876
-2.2460337	I TRY	-0.027085815
-1.1085783	RECIPE TRY	-0.027085815
-1.4127405	RESTAURANT DINNER.	-0.027085815
-2.1633797	GO CONCERT	-0.027085815
-1.4847077	PARK. CONCERT	-0.027085815
-0.8111769	DINNER. CONCERT	-0.027085815
-0.8111769	JAZZ CONCERT	-0.027085815
-1.4127405	CONCERT TICKET	-0.027085815
-0.8163805	TICKET SELL	-0.027085815
-0.8163805	SELL OUT	-0.027085815
-0.8163805	OUT QUICKLY.	-0.027085815
-1.7785931	SHE LEARN	-0.027085815
-1.5706193	CLASS LEARN	-0.027085787
-1.9684368	THEY LEARN	-0.027085815
-1.8906182	I LEARN	-0.027085815
-1.7306664	HE LEARN	-0.027085787
-1.1474742	ATTEND LEARN	-0.027085787
-1.7852648	TAKE LEARN	-0.027085815
-1.4024248	MAKE LEARN	-0.027085815
-1.7034323	ME LEARN	-0.027085815
-0.7927707	COOK LEARN	-0.027085815
-1.0696915	SWEATER LEARN	-0.027085815
-0.7927707	REPAIR LEARN	-0.027085815
-1.0696915	TALK LEARN	-0.027085815
-0.7927707	BOAT LEARN	-0.027085815
-0.7927707	CHILD LEARN	-0.027085815
-2.3880935	SHE KNIT	-0.027085815
-2.0774693	LEARN KNIT	-0.027085815
-1.1085783	IN. KNIT	-0.027085815
-1.2902442	KNIT SCARF.	-0.027085815
-1.226243	SHE PRACTICE	-0.027085815
-1.1652399	HE PRACTICE	-0.026286034
-1.7946544	ME PRACTICE	-0.027085815
-0.6625487	SKILL PRACTICE	-0.46418655
-1.0919504	POSE PRACTICE	-0.027085815
-0.49245113	MOVE PRACTICE	-0.025886709
-0.8043931	MAGIC-TRICK PRACTICE	-0.027085815
-0.8043931	TRICK PRACTICE	-0.027085815
-1.526407	PRACTICE PUBLIC	-0.024690876
-1.8340685	LEARN. PUBLIC	-0.027085815
-0.5596931	PUBLIC SPEAKING	-0.027085787
-1.2793933	SPEAKING SKILL.	-0.027085815
-1.490878	IMPROVE SKILL.	-0.027085815
-0.73263663	DEVELOP SKILL.	-0.024690876
-2.231806	THEY DANCE	-0.027085815
-2.126546	I DANCE	-0.027085815
-1.9522247	TAKE DANCE	-0.027085815
-1.5930955	HAVE. DANCE	-0.024690876
-1.5945703	FOR. DANCE	-0.027085815
-0.8077718	SONG DANCE	-0.027085815
-2.203275	CLASS FRIDAY.	-0.027085815
-2.3732436	THEY CAMPING	-0.027085815
-2.1918488	GO CAMPING	-0.027085815
-1.1085783	KAYAKING CAMPING	-0.027085815
-1.6819717	<s> ART	-0.027085815
-1.619595	WEEKEND. ART	-0.027085815
-1.4847077	NEW. ART	-0.027085815
-1.1052015	EXPLORE. ART	-0.027085815
-1.0861746	WEEKEND. MUSEUM	-0.024690876
-0.49369907	ART MUSEUM	-0.025487723
-0.24418823	SCIENCE MUSEUM	-0.025886709
-1.7230167	GO. MUSEUM	-0.027085815
-1.4670192	SEE. MUSEUM	-0.027085815
-0.8077718	COUNTRYSIDE. MUSEUM	-0.027085815
-1.4106101	RESTAURANT SPECIAL	-0.027085815
-1.9595726	HAVE SPECIAL	-0.027085815
-1.7202059	MUSEUM EXHIBIT	-0.027085815
-1.1052015	SPECIAL EXHIBIT	-0.027085815
-0.8111769	ZOO EXHIBIT	-0.027085815
-0.8111769	INTERACTIVE EXHIBIT	-0.027085815
-1.5077671	EXHIBIT PICASSO.	-0.027085815
-2.3326898	I WRITE	-0.027085815
-1.1144264	LETTER WRITE	-0.027085815
-1.1144264	WRITE LETTER	-0.027085815
-0.8158399	COUNTRY LETTER	-0.027085815
-1.4827785	FESTIVAL FRIEND.	-0.027085815
-1.3925506	CONCERT FRIEND.	-0.027085815
-1.1052015	LETTER FRIEND.	-0.027085815
-1.2743984	PARTY FRIEND.	-0.027085815
-1.706824	STUDY ABROAD	-0.027085815
-0.8163805	ABROAD SPAIN	-0.027085815
-0.8128895	SPAIN NEXT	-0.027085815
-1.1085783	JOB NEXT	-0.027085815
-0.8128895	REUNION NEXT	-0.027085815
-1.2896935	NEXT SEMESTER.	-0.027085815
-1.8031254	TRAIN RUN	-0.027085815
-2.0101595	THEY RENOVATE	-0.027085815
-1.1144264	RENOVATE OLD	-0.027085815
-1.1144264	DONATE OLD	-0.027085815
-1.1155022	OLD FARMHOUSE.	-0.027085815
-0.8163805	FARMHOUSE. WEATHER	-0.027085815
-1.9649795	SHE START	-0.027085815
-2.3377073	HE START	-0.027085815
-0.8128895	WEATHER START	-0.027085815
-1.4127405	START GET	-0.027085815
-0.8163805	GET COLD.	-0.027085815
-1.6436113	CLASS MAKE	-0.027085815
-2.2024481	I MAKE	-0.027085815
-1.1052015	WIRE MAKE	-0.027085815
-1.1052015	JEWELRY MAKE	-0.027085815
-1.5077671	MAKE PANCAKE	-0.027085815
-0.8163805	PANCAKE BREAKFAST.	-0.027085815
-1.706285	PLAY CHESS.	-0.027085815
-2.0642307	PRACTICE VIOLIN	-0.027085815
-2.3377073	HE UPCOMING	-0.027085815
-0.8128895	VIOLIN UPCOMING	-0.027085815
-2.0411222	SKILL UPCOMING	-0.027085815
-1.4127405	UPCOMING CONCERT.	-0.027085815
-2.1628408	I FAMILY	-0.027085815
-1.5506303	PLAN FAMILY	-0.027085815
-1.9754566	TAKE FAMILY	-0.027085815
-1.1018505	MY FAMILY	-0.027085815
-0.809471	DAY FAMILY	-0.027085815
-1.5077671	FAMILY VACATION	-0.027085815
-0.8158399	VACATION HAWAII.	-0.027085815
-0.8158399	SURF HAWAII.	-0.027085815
-1.1144264	HAWAII. BOOKSTORE	-0.027085815
-1.1144264	THEATER. BOOKSTORE	-0.027085815
-1.9670128	HAVE SALE	-0.027085815
-0.8163805	SALE BESTSELLER.	-0.027085815
-2.087705	GO GYM	-0.027085815
-0.80607915	SUMMER. GYM	-0.027085815
-0.80607915	BLOSSOM. GYM	-0.027085815
-1.7092838	GO. GYM	-0.027085815
-1.0952255	EXPLORE. GYM	-0.027085815
-0.80607915	ISLAND. GYM	-0.027085815
-0.80607915	REEF. GYM	-0.027085815
-1.6519495	GYM LIFT	-0.027085815
-0.8163805	LIFT WEIGHTS.	-0.027085815
-1.6506937	WATCH SUNSET	-0.027085815
-0.8163805	SUNSET BEACH.	-0.027085815
-1.706824	STUDY DRIVER'S	-0.027085815
-0.8163805	DRIVER'S LICENSE	-0.027085815
-0.8158399	LICENSE TEST.	-0.027085815
-0.8158399	STRENGTH TEST.	-0.027085815
-2.1918488	GO COMEDY	-0.027085815
-0.5580371	STAND-UP COMEDY	-0.027085815
-2.1157823	HAVE. COMEDY	-0.027085815
-2.4304955	HE SHOW	-0.027085815
-1.4106101	COMEDY SHOW	-0.027085815
-1.1144264	SHOW TONIGHT.	-0.027085815
-0.8158399	DINNER TONIGHT.	-0.027085815
-1.1155022	TONIGHT. CAFE	-0.027085815
-1.2880877	DELICIOUS PASTRY	-0.027085815
-0.8158399	BREAD PASTRY	-0.027085815
-1.1155022	PASTRY COFFEE.	-0.027085815
-1.9426018	THEY VISIT	-0.027085815
-2.2024481	I VISIT	-0.027085815
-2.052745	TRIP VISIT	-0.027085815
-0.8111769	ROAD-TRIP VISIT	-0.027085815
-1.508313	VISIT GRANDPARENTS	-0.027085815
-2.4497976	HE PAINT	-0.027085815
-0.8163805	PAINT PORTRAIT	-0.027085815
-0.8163805	PORTRAIT SISTER.	-0.027085815
-1.2902442	ORGANIZE CLOSET	-0.027085815
-0.8158399	CLOSET DONATE	-0.027085815
-1.9048867	ME DONATE	-0.027085815
-1.1155022	OLD CLOTHES.	-0.027085815
-2.4810781	THEY SURPRISE	-0.027085815
-1.0340471	PLAN SURPRISE	-0.024690876
-0.5596931	SURPRISE PARTY	-0.027085787
-1.4132888	FRIEND. HIKING	-0.027085815
-0.8163805	HIKING TRAIL	-0.027085815
-0.8163805	TRAIL LEAD	-0.027085815
-1.1155022	BEAUTIFUL WATERFALL.	-0.027085815
-1.398786	NEW RECIPE	-0.027085815
-1.1155022	RECIPE DINNER	-0.027085815
-2.0642307	PRACTICE GUITAR	-0.027085815
-1.3672274	START BOOK	-0.027085815
-1.2549742	READ BOOK	-0.027085815
-0.8043931	OFFER. BOOK	-0.027085815
-0.8043931	PERSONAL-FINANCE BOOK	-0.027085815
-0.8043931	WORLD-HISTORY BOOK	-0.027085815
-1.0919504	FINANCE BOOK	-0.027085815
-1.0919504	HISTORY BOOK	-0.027085815
-0.8043931	BEHAVIOR BOOK	-0.027085815
-1.4106101	COMEDY CLUB	-0.027085815
-1.1582861	BOOK CLUB	-0.027085815
-2.140996	LEARN SURF	-0.027085815
-1.1155022	HAWAII. FARMER'S	-0.027085815
-0.8128895	FARMER'S MARKET	-0.027085815
-0.8128895	FARMER MARKET	-0.027085815
-0.8128895	FARMERS MARKET	-0.027085815
-2.126546	I FRESH	-0.027085815
-1.8605762	HAVE FRESH	-0.027085815
-1.2645777	MARKET FRESH	-0.027085815
-1.2645777	SELECTION FRESH	-0.027085815
-1.3825301	BAKERY FRESH	-0.027085815
-1.0985254	GROW FRESH	-0.027085815
-1.0348544	FRESH PRODUCE	-0.027085815
-2.3880935	SHE HANDMADE	-0.027085815
-1.490878	MAKE HANDMADE	-0.027085815
-1.1085783	PRODUCE HANDMADE	-0.027085815
-1.2896935	HANDMADE CRAFTS.	-0.027085815
-2.3326898	I LISTEN	-0.027085815
-0.8158399	AUDIOBOOK LISTEN	-0.027085815
-1.1155022	LISTEN PODCAST	-0.027085815
-0.8158399	PODCAST COMMUTE	-0.027085815
-0.8158399	DAILY COMMUTE	-0.027085815
-1.1155022	DOG VET	-0.027085815
-1.7989285	TRAIN TRIATHLON.	-0.027085815
-0.8158399	STROKE TRIATHLON.	-0.027085815
-1.1144264	MOVIE THEATER.	-0.027085815
-1.2880877	PERFORMANCE THEATER.	-0.027085815
-1.1144264	BOOKSTORE SECTION	-0.027085815
-0.8158399	MYTHOLOGY SECTION	-0.027085815
-2.4810781	THEY TRAVEL	-0.027085815
-1.1144264	SECTION TRAVEL	-0.027085815
-1.1155022	TRAVEL GUIDE.	-0.027085815
-1.4212493	PARK. ME	-0.027085815
-0.7960597	GUIDE. ME	-0.027085815
-0.7960597	ARTIFACT. ME	-0.027085815
-0.7960597	RESTAURANT. ME	-0.027085815
-0.7960597	EQUIPMENT. ME	-0.027085815
-0.7960597	SPECIES. ME	-0.027085815
-0.7960597	DAY. ME	-0.027085815
-0.7960597	MUSIC. ME	-0.027085815
-0.7960597	ART. ME	-0.027085815
-0.7960597	OWNER. ME	-0.027085815
-1.0759356	PRODUCE. ME	-0.027085815
-0.7960597	INSTALLATION. ME	-0.027085815
-0.7960597	CIVILIZATION. ME	-0.027085815
-2.2497342	HE PHOTOGRAPHY	-0.027085815
-1.9924104	ATTEND PHOTOGRAPHY	-0.027085815
-1.9754566	TAKE PHOTOGRAPHY	-0.027085815
-1.4748274	SEE. PHOTOGRAPHY	-0.027085815
-0.809471	LIBRARY. PHOTOGRAPHY	-0.027085815
-2.0642307	PRACTICE JUMP	-0.027085815
-0.8163805	JUMP SHOT	-0.027085815
-1.4127405	BASKETBALL COURT.	-0.027085815
-2.507139	SHE MEET	-0.027085815
-1.4827785	FAMILY FRIEND	-0.027085815
-1.2743984	PARTY FRIEND	-0.027085815
-0.8111769	MEET FRIEND	-0.027085815
-0.8111769	SOCCER FRIEND	-0.027085815
-1.4127405	FRIEND BRUNCH	-0.027085815
-0.8163805	BRUNCH SUNDAY.	-0.027085815
-2.0375702	ATTEND WEDDING	-0.027085815
-2.0411222	SKILL WEDDING	-0.027085815
-1.1085783	CALLIGRAPHY WEDDING	-0.027085815
-1.8807926	COLLECTION ANCIENT	-0.027085815
-1.490878	SEE. ANCIENT	-0.027085815
-0.8128895	ARTIFACT ANCIENT	-0.027085815
-1.2896935	ANCIENT ARTIFACT.	-0.027085815
-2.2454383	GO BUY	-0.027085815
-1.9048867	ME BUY	-0.027085815
-1.9399097	NEW OUTFIT	-0.027085815
-1.4106101	START JOB	-0.027085815
-0.8158399	OUTFIT JOB	-0.027085815
-1.1155022	JOB INTERVIEW.	-0.027085815
-2.048986	SHE VOLUNTEER	-0.027085815
-2.0146992	THEY VOLUNTEER	-0.027085815
-1.755462	HE VOLUNTEER	-0.027085815
-1.3067144	ME VOLUNTEER	-0.027085815
-1.0759356	GARDEN VOLUNTEER	-0.027085815
-1.0759356	BANK VOLUNTEER	-0.027085815
-1.2318555	SHELTER VOLUNTEER	-0.027085815
-0.7960597	SOUP-KITCHEN VOLUNTEER	-0.027085815
-0.7960597	COMMUNITY-GARDEN VOLUNTEER	-0.027085815
-0.7960597	WILDLIFE-SANCTUARY VOLUNTEER	-0.027085815
-0.7960597	KITCHEN VOLUNTEER	-0.027085815
-0.7960597	SANCTUARY VOLUNTEER	-0.027085815
-0.7960597	PROGRAM VOLUNTEER	-0.027085815
-1.0913761	VOLUNTEER HOMELESS	-0.025487723
-1.399119	HELP HOMELESS	-0.027085815
-0.8128895	MEAL HOMELESS	-0.027085815
-1.4127405	HOMELESS SHELTER.	-0.027085815
-1.706285	PLAY PIANO.	-0.027085815
-2.5040126	THEY REDECORATE	-0.027085815
-0.8163805	REDECORATE BEDROOM	-0.027085815
-1.9399097	NEW FURNITURE.	-0.027085815
-2.1918488	GO BEACH	-0.027085815
-1.9578891	VOLUNTEER BEACH	-0.027085815
-0.8128895	FURNITURE. BEACH	-0.027085815
-1.2896935	BEACH BOARDWALK	-0.027085815
-0.8163805	BOARDWALK SHOP	-0.027085815
-0.8163805	SHOP RESTAURANT.	-0.027085815
-2.2454383	GO DOCTOR	-0.027085815
-2.4304955	HE DOCTOR	-0.027085815
-1.5505656	TAKE BREAK	-0.027085815
-1.1155022	BREAK SOCIAL	-0.027085815
-0.8163805	SOCIAL MEDIA.	-0.027085815
-2.0642307	PRACTICE FRENCH	-0.027085815
-2.1290987	TRIP PARIS.	-0.027085815
-1.5077671	FAMILY REUNION	-0.027085815
-1.2896935	NEXT SUMMER.	-0.027085815
-0.73920256	GYM VARIETY	-0.025487723
-1.1155022	VARIETY WORKOUT	-0.027085815
-0.8163805	WORKOUT EQUIPMENT.	-0.027085815
-1.1144264	DONATE BLOOD	-0.027085815
-1.1144264	BLOOD BLOOD	-0.027085815
-1.1155022	BLOOD DRIVE.	-0.027085815
-2.0840528	TAKE DAUGHTER	-0.027085815
-1.9115391	PARK PLAY.	-0.027085815
-1.4106101	START GARDEN	-0.027085815
-1.1144264	COMMUNITY GARDEN	-0.027085815
-2.1290987	TRIP MOUNTAIN.	-0.027085815
-0.8163805	MOUNTAIN. ZOO	-0.027085815
-1.5077671	EXHIBIT ENDANGERED	-0.027085815
-0.8163805	ENDANGERED SPECIES.	-0.027085815
-2.3377073	HE WORK	-0.027085815
-1.4958346	CONFERENCE WORK	-0.027085815
-1.1085783	BREAK WORK	-0.027085815
-2.2559748	GO WALK.	-0.027085815
-1.706285	PLAY SOCCER	-0.027085815
-2.3395247	SHE POTTERY	-0.027085815
-2.000002	TAKE POTTERY	-0.027085815
-0.8111769	GIFT POTTERY	-0.027085815
-1.615843	FOR. POTTERY	-0.027085815
-2.1951535	CLASS COMMUNITY	-0.027085815
-1.1144264	HERSELF. COMMUNITY	-0.027085815
-1.1155022	COMMUNITY CENTER.	-0.027085815
-1.1155022	TRAVEL EUROPE	-0.027085815
-0.8163805	EUROPE MONTH-LONG	-0.027085815
-0.8163805	MONTH-LONG TRIP.	-0.027085815
-1.1155022	SPECIAL MENU	-0.027085815
-0.8163805	MENU VALENTINE'S	-0.027085815
-0.8163805	VALENTINE'S DAY.	-0.027085815
-1.610161	LEARN CODE	-0.027085815
-1.1155022	CODE FREE	-0.027085815
-0.8163805	FREE TIME.	-0.027085815
-1.1052015	FUNDRAISER LOCAL	-0.027085815
-0.8111769	WEEKEND LOCAL	-0.027085815
-0.8111769	TASTE LOCAL	-0.027085815
-2.092373	HAVE. LOCAL	-0.027085815
-2.0553803	PRACTICE MEDITATION	-0.027085815
-1.1144264	TASTE. MEDITATION	-0.027085815
-1.1144264	MEDITATION REDUCE	-0.027085815
-1.2887917	RETREAT REDUCE	-0.027085815
-0.5596931	REDUCE STRESS.	-0.024690876
-1.4827785	FESTIVAL LIVE	-0.027085815
-2.2024481	I LIVE	-0.027085815
-1.8998628	HAVE LIVE	-0.027085815
-1.617715	WATCH LIVE	-0.027085815
-1.399119	LIVE PERFORMANCE	-0.027085815
-0.8128895	CIRCUS PERFORMANCE	-0.027085815
-0.8128895	BALLET PERFORMANCE	-0.027085815
-1.1144264	YORK CITY	-0.027085815
-1.1144264	THEATER. CITY	-0.027085815
-1.1155022	HOST STREET	-0.027085815
-1.4127405	LIVE MUSIC.	-0.027085815
-1.4127405	FRIEND BIRTHDAY.	-0.027085815
-1.2896935	WORK LAS	-0.027085815
-0.8163805	LAS VEGAS.	-0.027085815
-1.8031254	TRAIN 5K	-0.027085815
-0.8163805	5K CHARITY	-0.027085815
-0.8163805	CHARITY RUN.	-0.027085815
-1.9920017	VOLUNTEER FOOD	-0.027085815
-1.4106101	LOCAL FOOD	-0.027085815
-0.5596931	FOOD BANK	-0.027085815
-1.9133745	COLLECTION MODERN	-0.027085815
-0.8163805	MODERN ART.	-0.027085815
-1.6506937	WATCH SUNSET.	-0.027085815
-1.2896935	WORK DIY	-0.027085815
-2.486499	SHE HOME	-0.027085815
-0.8158399	DIY HOME	-0.027085815
-1.1155022	HOME IMPROVEMENT	-0.027085815
-0.8163805	IMPROVEMENT PROJECT.	-0.027085815
-2.3880935	SHE READ	-0.027085815
-2.0774693	LEARN READ	-0.027085815
-0.7944008	BOOK READ	-0.4275448
-2.3208113	THEY FAVORITE	-0.027085815
-2.2024481	I FAVORITE	-0.027085815
-2.0144036	ATTEND FAVORITE	-0.027085815
-1.6773435	BOOK FAVORITE	-0.027085815
-1.4132888	FAVORITE AUTHOR.	-0.027085815
-1.9115391	PARK DOG-FRIENDLY	-0.027085815
-0.8163805	DOG-FRIENDLY AREA	-0.027085815
-0.8163805	AREA PET	-0.027085815
-0.8163805	PET OWNER.	-0.027085815
-2.4497976	HE HIKE	-0.027085815
-2.0765216	TRIP MOUNTAIN	-0.027085815
-0.8128895	HIKE MOUNTAIN	-0.027085815
-0.8128895	SKI-TRIP MOUNTAIN	-0.027085815
-1.2896935	MOUNTAIN BROTHER.	-0.027085815
-1.650898	CLASS IMPROVE	-0.027085815
-2.026018	TAKE IMPROVE	-0.027085815
-1.2809184	WORKSHOP IMPROVE	-0.027085815
-1.5077671	IMPROVE FLEXIBILITY.	-0.027085815
-2.1290987	TRIP DISNEY	-0.027085815
-0.8158399	DISNEY WORLD	-0.027085815
-1.8340685	LEARN. WORLD	-0.027085815
-1.1155022	WORLD KIDS.	-0.027085815
-0.8163805	KIDS. GROCERY	-0.027085815
-0.8163805	GROCERY STORE	-0.027085815
-0.8158399	STORE WIDE	-0.027085815
-0.8158399	DANISH WIDE	-0.027085815
-1.2880877	DELICIOUS SELECTION	-0.027085815
-0.5594371	WIDE SELECTION	-0.027085815
-1.0348544	FRESH PRODUCE.	-0.027085815
-1.9835589	SHE SKILL	-0.027085815
-1.6304753	I SKILL	-0.027085815
-1.9468588	HE SKILL	-0.027085815
-1.6978766	NEW SKILL	-0.027085815
-1.4817367	LEARN SKILL	-0.024690876
-1.2185528	SPEAKING SKILL	-0.027085815
-1.0666028	GUITAR SKILL	-0.027085815
-0.9256031	PHOTOGRAPHY SKILL	-0.027085815
-1.0666028	PROGRAMMING SKILL	-0.027085815
-1.0666028	CALLIGRAPHY SKILL	-0.027085815
-0.79113543	DRAWING SKILL	-0.027085815
-0.5475597	ACROBATIC SKILL	-0.027085815
-0.5475597	TENNIS SKILL	-0.027085815
-0.79113543	ARCHERY SKILL	-0.027085815
-0.79113543	CLIMBING SKILL	-0.027085815
-0.79113543	SKATEBOARD SKILL	-0.027085815
-2.090084	SKILL PRESENTATION.	-0.027085815
-2.4810781	THEY BASEBALL	-0.027085815
-1.6471673	WATCH BASEBALL	-0.027085815
-1.3925506	BASKETBALL GAME	-0.027085815
-0.55722207	BASEBALL GAME	-0.027085815
-0.8111769	BOARD GAME	-0.027085815
-0.8111769	FOOTBALL GAME	-0.027085815
-1.508313	GAME STADIUM.	-0.027085815
-2.203275	CLASS COOK	-0.027085815
-1.9399097	NEW RECIPE.	-0.027085815
-1.508313	VISIT RELATIVE	-0.027085815
-0.8158399	RELATIVE ANOTHER	-0.027085815
-0.8158399	PAL ANOTHER	-0.027085815
-1.1155022	ANOTHER STATE.	-0.027085815
-0.8111769	STATE. SCIENCE	-0.027085815
-1.7518582	GO. SCIENCE	-0.027085815
-0.8111769	NATIONAL. SCIENCE	-0.027085815
-0.8111769	ROOT. SCIENCE	-0.027085815
-1.9670128	HAVE INTERACTIVE	-0.027085815
-1.5077671	EXHIBIT KID.	-0.027085815
-0.8158399	KID. MY	-0.027085815
-0.8158399	PAINTING. MY	-0.027085815
-1.1155022	MY NAME	-0.027085815
-0.8163805	NAME PEN	-0.027085815
-0.8163805	PEN PAL	-0.027085815
-1.1155022	ANOTHER COUNTRY	-0.027085815
-1.6599901	GO I.	-0.027085815
-1.6209246	PLAY I.	-0.027085815
-1.4917058	TAKE I.	-0.024690876
-1.2587273	TRY I.	-0.027085815
-1.899115	PRACTICE I.	-0.027085815
-1.0919504	WRITE I.	-0.027085815
-1.0919504	LISTEN I.	-0.027085815
-1.8713747	VOLUNTEER I.	-0.027085815
-2.4304955	HE PROGRAMMING	-0.027085815
-1.1144264	CODE PROGRAMMING	-0.027085815
-1.1155022	PROGRAMMING LANGUAGE.	-0.027085815
-2.1305642	LEARN CALLIGRAPHY	-0.027085815
-2.0553803	PRACTICE CALLIGRAPHY	-0.027085815
-1.2896935	WEDDING INVITE.	-0.027085815
-1.1155022	RENOVATE BATHROOM	-0.027085815
-0.8163805	BATHROOM TILE	-0.027085815
-2.0411222	SKILL NEW.	-0.027085787
-0.8128895	TILE NEW.	-0.027085815
-0.8128895	PROGRAMMING-SKILL NEW.	-0.027085815
-1.414561	ART GALLERY	-0.027085815
-1.9133745	COLLECTION IMPRESSIONIST	-0.027085815
-0.8163805	IMPRESSIONIST PAINTING.	-0.027085815
-1.4127405	FRIEND GIFT	-0.027085815
-1.4127405	BASKETBALL COWORKER	-0.027085815
-0.8163805	COWORKER AFTER	-0.027085815
-2.026018	TAKE PAINTING	-0.027085815
-1.2023203	MUSEUM PAINTING	-0.027085815
-0.8128895	ABSTRACT PAINTING	-0.027085815
-2.203275	CLASS EXPRESS	-0.027085815
-0.8163805	EXPRESS CREATIVITY.	-0.027085815
-2.4810781	THEY ROAD	-0.027085815
-1.1144264	TASTE. ROAD	-0.027085815
-1.5058134	VISIT NATIONAL	-0.027085815
-1.1144264	MONUMENT NATIONAL	-0.027085815
-1.4127405	CONCERT MINUTE	-0.027085815
-0.8163805	MINUTE SOLD	-0.027085815
-0.8163805	SOLD OUT.	-0.027085815
-0.8163805	OUT. VEGAN	-0.027085815
-0.8163805	VEGAN LASAGNA	-0.027085815
-1.4127405	UPCOMING GIG.	-0.027085815
-1.5866109	DANCE WORKSHOP	-0.027085815
-0.9555414	PHOTOGRAPHY WORKSHOP	-0.027085815
-2.5040126	THEY CRUISE	-0.027085815
-0.8163805	CRUISE ANNIVERSARY.	-0.027085815
-0.8158399	ANNIVERSARY. THEME	-0.027085815
-0.8158399	CHEER. THEME	-0.027085815
-1.9595726	HAVE ROLLER	-0.027085815
-1.9058583	PARK ROLLER	-0.027085815
-0.5596931	ROLLER COASTER	-0.024690876
-1.9058583	PARK WATER	-0.027085815
-0.8158399	COASTER WATER	-0.027085815
-1.2896935	WATER RIDE.	-0.027085815
-0.8163805	RIDE. WEEKEND	-0.027085815
-2.3326898	I ANIMAL	-0.027085815
-1.4106101	LOCAL ANIMAL	-0.027085815
-1.4106101	HOMELESS SHELTER	-0.027085815
-1.1144264	ANIMAL SHELTER	-0.027085815
-1.2896935	NEXT WEEK.	-0.027085815
-1.1052015	FINAL EXAM	-0.027085815
-0.8111769	BAR EXAM	-0.027085815
-0.8111769	CERTIFICATION EXAM	-0.027085815
-0.8111769	MEDICAL EXAM	-0.027085815
-1.4132888	EXAM COLLEGE.	-0.027085815
-1.508313	GAME FAMILY.	-0.027085815
-0.8111769	FAMILY. BAKERY	-0.027085815
-1.7518582	GO. BAKERY	-0.027085815
-1.2763885	EXPERIENCE. BAKERY	-0.027085815
-0.8111769	ABOVE. BAKERY	-0.027085815
-1.5861608	FRESH BREAD	-0.027085815
-1.1155022	PASTRY MORNING.	-0.027085815
-0.8163805	MORNING. DAILY	-0.027085815
-1.1155022	COMMUTE AUDIOBOOK	-0.027085815
-1.706285	PLAY CHESS	-0.027085815
-0.8163805	CHESS GRANDFATHER.	-0.027085815
-2.3326898	I MINDFULNESS	-0.027085815
-2.0803862	ATTEND MINDFULNESS	-0.027085815
-1.1085783	MEDITATION RETREAT	-0.027085815
-1.1085783	MINDFULNESS RETREAT	-0.027085815
-1.2809184	WRITING RETREAT	-0.027085815
-2.140996	LEARN SALSA.	-0.027085815
-0.8158399	SALSA. AMUSEMENT	-0.027085815
-0.73485	EXPERIENCE. AMUSEMENT	-0.024690876
-1.9670128	HAVE FERRIS	-0.027085815
-0.8163805	FERRIS WHEEL	-0.027085815
-0.8163805	WHEEL CAROUSEL.	-0.027085815
-0.8163805	CAROUSEL. SKETCHBOOK	-0.027085815
-0.8163805	SKETCHBOOK DRAWING	-0.027085815
-1.9985273	VOLUNTEER HOSPITAL	-0.027085815
-2.2024481	I HELP	-0.027085815
-1.9391525	VOLUNTEER HELP	-0.027085815
-0.8111769	HOSPITAL HELP	-0.027085815
-0.8111769	CLEANUP HELP	-0.027085815
-1.4127405	HELP PATIENT.	-0.027085815
-2.026018	TAKE WRITING	-0.027085815
-0.8128895	CREATIVE WRITING	-0.027085815
-0.8128895	ORCHESTRA. WRITING	-0.027085815
-1.5077671	IMPROVE STORYTELLING.	-0.027085815
-2.1290987	TRIP JAPAN	-0.027085815
-2.052745	TRIP SEE	-0.027085815
-0.8111769	JAPAN SEE	-0.027085815
-0.8111769	SIGHTS SEE	-0.027085815
-0.8111769	SCENERY SEE	-0.027085815
-1.4127405	SEE CHERRY	-0.027085815
-0.8163805	CHERRY BLOSSOM.	-0.027085815
-1.5088595	YOGA PILATES	-0.027085815
-0.8163805	PILATES ZUMBA	-0.027085815
-2.203275	CLASS OFFER.	-0.027085815
-1.2896935	CLUB MEETING	-0.027085815
-0.8163805	MEETING DISCUSS	-0.027085815
-2.2460337	I NOVEL	-0.027085815
-0.8128895	DISCUSS NOVEL	-0.027085815
-0.8128895	CLASSIC NOVEL	-0.027085815
-2.140996	LEARN DRIVE	-0.027085815
-0.8163805	DRIVE STICK	-0.027085815
-0.8163805	STICK SHIFT.	-0.027085815
-2.0642307	PRACTICE SWIM	-0.027085815
-0.8163805	SWIM STROKE	-0.027085815
-2.5040126	THEY WINERY	-0.027085815
-0.8163805	WINERY TASTE	-0.027085815
-1.4127405	LOCAL WINE.	-0.027085815
-1.2694603	PERFORMANCE THEATER	-0.027085815
-0.809471	WINE. THEATER	-0.027085815
-1.7371981	GO. THEATER	-0.027085815
-1.1018505	FRESH-PRODUCE. THEATER	-0.027085815
-1.1018505	THEY. THEATER	-0.027085815
-1.702107	PLAY FAMOUS	-0.027085815
-1.4106101	PAINTING FAMOUS	-0.027085815
-1.1155022	FAMOUS HISTORICAL	-0.027085815
-0.8163805	HISTORICAL FIGURE.	-0.027085815
-0.8163805	FIGURE. RAINY	-0.027085815
-0.8163805	RAINY DAY	-0.027085815
-1.5077671	FAMILY BOARD	-0.027085815
-1.706824	STUDY BAR	-0.027085815
-1.4132888	EXAM LAWYER	-0.027085815
-1.1144264	DOCTOR BECOME.	-0.027085815
-0.8158399	LAWYER BECOME.	-0.027085815
-1.2902442	SERVE MEAL.	-0.027085815
-1.2896935	PARTY PARENT	-0.027085815
-0.8163805	PARENT ANNIVERSARY	-0.027085815
-0.8163805	ANNIVERSARY PLAN.	-0.027085815
-1.9670128	HAVE LAKE	-0.027085815
-0.8163805	LAKE FISH	-0.027085815
-0.8163805	FISH BOAT.	-0.027085815
-0.8163805	BOAT. SEWING	-0.027085815
-1.5077671	MAKE CLOTHES	-0.027085815
-2.3326898	I STAND-UP	-0.027085815
-2.0553803	PRACTICE STAND-UP	-0.027085815
-1.4127405	COMEDY ROUTINE	-0.027085815
-0.8163805	ROUTINE OPEN	-0.027085815
-0.8163805	OPEN MIC	-0.027085815
-0.8163805	MIC NIGHT.	-0.027085815
-1.2896935	HANDMADE MUG.	-0.027085815
-1.4132888	FRIEND. FARMER	-0.027085815
-1.5861608	FRESH FRUIT	-0.027085815
-0.8163805	FRUIT VEGETABLE	-0.027085815
-1.9115391	PARK CLEAR	-0.027085815
-0.8163805	CLEAR MIND	-0.027085815
-2.5040126	THEY ROAD-TRIP	-0.027085815
-0.9560474	VISIT MONUMENT	-0.027085815
-1.250251	MOUNTAIN GO.	-0.027085815
-1.0886998	NATIONAL GO.	-0.027085815
-1.3611208	SEE GO.	-0.027085815
-0.5531699	FAVORITE-TEAM GO.	-0.027085815
-1.0886998	EXPERIENCE GO.	-0.027085815
-1.0886998	ADVENTURE GO.	-0.027085815
-1.0886998	EXPLORE GO.	-0.027085815
-0.80271363	UNWIND GO.	-0.027085815
-1.0886998	ALPS GO.	-0.027085815
-1.5077671	EXHIBIT SPACE-EXPLORATION	-0.027085815
-0.58467805	COLLECTION HAVE.	-0.026126226
-1.2099055	SELECTION HAVE.	-0.027085815
-0.7878833	SPACE-EXPLORATION HAVE.	-0.027085815
-0.7878833	MARINE-LIFE HAVE.	-0.027085815
-0.7878833	WATER-SLIDE HAVE.	-0.027085815
-0.7878833	DANCE-NUMBER HAVE.	-0.027085815
-0.7878833	COOKIE HAVE.	-0.027085815
-0.7878833	WEIGHT-EQUIPMENT HAVE.	-0.027085815
-0.54596996	FUNHOUSE HAVE.	-0.027085815
-0.7878833	STARGAZING HAVE.	-0.027085815
-0.7878833	PLOT HAVE.	-0.027085815
-0.7878833	EXPLORATION HAVE.	-0.027085815
-0.7878833	LIFE HAVE.	-0.027085815
-1.0604905	SLIDE HAVE.	-0.027085815
-0.7878833	NUMBER HAVE.	-0.027085815
-1.0604905	RIVER HAVE.	-0.027085815
-0.7878833	EQUIPMENT HAVE.	-0.027085815
-0.7878833	TUB HAVE.	-0.027085815
-2.3505557	I SOUP-KITCHEN	-0.027085815
-1.4127405	HOMELESS FEED.	-0.027085815
-2.4497976	HE CERTIFICATION-EXAM	-0.027085815
-2.4304955	HE ADVANCE	-0.027085815
-1.7027918	STUDY ADVANCE	-0.027085815
-0.5596931	ADVANCE CAREER.	-0.027085815
-2.507139	SHE CREATIVE-WRITING	-0.027085815
-2.3880935	SHE DEVELOP	-0.027085815
-2.026018	TAKE DEVELOP	-0.027085815
-0.8128895	ARTISTRY DEVELOP	-0.027085815
-2.5040126	THEY SKI-TRIP	-0.027085815
-1.7670306	GO. AQUARIUM	-0.027085815
-1.1085783	THEY. AQUARIUM	-0.027085815
-0.8128895	SERVE. AQUARIUM	-0.027085815
-0.7352552	AQUARIUM DIVERSE	-0.024690876
-1.9133745	COLLECTION MARINE-LIFE	-0.027085815
-2.3505557	I MUSIC-FESTIVAL	-0.027085815
-0.8591114	FAVORITE ARTIST	-0.027085815
-1.1144264	FAMOUS ARTIST	-0.027085815
-1.2694603	ARTIST SEE.	-0.027085815
-0.809471	PERFORM SEE.	-0.027085815
-0.809471	SIGHT SEE.	-0.027085815
-1.1018505	WILDLIFE SEE.	-0.027085815
-0.809471	SPECIES SEE.	-0.027085815
-1.8594564	PARK PRACTICE.	-0.027085815
-1.1052015	STUDIO PRACTICE.	-0.027085815
-0.8111769	CIRCUS-PERFORMANCE PRACTICE.	-0.027085815
-0.8111769	UPCOMING-TOURNAMENT PRACTICE.	-0.027085815
-0.7352552	KNIT SWEATER	-0.027085815
-1.3516603	NEW LEARN.	-0.027085787
-1.4444033	MAKE LEARN.	-0.027085815
-1.9219605	SKILL LEARN.	-0.027085815
-1.0886998	SWEATER LEARN.	-0.027085815
-1.3651582	LANGUAGE LEARN.	-0.027085815
-1.3746535	MOVE LEARN.	-0.027085815
-1.3611208	CULTURE LEARN.	-0.027085815
-1.0886998	MERENGUE LEARN.	-0.027085815
-0.80271363	INVESTING LEARN.	-0.027085815
-2.5040126	THEY BASKETBALL-GAME	-0.027085815
-0.8163805	BASKETBALL-GAME CHEER	-0.027085815
-0.8158399	CHEER FAVORITE-TEAM	-0.027085815
-0.8158399	ROOT FAVORITE-TEAM	-0.027085815
-1.7995002	GO. THEME-PARK	-0.027085815
-0.8163805	THEME-PARK ROLLER-COASTER	-0.027085815
-0.8163805	ROLLER-COASTER WATER-SLIDE	-0.027085815
-0.95620066	YOGA POSE	-0.027085815
-2.3326898	I STUDIO	-0.027085815
-1.1144264	POSE STUDIO	-0.027085815
-2.4497976	HE LEADERSHIP-CONFERENCE	-0.027085815
-2.486499	SHE TRIATHLON	-0.027085815
-1.8340685	LEARN. TRIATHLON	-0.027085815
-2.486499	SHE CHALLENGE	-0.027085815
-1.7989285	TRAIN CHALLENGE	-0.027085815
-1.1155022	CHALLENGE SELF.	-0.027085815
-2.5040126	THEY COMMUNITY-GARDEN	-0.027085815
-2.4810781	THEY GROW	-0.027085815
-1.9920017	VOLUNTEER GROW	-0.027085815
-1.1144264	BUY FRESH-PRODUCE.	-0.027085815
-1.1144264	GROW FRESH-PRODUCE.	-0.027085815
-1.1144264	PRODUCE. MUSICAL	-0.027085815
-1.5074297	THEATER MUSICAL	-0.027085815
-1.1155022	MUSICAL CATCHY-SONG	-0.027085815
-0.8163805	CATCHY-SONG DANCE-NUMBER	-0.027085815
-2.3326898	I SPA	-0.027085815
-2.1590827	HAVE. SPA	-0.027085815
-2.2454383	GO RELAX	-0.027085815
-2.3326898	I RELAX	-0.027085815
-0.5596931	RELAX MASSAGE.	-0.027085815
-2.4304955	HE CAR	-0.027085815
-1.1144264	MASSAGE. CAR	-0.027085815
-0.5596931	CAR REPAIR	-0.024690876
-2.4304955	HE HOBBY.	-0.027085815
-2.1305642	LEARN HOBBY.	-0.027085815
-2.486499	SHE NUTRITION	-0.027085815
-1.1144264	HOBBY. NUTRITION	-0.027085815
-1.5077671	IMPROVE HEALTH.	-0.027085815
-2.5040126	THEY RIVER-RAFTING-TRIP	-0.027085815
-0.8158399	RIVER-RAFTING-TRIP EXPERIENCE	-0.027085815
-1.4106101	CULTURE EXPERIENCE	-0.027085815
-2.4810781	THEY ADVENTURE	-0.027085815
-1.1144264	EXPERIENCE ADVENTURE	-0.027085815
-1.2896935	SELECTION CUPCAKE	-0.027085815
-0.8163805	CUPCAKE COOKIE	-0.027085815
-2.2024481	I LANGUAGE	-0.027085815
-1.6692923	STUDY LANGUAGE	-0.027085815
-1.8791245	NEW LANGUAGE	-0.027085815
-2.092373	HAVE. LANGUAGE	-0.027085815
-2.140996	LEARN NEW-LANGUAGE	-0.027085815
-0.8158399	NEW-LANGUAGE TAKE.	-0.027085815
-1.1144264	MERENGUE TAKE.	-0.027085815
-2.4497976	HE PERSONAL-FINANCE	-0.027085815
-1.1592466	BOOK READ.	-0.024690876
-2.486499	SHE KICKBOXING	-0.027085815
-1.4106101	HE. KICKBOXING	-0.027085815
-0.55722207	KICKBOXING MOVE	-0.024690876
-0.55722207	BREAKDANCE MOVE	-0.024690876
-0.8111769	HOP MOVE	-0.027085815
-0.8111769	ARTS MOVE	-0.027085815
-2.0642307	PRACTICE STAY-FIT.	-0.027085815
-2.0101595	THEY NEW-YORK-CITY	-0.024690876
-0.8163805	NEW-YORK-CITY SIGHTS	-0.027085815
-1.4127405	PAINTING FAMOUS-ARTIST	-0.027085815
-2.3505557	I COMEDY-CLUB	-0.027085815
-1.6506937	WATCH STAND-UP-COMEDY.	-0.027085815
-2.4497976	HE MAGIC-TRICK	-0.027085815
-2.0642307	PRACTICE SHOW.	-0.027085815
-2.507139	SHE DANCE-WORKSHOP	-0.027085815
-1.9399097	NEW CHOREOGRAPHY.	-0.027085815
-2.5040126	THEY KAYAKING-TRIP	-0.027085815
-2.4810781	THEY COASTLINE	-0.027085815
-0.8158399	KAYAKING-TRIP COASTLINE	-0.027085815
-2.120557	TRIP EXPLORE	-0.027085815
-1.1144264	COASTLINE EXPLORE	-0.027085815
-1.1155022	VARIETY CARDIO	-0.027085815
-1.1155022	CARDIO WEIGHT-EQUIPMENT	-0.027085815
-2.3505557	I WILDLIFE-SANCTUARY	-0.027085815
-1.9985273	VOLUNTEER CARE	-0.027085815
-0.8163805	CARE ANIMAL.	-0.027085815
-2.4497976	HE CODING-BOOTCAMP	-0.027085815
-2.140996	LEARN PROGRAMMING-SKILL	-0.027085815
-2.507139	SHE PUBLIC-SPEAKING	-0.027085815
-1.5077671	IMPROVE CONFIDENCE.	-0.027085815
-2.5040126	THEY SOUTH-AMERICA	-0.027085815
-2.3732436	THEY CULTURE	-0.027085815
-0.8128895	SOUTH-AMERICA CULTURE	-0.027085815
-0.8128895	JAPANESE CULTURE	-0.027085815
-1.7995002	GO. AMUSEMENT-PARK	-0.027085815
-0.8163805	AMUSEMENT-PARK HAUNTED-HOUSE	-0.027085815
-0.8158399	HAUNTED-HOUSE FUNHOUSE	-0.027085815
-0.8158399	HOUSE FUNHOUSE	-0.027085815
-2.3505557	I FARMERS-MARKET	-0.027085815
-2.4304955	HE ACROBATIC	-0.027085815
-0.8158399	BUY. ACROBATIC	-0.027085815
-2.090084	SKILL CIRCUS-PERFORMANCE	-0.027085815
-2.486499	SHE BEAD	-0.027085815
-1.1144264	JEWELRY BEAD	-0.027085815
-0.5596931	BEAD WIRE	-0.027085815
-1.1144264	WIRE JEWELRY	-0.027085815
-1.6464787	FOR. JEWELRY	-0.027085815
-2.5040126	THEY FOOTBALL-GAME	-0.027085815
-0.8163805	FOOTBALL-GAME ROOT	-0.027085815
-1.7995002	GO. SCIENCE-MUSEUM	-0.027085815
-1.7538557	MUSEUM PLANETARIUM	-0.027085815
-0.8158399	SCIENCE-MUSEUM PLANETARIUM	-0.027085815
-0.5596931	PLANETARIUM STARGAZING	-0.024690876
-2.3326898	I SALSA	-0.027085815
-2.1305642	LEARN SALSA	-0.027085815
-0.5596931	SALSA MERENGUE	-0.027085815
-2.4497976	HE WORLD-HISTORY	-0.027085815
-2.486499	SHE MARATHON	-0.027085815
-1.4106101	HE. MARATHON	-0.027085815
-1.8031254	TRAIN ACHIEVE	-0.027085815
-0.8163805	ACHIEVE PERSONAL-GOAL.	-0.027085815
-2.5040126	THEY CAMPING-TRIP	-0.027085815
-2.120557	TRIP DISCONNECT	-0.027085815
-0.8158399	CAMPING-TRIP DISCONNECT	-0.027085815
-0.5596931	DISCONNECT UNWIND	-0.024690876
-1.2896935	LIBRARY CLASSIC-NOVEL	-0.027085815
-0.8163805	CLASSIC-NOVEL NEW-RELEASE	-0.027085815
-2.3505557	I TED-TALK	-0.027085815
-2.0886772	ATTEND INSPIRING-SPEAKER	-0.027085815
-1.4041352	MUSIC LISTEN.	-0.027085815
-0.8128895	INSPIRING-SPEAKER LISTEN.	-0.027085815
-0.8128895	SPEAKER LISTEN.	-0.027085815
-2.4304955	HE TENNIS	-0.027085815
-1.2880877	LISTEN. TENNIS	-0.027085815
-2.090084	SKILL UPCOMING-TOURNAMENT	-0.027085815
-2.507139	SHE WEB-DESIGN	-0.027085815
-2.486499	SHE WEB	-0.027085815
-1.6464787	FOR. WEB	-0.027085815
-2.3732436	THEY SKI	-0.027085815
-1.805005	LEARN. SKI	-0.027085815
-1.1085783	SKILLS. SKI	-0.027085815
-2.1290987	TRIP ALPS	-0.027085815
-1.706285	PLAY THOUGHT-PROVOKING	-0.027085815
-0.8163805	THOUGHT-PROVOKING PLOT	-0.027085815
-2.1674733	HAVE. COOKING	-0.027085815
-2.291497	HE COMPETITION	-0.027085815
-0.8111769	COOKING COMPETITION	-0.027085815
-0.8111769	BODYBUILDING COMPETITION	-0.027085815
-0.8111769	POWERLIFTING COMPETITION	-0.027085815
-2.3505557	I SHOWCASE	-0.027085815
-1.2887917	DEVELOP SKILLS.	-0.027085815
-0.8158399	SHOWCASE SKILLS.	-0.027085815
-1.1144264	SKILLS. BREAKDANCE	-0.027085815
-0.8158399	SHOWCASE. BREAKDANCE	-0.027085815
-2.0087733	TRIP FOR.	-0.027085815
-1.0985254	SHOW FOR.	-0.027085815
-1.2645777	PERFORMANCE FOR.	-0.027085815
-1.3825301	COMPETITION FOR.	-0.027085815
-0.8077718	TOURNAMENT FOR.	-0.027085815
-1.0985254	CLIMB FOR.	-0.027085815
-1.2896935	HANDMADE BOWL	-0.027085815
-0.8158399	BOWL MAKE.	-0.027085815
-0.8158399	OWN MAKE.	-0.027085815
-1.1155022	MAKE. WINE	-0.027085815
-2.5040126	THEY TASTE.	-0.027085815
-1.1155022	MONUMENT NATIONAL.	-0.027085815
-1.5077671	EXHIBIT SPACE	-0.027085815
-0.8163805	SPACE EXPLORATION	-0.027085815
-2.1590827	HAVE. SOUP	-0.027085815
-1.1144264	HERSELF. SOUP	-0.027085815
-0.5596931	SOUP KITCHEN	-0.024690876
-1.4127405	HELP FEED	-0.027085815
-0.8163805	FEED HOMELESS.	-0.027085815
-0.8163805	HOMELESS. CERTIFICATION	-0.027085815
-1.1155022	CAREER. CREATIVE	-0.027085815
-1.7254322	GO THEY.	-0.027085815
-1.9133745	COLLECTION MARINE	-0.027085815
-0.8163805	MARINE LIFE	-0.027085815
-1.2896935	ARTIST PERFORM	-0.027085815
-1.9058583	PARK IN.	-0.027085815
-1.1144264	STUDIO IN.	-0.027085815
-1.610161	LEARN SHE.	-0.027085815
-1.4132888	FAVORITE TEAM	-0.027085815
-1.1155022	TEAM CHEER.	-0.027085815
-1.9058583	PARK SLIDE	-0.027085815
-1.2880877	WATER SLIDE	-0.027085815
-1.1155022	IN. LEADERSHIP	-0.027085815
-1.1155022	CHALLENGE HERSELF.	-0.027085815
-1.1155022	MUSICAL CATCHY	-0.027085815
-0.8163805	CATCHY SONG	-0.027085815
-1.588761	DANCE NUMBER	-0.027085815
-2.507139	SHE HEALTH	-0.027085815
-2.0188508	SKILL IMPROVE.	-0.027085815
-0.8111769	HEALTH IMPROVE.	-0.027085815
-0.8111769	CONFIDENCE IMPROVE.	-0.027085815
-0.8111769	PORTFOLIO IMPROVE.	-0.027085815
-1.4106101	IMPROVE. RIVER	-0.027085815
-0.8158399	LAZY RIVER	-0.027085815
-1.1144264	RIVER RAFTING	-0.027085815
-0.8158399	REDECORATE. RAFTING	-0.027085815
-1.1085783	ADVENTURE EXPERIENCE.	-0.027085815
-1.399119	CULTURE EXPERIENCE.	-0.027085815
-0.8128895	DIFFERENT EXPERIENCE.	-0.027085815
-1.8340685	LEARN. PERSONAL	-0.027085815
-0.8158399	GOAL PERSONAL	-0.027085815
-1.8340685	LEARN. FINANCE	-0.027085815
-1.1144264	PERSONAL FINANCE	-0.027085815
-2.0803862	ATTEND HE.	-0.027085815
-1.2880877	READ HE.	-0.027085787
-2.507139	SHE FIT	-0.027085815
-0.8158399	FIT STAY.	-0.027085815
-0.8158399	SHAPE STAY.	-0.027085815
-2.5040126	THEY SIGHT	-0.027085815
-1.4127405	COMEDY WATCH.	-0.027085815
-0.8163805	WATCH. MAGIC	-0.027085815
-0.8163805	MAGIC TRICK	-0.027085815
-2.507139	SHE CHOREOGRAPHY	-0.027085815
-1.8340685	LEARN. KAYAKING	-0.027085815
-1.4106101	IMPROVE. KAYAKING	-0.027085815
-1.1144264	COASTLINE EXPLORE.	-0.027085815
-0.8158399	NATURE EXPLORE.	-0.027085815
-1.1155022	CARDIO WEIGHT	-0.027085815
-0.8163805	WEIGHT EQUIPMENT	-0.027085815
-2.1590827	HAVE. WILDLIFE	-0.027085815
-0.8158399	EXOTIC WILDLIFE	-0.027085815
-1.1155022	WILDLIFE SANCTUARY	-0.027085815
-1.1155022	ANIMAL CARE.	-0.027085815
-0.8163805	CARE. CODING	-0.027085815
-0.8163805	CODING BOOTCAMP	-0.027085815
-2.507139	SHE CONFIDENCE	-0.027085815
-1.4127405	IMPROVE. SOUTH	-0.027085815
-0.8163805	SOUTH AMERICA	-0.027085815
-1.9115391	PARK HAUNTED	-0.027085815
-0.8163805	HAUNTED HOUSE	-0.027085815
-2.1674733	HAVE. FARMERS	-0.027085815
-1.1155022	PRODUCE BUY.	-0.027085815
-2.4497976	HE CIRCUS	-0.027085815
-1.1155022	SHE. FOOTBALL	-0.027085815
-1.1155022	TEAM ROOT.	-0.027085815
-1.2880877	ANCIENT HISTORY	-0.027085815
-1.1144264	WORLD HISTORY	-0.027085815
-2.507139	SHE GOAL	-0.027085815
-1.1155022	PERSONAL ACHIEVE.	-0.027085815
-1.2896935	LIBRARY CLASSIC	-0.027085815
-1.9399097	NEW RELEASE	-0.027085815
-2.1674733	HAVE. TED	-0.027085815
-0.8158399	TED TALK	-0.027085815
-0.8158399	TEDx TALK	-0.027085815
-2.3505557	I INSPIRING	-0.027085815
-0.8163805	INSPIRING SPEAKER	-0.027085815
-1.4127405	UPCOMING TOURNAMENT	-0.027085815
-1.1052015	WEB DESIGN	-0.027085815
-0.8111769	FASHION DESIGN	-0.027085815
-0.8111769	GRAPHIC DESIGN	-0.027085815
-0.8111769	INTERIOR DESIGN	-0.027085815
-2.090084	SKILL SHOWCASE.	-0.027085815
-1.1155022	MINDFULNESS RELAXATION	-0.027085815
-0.8163805	RELAXATION FOCUS.	-0.027085815
-0.8163805	FOCUS. SAIL	-0.027085815
-0.8163805	SAIL BOAT	-0.027085815
-2.4497976	HE SAILING	-0.027085815
-1.6501524	FOR. WOODWORKING	-0.027085815
-2.507139	SHE FURNITURE	-0.027085815
-0.8163805	FURNITURE OWN	-0.027085815
-1.1155022	MAKE. BACKPACKING	-0.027085815
-2.5040126	THEY NATURE	-0.027085815
-1.7579068	MUSEUM ABSTRACT	-0.027085815
-1.5051172	FAMILY HELP.	-0.027085815
-1.2880877	READ HELP.	-0.027085815
-1.1155022	HELP. MEDICAL	-0.027085815
-1.1155022	BECOME. FASHION	-0.027085815
-2.090084	SKILL DEVELOP.	-0.027085815
-0.8158399	DEVELOP. HOT	-0.027085815
-0.8158399	ROOM HOT	-0.027085815
-1.1155022	HOT AIR	-0.027085815
-0.8163805	AIR BALLOON	-0.027085815
-0.8163805	BALLOON RIDE	-0.027085815
-2.5040126	THEY SCENERY	-0.027085815
-1.4127405	SEE ABOVE.	-0.027085815
-1.4132888	BAKERY CROISSANT	-0.027085815
-0.8163805	CROISSANT DANISH	-0.027085815
-2.3505557	I HIP	-0.027085815
-0.8163805	HIP HOP	-0.027085815
-2.4497976	HE INVESTING	-0.027085815
-1.8395892	LEARN. BODYBUILDING	-0.027085815
-2.5040126	THEY MEAL	-0.027085815
-1.4127405	HOMELESS SERVE.	-0.027085815
-1.2902442	AQUARIUM TOUCH	-0.027085815
-0.8163805	TOUCH TANK	-0.027085815
-1.9670128	HAVE VISITOR	-0.027085815
-0.8163805	VISITOR INTERACT	-0.027085815
-0.8163805	INTERACT SEA	-0.027085815
-0.8163805	SEA CREATURE.	-0.027085815
-0.8163805	CREATURE. JAZZ	-0.027085815
-1.2896935	LISTEN. ARCHERY	-0.027085815
-1.6501524	FOR. GRAPHIC	-0.027085815
-2.507139	SHE PORTFOLIO	-0.027085815
-2.5040126	THEY SECLUDED	-0.027085815
-0.8163805	SECLUDED ISLAND.	-0.027085815
-1.6519495	GYM SAUNA	-0.027085815
-0.8163805	SAUNA STEAM	-0.027085815
-0.8163805	STEAM ROOM	-0.027085815
-1.1155022	HOT TUB	-0.027085815
-2.1674733	HAVE. LITERACY	-0.027085815
-0.8163805	LITERACY PROGRAM	-0.027085815
-2.3505557	I CHILD	-0.027085815
-1.1155022	HELP. LEGAL	-0.027085815
-0.8163805	LEGAL SEMINAR	-0.027085815
-2.4497976	HE LAW	-0.027085815
-0.8163805	LAW CHANGE	-0.027085815
-0.8163805	CHANGE STAY	-0.027085815
-0.8163805	STAY UP-TO-DATE.	-0.027085815
-0.8163805	UP-TO-DATE. POWERLIFTING	-0.027085815
-2.507139	SHE STRENGTH	-0.027085815
-1.1155022	TEST. ASIA	-0.027085815
-1.4127405	CULTURE DIFFERENT	-0.027085815
-1.1155022	SLIDE LAZY	-0.027085815
-2.1674733	HAVE. TEA	-0.027085815
-0.8163805	TEA CEREMONY	-0.027085815
-2.3505557	I JAPANESE	-0.027085815
-1.8395892	LEARN. PSYCHOLOGY	-0.027085815
-0.8163805	PSYCHOLOGY HUMAN	-0.027085815
-0.8163805	HUMAN BEHAVIOR	-0.027085815
-1.4127405	HE. MARTIAL	-0.027085815
-0.8163805	MARTIAL ARTS	-0.027085815
-2.507139	SHE SHAPE	-0.027085815
-1.1155022	STAY. BIRDWATCHING	-0.027085815
-2.5040126	THEY RARE	-0.027085815
-0.8163805	RARE SPECIES	-0.027085815
-1.1155022	HISTORY MYTHOLOGY	-0.027085815
-1.9670128	HAVE LIBRARY.	-0.027085815
-1.9595726	HAVE ROCK	-0.027085815
-1.4106101	IMPROVE. ROCK	-0.027085815
-1.1155022	ROCK CLIMBING	-0.027085815
-1.4106101	UPCOMING CLIMB	-0.027085815
-1.1144264	ROCK CLIMB	-0.027085815
-1.6501524	FOR. INTERIOR	-0.027085815
-1.1155022	HOME REDECORATE.	-0.027085815
-2.5040126	THEY RAPID	-0.027085815
-0.8163805	RAPID THROUGH.	-0.027085815
-0.8163805	THROUGH. BALLET	-0.027085815
-1.4127405	LIVE ORCHESTRA.	-0.027085815
-1.4127405	WORK. ENTREPRENEURSHIP	-0.027085815
-0.8163805	ENTREPRENEURSHIP STARTUP	-0.027085815
-1.4127405	HE. BOXING	-0.027085815
-0.8163805	BOXING MATCH	-0.027085815
-2.507139	SHE PROFESSIONALLY	-0.027085815
-0.8163805	PROFESSIONALLY COMPETE.	-0.027085815
-0.8163805	COMPETE. SAFARI	-0.027085815
-2.5040126	THEY EXOTIC	-0.027085815
-1.9133745	COLLECTION SCULPTURE	-0.027085815
-0.8163805	SCULPTURE INSTALLATION.	-0.027085815
-1.2896935	BEACH CLEANUP	-0.027085815
-1.4127405	HELP ENVIRONMENT.	-0.027085815
-1.4132888	LANGUAGE PROFICIENCY	-0.027085815
-0.8163805	PROFICIENCY EXAM.	-0.027085815
-2.203275	CLASS MAKEUP	-0.027085815
-0.8163805	MAKEUP ARTISTRY	-0.027085815
-2.2559748	GO HORSEBACK	-0.027085815
-0.8163805	HORSEBACK RIDING	-0.027085815
-1.1155022	EXPLORE COUNTRYSIDE.	-0.027085815
-1.9133745	COLLECTION ARTIFACT	-0.027085815
-1.2896935	ANCIENT CIVILIZATION.	-0.027085815
-2.0886772	ATTEND TEDx	-0.027085815
-2.140996	LEARN INNOVATIVE	-0.027085815
-0.8163805	INNOVATIVE IDEA.	-0.027085815
-2.0642307	PRACTICE SKATEBOARD	-0.027085815
-2.090084	SKILL COMPETITION.	-0.027085815
-1.2896935	WEDDING INVITATION.	-0.027085815
-2.2559748	GO SNORKELING	-0.027085815
-1.4127405	SEE CORAL	-0.027085815
-0.8163805	CORAL REEF.	-0.027085815
-1.1155022	CLIMB WALL	-0.027085815
-0.8163805	WALL TRAMPOLINE	-0.027085815
-1.2896935	SHELTER PROVIDE	-0.027085815
-0.8163805	PROVIDE ASSISTANCE.	-0.027085815

\3-grams:
-0.99654895	COMMUTE WORK. </s>	0
-0.68220747	SKILL PRESENTATION. </s>	0
-1.3218337	GO I. </s>	0
-1.2750549	SKILL NEW. </s>	0
-1.0284476	WILDLIFE SEE. </s>	0
-0.86490345	SHE WEB </s>	0
-0.68220747	PERSONAL ACHIEVE. </s>	0
-0.68220747	PROVIDE ASSISTANCE. </s>	0
-0.8885027	VET CHECK-UP. SHE	-0.08992756
-0.6445125	FINAL EXAMS. SHE	-0.08992756
-0.8087249	LOCAL CHARITY. SHE	-0.08992756
-0.58073235	TRIATHLON TRAIN SHE	-0.08992756
-0.58073235	MARATHON TRAIN SHE	-0.08992756
-0.5392461	COMPETITION TRAIN SHE	-0.08992756
-0.533407	MATCH TRAIN SHE	-0.08992756
-0.6445125	FAUCET BATHROOM. SHE	-0.08992756
-0.9758305	CLASS ATTEND SHE	-1.097986
-1.1221001	WORKSHOP ATTEND SHE	-0.08992756
-0.922101	AFTER WORK. SHE	-0.08992756
-0.8087249	BASKETBALL FRIENDS. SHE	-0.08992756
-0.46404037	CLASS TAKE SHE	-0.08992756
-0.73058826	GUITAR PARK. SHE	-0.08992756
-0.73058826	FRIEND PARK. SHE	-0.08992756
-1.2428108	MOVE PRACTICE SHE	-0.08992756
-0.8885027	SPEAKING SKILL. SHE	-0.08992756
-0.6445125	NEXT SEMESTER. SHE	-0.08992756
-0.6445125	PLAY CHESS. SHE	-0.08992756
-0.6445125	SUNSET BEACH. SHE	-0.08992756
-0.6445125	PORTRAIT SISTER. SHE	-0.08992756
-0.6445125	BASKETBALL COURT. SHE	-0.08992756
-0.6445125	HOMELESS SHELTER. SHE	-0.08992756
-0.6445125	SOCIAL MEDIA. SHE	-0.08992756
-0.6445125	PARK PLAY. SHE	-0.08992756
-0.6445125	LAS VEGAS. SHE	-0.08992756
-0.6445125	IMPROVEMENT PROJECT. SHE	-0.08992756
-0.6445125	MOUNTAIN BROTHER. SHE	-0.08992756
-0.6445125	GAME STADIUM. SHE	-0.08992756
-0.6445125	PROGRAMMING LANGUAGE. SHE	-0.08992756
-0.8366941	SKILL NEW. SHE	-1.097986
-0.73058826	PROGRAMMING-SKILL NEW. SHE	-0.0077228188
-0.6445125	UPCOMING GIG. SHE	-0.08992756
-0.6445125	NEXT WEEK. SHE	-0.08992756
-0.6445125	CHESS GRANDFATHER. SHE	-0.08992756
-0.6445125	HELP PATIENT. SHE	-0.08992756
-0.6445125	STICK SHIFT. SHE	-0.08992756
-0.8087249	LAWYER BECOME. SHE	-0.08992756
-0.6445125	MIC NIGHT. SHE	-0.08992756
-0.90272224	ADVANCE CAREER. SHE	-1.097986
-0.42355168	PARK PRACTICE. SHE	-1.097986
-0.42355168	CIRCUS-PERFORMANCE PRACTICE. SHE	-0.0077228188
-0.42355168	UPCOMING-TOURNAMENT PRACTICE. SHE	-0.48920032
-0.8087249	LEARN HOBBY. SHE	-1.097986
-0.65278184	BOOK READ. SHE	-0.20666675
-0.6445125	PRACTICE SHOW. SHE	-0.0077228188
-0.6445125	PROFICIENCY EXAM. SHE	-0.08992756
-0.6445125	SKILL COMPETITION. SHE	-0.08992756
-1.1980135	<s> SHE TEACH	-0.08992756
-0.6858022	SHE TEACH YOGA	-0.08992756
-1.9029557	HAVE. I YOGA	-1.097986
-1.7566353	SHE TAKE YOGA	-0.08992756
-1.078911	BLOSSOM. GYM YOGA	-0.08992756
-1.1645875	SLIDE HAVE. YOGA	-0.08992756
-0.7632701	TEACH YOGA CLASS	-0.08992756
-0.7632701	TAKE YOGA CLASS	-0.08992756
-1.5180318	SHE TAKE CLASS	-0.08992756
-1.1105471	PUBLIC SPEAKING CLASS	-0.08992756
-0.37383416	THEY DANCE CLASS	-0.08992756
-0.37383416	I DANCE CLASS	-0.0077228188
-0.37383416	TAKE DANCE CLASS	-0.08992756
-0.37712476	HAVE. DANCE CLASS	-1.097986
-1.0102661	TAKE PHOTOGRAPHY CLASS	-0.08992756
-0.22248517	SHE POTTERY CLASS	-0.08992756
-0.22248517	TAKE POTTERY CLASS	-0.08992756
-0.22248517	GIFT POTTERY CLASS	-0.08992756
-0.22248517	FOR. POTTERY CLASS	-1.097986
-0.9749471	TAKE PAINTING CLASS	-0.08992756
-0.6169461	TAKE WRITING CLASS	-0.08992756
-0.6169461	CREATIVE WRITING CLASS	-0.08992756
-0.6715983	PILATES ZUMBA CLASS	-0.08992756
-0.6715983	BOAT. SEWING CLASS	-0.08992756
-0.6715983	SHE CREATIVE-WRITING CLASS	-1.097986
-0.48513308	SHE NUTRITION CLASS	-1.097986
-0.48513308	HOBBY. NUTRITION CLASS	-0.08992756
-0.7017062	I LANGUAGE CLASS	-1.097986
-0.7017062	HAVE. LANGUAGE CLASS	-0.08992756
-0.6715983	SHE PUBLIC-SPEAKING CLASS	-0.0077228188
-0.6715983	SHE WEB-DESIGN CLASS	-1.097986
-0.22248517	WEB DESIGN CLASS	-0.08992756
-0.22248517	FASHION DESIGN CLASS	-0.08992756
-0.22248517	GRAPHIC DESIGN CLASS	-0.08992756
-0.22248517	INTERIOR DESIGN CLASS	-0.08992756
-0.6715983	FOR. WOODWORKING CLASS	-0.08992756
-1.4295801	YOGA CLASS THIS	-0.08992756
-1.2918619	MUSIC FESTIVAL THIS	-0.08992756
-1.6301079	CAMPING TRIP THIS	-0.08992756
-0.68700707	VISIT GRANDPARENTS THIS	-0.08992756
-1.0148757	CLASS THIS AFTERNOON.	-0.08992756
-0.6445125	THIS AFTERNOON. THEY	-0.08992756
-0.7452847	FESTIVAL GO THEY	-1.097986
-0.077325106	TRIP GO THEY	-0.08992759
-0.7563828	GAME GO THEY	-1.097986
-0.7452847	RIDE GO THEY	-0.08992756
-0.7452847	SAFARI GO THEY	-0.08992756
-0.8087249	FUNDRAISER CHARITY. THEY	-0.08992756
-0.8087249	RUN MARATHON. THEY	-0.08992756
-0.922101	CONFERENCE WORK. THEY	-0.08992756
-0.8087249	GARDEN BACKYARD. THEY	-0.08992756
-0.190939	TRIP PLAN THEY	-0.48920032
-0.8087249	CLUB FRIENDS. THEY	-0.08992756
-0.9541137	WALK PARK. THEY	-0.08992756
-0.59523886	IMPROVE SKILL. THEY	-0.08992756
-0.6023517	DEVELOP SKILL. THEY	-0.48920032
-0.6445125	CLASS FRIDAY. THEY	-0.08992756
-0.6445125	UPCOMING CONCERT. THEY	-0.08992756
-0.8087249	LICENSE TEST. THEY	-0.08992756
-0.6445125	OLD CLOTHES. THEY	-0.08992756
-0.46985325	TRAIN TRIATHLON. THEY	-0.08992756
-0.46985325	STROKE TRIATHLON. THEY	-0.08992756
-0.6445125	BRUNCH SUNDAY. THEY	-0.08992756
-0.95258474	GARDEN VOLUNTEER THEY	-0.08992756
-1.0898834	KITCHEN VOLUNTEER THEY	-0.08992756
-0.6445125	PLAY PIANO. THEY	-0.08992756
-0.6445125	TRIP PARIS. THEY	-0.08992756
-0.6445125	COMMUNITY CENTER. THEY	-0.08992756
-0.65278184	REDUCE STRESS. THEY	-0.08992756
-0.6445125	CHARITY RUN. THEY	-0.08992756
-0.6445125	FAVORITE AUTHOR. THEY	-0.08992756
-0.6445125	IMPROVE FLEXIBILITY. THEY	-0.08992756
-0.6445125	NEW RECIPE. THEY	-0.08992756
-0.6445125	WEDDING INVITE. THEY	-0.08992756
-1.149747	SKILL NEW. THEY	-0.08992756
-0.6445125	EXPRESS CREATIVITY. THEY	-0.08992756
-0.6445125	EXAM COLLEGE. THEY	-0.08992756
-0.6445125	IMPROVE STORYTELLING. THEY	-0.08992756
-0.6445125	SERVE MEAL. THEY	-0.08992756
-0.6445125	HANDMADE MUG. THEY	-0.08992756
-0.8849903	MAKE LEARN. THEY	-0.0077228188
-0.8849903	SWEATER LEARN. THEY	-1.097986
-0.6445125	CHALLENGE SELF. THEY	-1.097986
-0.6445125	IMPROVE HEALTH. THEY	-1.097986
-0.6445125	PRACTICE STAY-FIT. THEY	-1.097986
-0.6445125	NEW CHOREOGRAPHY. THEY	-0.0077228188
-0.6445125	IMPROVE CONFIDENCE. THEY	-0.0077228188
-0.6445125	ACHIEVE PERSONAL-GOAL. THEY	-0.0077228188
-0.6445125	WEDDING INVITATION. THEY	-0.08992756
-0.8580611	AFTERNOON. THEY GO	-0.08992756
-0.8580611	BACKYARD. THEY GO	-0.08992756
-1.0072352	SKILL. THEY GO	-0.08992756
-0.8580611	FRIDAY. THEY GO	-0.08992756
-0.8580611	TEST. THEY GO	-0.08992756
-0.8580611	INVITATION. THEY GO	-0.08992756
-0.9928673	WINE FESTIVAL GO	-1.097986
-1.0663081	SUSHI. I GO	-0.08992756
-1.0663081	BESTSELLER. I GO	-0.08992756
-0.6832521	CAMPING TRIP GO	-0.08992756
-0.65269625	ROAD TRIP GO	-0.08992756
-0.6045244	RAFTING TRIP GO	-1.097986
-0.5973643	KAYAKING TRIP GO	-0.08992756
-0.5973643	BACKPACKING TRIP GO	-0.08992756
-0.5973643	BIRDWATCHING TRIP GO	-0.08992756
-0.9633947	JAZZ CONCERT GO	-0.08992756
-0.91832495	COMEDY CLUB GO	-0.08992756
-0.91832495	FARMERS MARKET GO	-0.08992756
-0.7863805	RESTAURANT. ME GO	-0.08992756
-0.7863805	ART. ME GO	-0.08992756
-0.7863805	OWNER. ME GO	-0.08992756
-0.91832495	BREAK WORK GO	-0.08992756
-0.91832495	TRIP MOUNTAIN GO	-0.08992756
-0.7551427	BASKETBALL GAME GO	-0.08992756
-0.7551427	FOOTBALL GAME GO	-0.08992756
-0.6123334	MEDITATION RETREAT GO	-0.08992756
-0.6123334	WRITING RETREAT GO	-0.08992756
-0.91832495	DISCUSS NOVEL GO	-0.08992756
-0.66581446	CLEAR MIND GO	-0.08992756
-0.48190516	I SPA GO	-1.097986
-0.48190516	HAVE. SPA GO	-0.08992756
-0.66581446	I COMEDY-CLUB GO	-0.0077228188
-0.66581446	I FARMERS-MARKET GO	-0.0077228188
-0.9421295	TRIP ALPS GO	-0.08992756
-0.9670723	COOKING COMPETITION GO	-1.097986
-0.66581446	BALLOON RIDE GO	-0.08992756
-0.66581446	TEA CEREMONY GO	-0.08992756
-0.66581446	COMPETE. SAFARI GO	-0.08992756
-1.187415	MUG. THEY MUSIC	-0.08992756
-1.781502	THEY GO MUSIC	-0.08992756
-1.0065058	I LIVE MUSIC	-0.08992756
-1.1671234	LIFE HAVE. MUSIC	-0.08992756
-0.442961	THEY MUSIC FESTIVAL	-0.08992756
-0.442961	GO MUSIC FESTIVAL	-0.08992756
-0.442961	HAVE. MUSIC FESTIVAL	-0.08992756
-0.6882153	HOST STREET FESTIVAL	-0.08992756
-0.6882153	MAKE. WINE FESTIVAL	-1.097986
-1.1689254	PHOTOGRAPHY CLASS WEEKEND.	-0.08992756
-0.44191757	FESTIVAL THIS WEEKEND.	-0.08992756
-0.44191757	TRIP THIS WEEKEND.	-0.08992756
-0.44191757	GRANDPARENTS THIS WEEKEND.	-0.08992756
-0.95475036	ATTEND WEDDING WEEKEND.	-0.08992756
-0.98070097	FOOD BANK WEEKEND.	-0.08992756
-0.6858022	FRUIT VEGETABLE WEEKEND.	-0.08992756
-1.3747977	THIS WEEKEND. RESTAURANT	-0.08992756
-1.3756554	TRY NEW RESTAURANT	-0.08992756
-0.6882153	MONTH-LONG TRIP. RESTAURANT	-0.08992756
-1.0090312	WEEKEND. RESTAURANT SERVE	-0.08992756
-0.6882153	TONIGHT. CAFE SERVE	-0.08992756
-1.0990447	HOMELESS SHELTER SERVE	-0.08992756
-0.6317697	RESTAURANT SERVE DELICIOUS	-0.08992756
-0.6317697	CAFE SERVE DELICIOUS	-0.08992756
-0.7202868	GO. BAKERY DELICIOUS	-1.097986
-0.7202868	EXPERIENCE. BAKERY DELICIOUS	-0.08992756
-1.1054045	SERVE DELICIOUS SUSHI.	-0.08992756
-0.6341858	CONCERT GO I	-0.08992756
-0.6341858	CLUB GO I	-0.08992756
-0.6341858	MARKET GO I	-0.08992756
-0.6422015	RETREAT GO I	-0.08992756
-0.6947709	SPA GO I	-0.08992756
-0.6341858	COMPETITION GO I	-0.08992756
-0.6341858	CEREMONY GO I	-0.08992756
-0.67276436	DELICIOUS SUSHI. I	-0.08992756
-0.67276436	COLLECTION BOOK. I	-0.08992756
-0.8933447	FESTIVAL ATTEND I	-0.08992756
-1.010526	WORKSHOP ATTEND I	-0.08992756
-0.8933447	TALK ATTEND I	-0.08992756
-0.67276436	ROSE GARDEN. I	-0.08992756
-1.6961329	CLASS TAKE I	-0.08992756
-0.67276436	OUT QUICKLY. I	-0.08992756
-1.1158699	POSE PRACTICE I	-0.08992756
-0.67276436	EXHIBIT PICASSO. I	-0.08992756
-0.67276436	GET COLD. I	-0.08992756
-0.67276436	SALE BESTSELLER. I	-0.08992756
-0.67276436	PASTRY COFFEE. I	-0.08992756
-0.67276436	BEAUTIFUL WATERFALL. I	-0.08992756
-0.67276436	HANDMADE CRAFTS. I	-0.08992756
-0.6962784	BANK VOLUNTEER I	-0.08992756
-0.7669729	KITCHEN VOLUNTEER I	-0.08992756
-0.6962784	SANCTUARY VOLUNTEER I	-0.08992756
-0.6962784	PROGRAM VOLUNTEER I	-0.08992756
-0.5032599	COLLECTION HAVE. I	-0.0077228188
-0.45398247	SPACE-EXPLORATION HAVE. I	-1.097986
-0.45398247	MARINE-LIFE HAVE. I	-1.097986
-0.45398247	WATER-SLIDE HAVE. I	-1.097986
-0.45398247	DANCE-NUMBER HAVE. I	-1.097986
-0.49303055	COOKIE HAVE. I	-1.097986
-0.45398247	WEIGHT-EQUIPMENT HAVE. I	-0.0077228188
-0.49303055	FUNHOUSE HAVE. I	-0.0077228188
-0.49303055	STARGAZING HAVE. I	-0.0077228188
-1.4504769	I GO DENTIST	-0.08992756
-0.6882153	GO DENTIST CHECK-UP.	-0.08992756
-0.6882153	DOG VET CHECK-UP.	-0.08992756
-0.8740868	GO DOCTOR CHECK-UP.	-0.08992756
-0.8206635	CLASS WEEKEND. HE	-0.08992756
-0.95539427	THIS WEEKEND. HE	-0.08992756
-0.6032525	DENTIST CHECK-UP. HE	-0.08992756
-0.6032525	DOCTOR CHECK-UP. HE	-0.08992756
-1.0409806	EXAM STUDY HE	-0.08992756
-0.65447277	MOVIE NETFLIX. HE	-0.08992756
-0.9505916	CONFERENCE ATTEND HE	-0.08992756
-0.8684115	BOOTCAMP ATTEND HE	-0.08992756
-0.8684115	SEMINAR ATTEND HE	-0.08992756
-0.8233399	YORK CITY. HE	-0.08992756
-1.1569879	REPAIR LEARN HE	-0.08992756
-1.0004529	BOAT LEARN HE	-0.08992756
-0.65447277	KNIT SCARF. HE	-0.08992756
-0.17020106	SKILL PRACTICE HE	-0.2842469
-1.0205309	MOVE PRACTICE HE	-1.097986
-0.85229886	TRICK PRACTICE HE	-0.08992756
-0.68468136	CONCERT FRIEND. HE	-0.08992756
-0.68468136	LETTER FRIEND. HE	-0.08992756
-0.65447277	PANCAKE BREAKFAST. HE	-0.08992756
-0.65447277	LIFT WEIGHTS. HE	-0.08992756
-0.8233399	DINNER TONIGHT. HE	-0.08992756
-0.65447277	JOB INTERVIEW. HE	-0.08992756
-0.65447277	BLOOD DRIVE. HE	-0.08992756
-0.65447277	GO WALK. HE	-0.08992756
-0.65447277	FREE TIME. HE	-0.08992756
-0.65447277	FRIEND BIRTHDAY. HE	-0.08992756
-0.65447277	WATCH SUNSET. HE	-0.08992756
-0.1604049	GO I. HE	-0.08992756
-0.14181337	PLAY I. HE	-0.08992756
-0.14274174	TAKE I. HE	-0.08992756
-0.14181337	TRY I. HE	-0.08992756
-0.14181337	PRACTICE I. HE	-0.08992756
-0.14181337	WRITE I. HE	-0.08992756
-0.14181337	LISTEN I. HE	-0.08992756
-0.14181337	VOLUNTEER I. HE	-0.08992756
-0.65447277	HOMELESS FEED. HE	-1.097986
-0.9691269	ARTIST SEE. HE	-1.097986
-0.95825297	STUDIO PRACTICE. HE	-1.097986
-0.8233399	BUY FRESH-PRODUCE. HE	-0.0077228188
-0.9209439	RELAX MASSAGE. HE	-1.097986
-0.47552037	NEW-LANGUAGE TAKE. HE	-1.097986
-0.47552037	MERENGUE TAKE. HE	-0.0077228188
-0.65447277	WATCH STAND-UP-COMEDY. HE	-0.0077228188
-0.65447277	CARE ANIMAL. HE	-0.0077228188
-0.89824367	INSPIRING-SPEAKER LISTEN. HE	-0.0077228188
-0.65447277	HELP ENVIRONMENT. HE	-0.08992756
-0.65447277	INNOVATIVE IDEA. HE	-0.08992756
-1.1481204	BEACH. SHE STUDY	-0.08992756
-1.1481204	WEEK. SHE STUDY	-0.08992756
-1.1302364	CHECK-UP. HE STUDY	-0.08992756
-1.1302364	FRIEND. HE STUDY	-0.08992756
-1.2946562	I. HE STUDY	-0.08992756
-0.98162466	ENVIRONMENT. HE STUDY	-0.08992756
-0.7170209	CERTIFICATION EXAM STUDY	-0.08992756
-0.7170209	MEDICAL EXAM STUDY	-0.08992756
-0.68700707	HE CERTIFICATION-EXAM STUDY	-1.097986
-1.0202557	SHE STUDY FINAL	-0.08992756
-1.0951359	HE STUDY FINAL	-0.08992756
-0.9903606	STUDY FINAL EXAMS.	-0.08992756
-1.1557261	EXAMS. SHE ORGANIZE	-0.08992756
-1.1557261	SISTER. SHE ORGANIZE	-0.08992756
-1.1941657	TIME. HE ORGANIZE	-0.08992756
-0.6923392	SHE ORGANIZE FUNDRAISER	-0.08992756
-0.63206995	HE ORGANIZE FUNDRAISER	-0.08992756
-0.9896026	ORGANIZE FUNDRAISER CHARITY.	-0.08992756
-1.0133926	FUNDRAISER LOCAL CHARITY.	-0.08992756
-1.0782688	CHECK-UP. SHE TRAIN	-0.08992756
-1.0782688	SEMESTER. SHE TRAIN	-0.08992756
-1.0782688	VEGAS. SHE TRAIN	-0.08992756
-1.1806417	CHARITY. THEY TRAIN	-0.08992756
-0.49232015	SHE TRIATHLON TRAIN	-1.097986
-0.49232015	LEARN. TRIATHLON TRAIN	-0.08992756
-0.49232015	SHE MARATHON TRAIN	-0.0077228188
-0.49232015	HE. MARATHON TRAIN	-0.08992756
-0.71462935	BODYBUILDING COMPETITION TRAIN	-0.08992756
-0.71462935	POWERLIFTING COMPETITION TRAIN	-0.08992756
-0.68460065	BOXING MATCH TRAIN	-0.08992756
-1.1226873	THEY TRAIN MARATHON.	-0.08992756
-0.6902935	TRAIN RUN MARATHON.	-0.08992756
-0.8772791	TRAIN MARATHON. LIBRARY	-0.08992756
-1.1217725	UNWIND GO. LIBRARY	-0.02686171
-0.9437163	MARATHON. LIBRARY HAVE	-0.08992756
-0.6390597	BACKYARD. PARK HAVE	-0.08992756
-0.7003792	THEME PARK HAVE	-0.08992756
-0.7229066	AMUSEMENT PARK HAVE	-0.08992756
-0.6390597	PLAN. PARK HAVE	-0.08992756
-0.7566404	ART MUSEUM HAVE	-0.08992756
-0.8145326	SCIENCE MUSEUM HAVE	-0.08992756
-0.70280993	COUNTRYSIDE. MUSEUM HAVE	-0.08992756
-0.86128384	HAWAII. BOOKSTORE HAVE	-0.08992756
-1.066268	REEF. GYM HAVE	-0.08992756
-0.9437163	FARMER'S MARKET HAVE	-0.08992756
-0.86128384	MYTHOLOGY SECTION HAVE	-0.08992756
-0.67982733	ART GALLERY HAVE	-0.08992756
-1.028316	PERFORMANCE THEATER HAVE	-0.08992756
-0.67982733	TOUCH TANK HAVE	-0.08992756
-1.1512004	LIBRARY HAVE LARGE	-0.08992756
-1.1719025	MUSEUM HAVE COLLECTION	-0.08992756
-0.99985987	GALLERY HAVE COLLECTION	-0.08992756
-0.68101573	HAVE LARGE COLLECTION	-0.08992756
-1.1207217	WEEKEND. MUSEUM COLLECTION	-0.08992756
-0.994095	ABSTRACT PAINTING COLLECTION	-0.08992756
-0.6902328	AQUARIUM DIVERSE COLLECTION	-0.48920032
-0.9459008	FAMOUS ARTIST COLLECTION	-0.08992756
-0.68101573	PAINTING FAMOUS-ARTIST COLLECTION	-0.0077228188
-0.68101573	CLASSIC-NOVEL NEW-RELEASE COLLECTION	-0.0077228188
-0.68101573	NEW RELEASE COLLECTION	-0.08992756
-1.1430795	LARGE COLLECTION BOOK.	-0.08992756
-1.3823231	TRIATHLON. THEY WATCH	-0.08992756
-1.3823231	STRESS. THEY WATCH	-0.08992756
-1.171848	COMEDY-CLUB GO WATCH	-0.0077228188
-1.1744441	BOOK. I WATCH	-0.08992756
-1.368025	<s> HE WATCH	-0.08992756
-1.1361803	WEIGHTS. HE WATCH	-0.08992756
-0.95475036	GO BEACH WATCH	-0.08992756
-0.98018265	THEY WATCH MOVIE	-0.08992756
-0.869988	I WATCH MOVIE	-0.08992756
-0.9903606	WATCH MOVIE NETFLIX.	-0.08992756
-1.1951963	NETFLIX. HE FIX	-0.08992756
-0.6906738	HE FIX LEAKY	-0.08992756
-0.6906738	FIX LEAKY FAUCET	-0.08992756
-0.6906738	LEAKY FAUCET BATHROOM.	-0.08992756
-1.0552337	BATHROOM. SHE ATTEND	-0.08992756
-1.0552337	GIG. SHE ATTEND	-0.08992756
-1.0552337	GRANDFATHER. SHE ATTEND	-0.08992756
-1.5794562	POTTERY CLASS ATTEND	-1.097986
-1.1482743	SUNDAY. THEY ATTEND	-0.08992756
-1.2371662	MUSIC FESTIVAL ATTEND	-0.08992756
-1.1482484	BIRTHDAY. HE ATTEND	-0.08992756
-0.51295376	LEADERSHIP CONFERENCE ATTEND	-0.08992756
-0.51295376	FINANCE CONFERENCE ATTEND	-0.08992756
-0.51295376	STARTUP CONFERENCE ATTEND	-0.08992756
-1.0992812	CIVILIZATION. ME ATTEND	-0.08992756
-0.61787456	DANCE WORKSHOP ATTEND	-0.08992756
-0.6760697	PHOTOGRAPHY WORKSHOP ATTEND	-0.08992756
-0.67276436	I MUSIC-FESTIVAL ATTEND	-1.097986
-0.67276436	HE LEADERSHIP-CONFERENCE ATTEND	-1.097986
-0.67276436	SHE DANCE-WORKSHOP ATTEND	-0.0077228188
-0.67276436	HE CODING-BOOTCAMP ATTEND	-0.0077228188
-0.67276436	I TED-TALK ATTEND	-0.0077228188
-0.67276436	CODING BOOTCAMP ATTEND	-0.08992756
-0.8506024	TED TALK ATTEND	-0.08992756
-0.67276436	LEGAL SEMINAR ATTEND	-0.08992756
-1.3192462	SHE ATTEND CONFERENCE	-0.08992756
-1.0542637	HE ATTEND CONFERENCE	-0.08992756
-0.68700707	IN. LEADERSHIP CONFERENCE	-0.08992756
-0.8722346	LEARN. FINANCE CONFERENCE	-0.08992756
-0.68700707	ENTREPRENEURSHIP STARTUP CONFERENCE	-0.08992756
-1.2168863	ATTEND CONFERENCE WORK.	-0.08992756
-0.8722346	PODCAST COMMUTE WORK.	-0.08992756
-0.68700707	COWORKER AFTER WORK.	-0.08992756
-0.95699126	I NOVEL WORK.	-0.08992756
-1.1967769	WORK. THEY HOST	-0.08992756
-0.8772791	THEATER. CITY HOST	-0.08992756
-0.8778643	THEY HOST BARBECUE	-0.08992756
-0.6902935	HOST BARBECUE BACKYARD.	-0.08992756
-0.8772791	START GARDEN BACKYARD.	-0.08992756
-1.7495458	PRACTICE HE PARK	-0.08992756
-0.86128384	BARBECUE BACKYARD. PARK	-0.08992756
-0.86128384	RESTAURANT CITY. PARK	-0.08992756
-0.86128384	WEEKEND. WALK PARK	-0.08992756
-0.67982733	TAKE DAUGHTER PARK	-0.08992756
-1.3775192	PHOTOGRAPHY SKILL PARK	-1.097986
-0.4896929	ANNIVERSARY. THEME PARK	-0.08992756
-0.4896929	CHEER. THEME PARK	-0.08992756
-0.9437163	PARK WATER PARK	-0.08992756
-0.4896929	SALSA. AMUSEMENT PARK	-0.08992756
-0.4947368	EXPERIENCE. AMUSEMENT PARK	-0.08992756
-0.67982733	ANNIVERSARY PLAN. PARK	-0.08992756
-1.5946953	PARK HAVE BEAUTIFUL	-0.08992756
-0.6902935	TRAIL LEAD BEAUTIFUL	-0.08992756
-0.8778643	HAVE BEAUTIFUL ROSE	-0.08992756
-0.6906738	BEAUTIFUL ROSE GARDEN.	-0.08992756
-1.0835943	CLOTHES. THEY PLAN	-0.08992756
-1.0835943	PARIS. THEY PLAN	-0.08992756
-1.0835943	FLEXIBILITY. THEY PLAN	-0.08992756
-1.1781125	GARDEN. I PLAN	-0.08992756
-0.93322885	CITY TRIP PLAN	-0.08992756
-0.93322885	AMERICA TRIP PLAN	-0.08992756
-0.93322885	ASIA TRIP PLAN	-0.08992756
-1.133571	MUSIC. ME PLAN	-0.08992756
-1.1482743	STORYTELLING. THEY TRIP	-0.08992756
-0.94076157	THEY PLAN TRIP	-0.08992756
-0.80988574	I PLAN TRIP	-0.08992756
-0.33244684	THEY CAMPING TRIP	-0.08992756
-0.33244684	GO CAMPING TRIP	-0.08992756
-0.33244684	KAYAKING CAMPING TRIP	-0.08992756
-0.67276436	PRACTICE FRENCH TRIP	-0.08992756
-0.8506024	YORK CITY TRIP	-0.08992756
-0.48578158	THEY ROAD TRIP	-0.08992756
-0.48578158	TASTE. ROAD TRIP	-0.08992756
-0.33244684	THEY SKI TRIP	-0.08992756
-0.33244684	LEARN. SKI TRIP	-0.08992756
-0.33244684	SKILLS. SKI TRIP	-0.08992756
-0.48578158	RIVER RAFTING TRIP	-0.08992756
-0.48578158	REDECORATE. RAFTING TRIP	-0.08992756
-0.8506024	LEARN. KAYAKING TRIP	-0.08992756
-0.67276436	SOUTH AMERICA TRIP	-0.08992756
-0.67276436	HE SAILING TRIP	-0.08992756
-0.67276436	MAKE. BACKPACKING TRIP	-0.08992756
-0.67276436	TEST. ASIA TRIP	-0.08992756
-0.67276436	STAY. BIRDWATCHING TRIP	-0.08992756
-0.67276436	HORSEBACK RIDING TRIP	-0.08992756
-0.67276436	GO SNORKELING TRIP	-0.08992756
-1.8097771	TAKE SHE NEW	-0.08992756
-1.5149622	TAKE I NEW	-0.08992756
-1.3757336	PLAN TRIP NEW	-0.08992756
-0.6293233	THEY TRY NEW	-1.097986
-0.62160826	I TRY NEW	-0.08992756
-1.309544	ATTEND LEARN NEW	-0.0077228188
-1.0489658	COOK LEARN NEW	-0.08992756
-0.8576941	ME BUY NEW	-0.08992756
-0.6774602	REDECORATE BEDROOM NEW	-0.08992756
-1.037349	HE SKILL NEW	-0.08992756
-1.037349	PROGRAMMING SKILL NEW	-0.08992756
-0.6774602	VEGAN LASAGNA NEW	-0.08992756
-0.93937993	CLASSIC NOVEL NEW	-0.08992756
-0.8576941	FIT STAY. NEW	-0.08992756
-0.6774602	SHE CHOREOGRAPHY NEW	-0.08992756
-1.0089036	TRIP NEW YORK	-0.08992756
-1.0089036	STAY. NEW YORK	-0.08992756
-1.175665	NEW RESTAURANT CITY.	-0.08992756
-0.9896026	NEW YORK CITY.	-0.08992756
-1.066009	CITY. HE PLAY	-0.08992756
-1.066009	WALK. HE PLAY	-0.08992756
-1.4223645	I. HE PLAY	-0.08992756
-1.2605613	SHE LEARN PLAY	-0.08992756
-1.3486633	HE LEARN PLAY	-0.08992756
-1.0398245	BOARD GAME PLAY	-0.08992756
-0.5208564	WINE. THEATER PLAY	-0.08992756
-0.5208564	GO. THEATER PLAY	-0.08992756
-0.5208564	THEY. THEATER PLAY	-0.08992756
-1.3249375	HE PLAY BASKETBALL	-0.08992756
-0.6882153	JUMP SHOT BASKETBALL	-0.08992756
-0.9854725	LEARN SHE. BASKETBALL	-0.08992756
-1.175665	PLAY BASKETBALL FRIENDS.	-0.08992756
-1.1044168	BOOK CLUB FRIENDS.	-0.08992756
-0.78746504	WORK. SHE TAKE	-0.08992756
-0.78746504	FRIENDS. SHE TAKE	-0.08992756
-0.8764775	PARK. SHE TAKE	-0.08992756
-0.78746504	SKILL. SHE TAKE	-0.08992756
-0.78746504	BROTHER. SHE TAKE	-0.08992756
-0.78746504	STADIUM. SHE TAKE	-0.08992756
-0.78746504	PATIENT. SHE TAKE	-0.08992756
-0.78746504	EXAM. SHE TAKE	-0.08992756
-0.40044847	SPEAKING CLASS TAKE	-0.08992756
-0.4518786	DANCE CLASS TAKE	-1.097986
-0.45302632	POTTERY CLASS TAKE	-0.08992756
-0.4347839	WRITING CLASS TAKE	-0.08992756
-0.40044847	CREATIVE-WRITING CLASS TAKE	-1.097986
-0.4041009	NUTRITION CLASS TAKE	-0.48920032
-0.4347839	LANGUAGE CLASS TAKE	-0.08992756
-0.40044847	PUBLIC-SPEAKING CLASS TAKE	-0.0077228188
-0.40044847	WEB-DESIGN CLASS TAKE	-1.097986
-0.08599877	DESIGN CLASS TAKE	-0.13266155
-0.40044847	WOODWORKING CLASS TAKE	-0.08992756
-1.1806417	CONCERT. THEY TAKE	-0.08992756
-1.2468939	<s> HE TAKE	-0.08992756
-1.2468939	CHECK-UP. HE TAKE	-0.08992756
-1.0611354	DRIVE. HE TAKE	-0.08992756
-0.98587954	GUIDE. ME TAKE	-0.08992756
-0.98587954	SPECIES. ME TAKE	-0.08992756
-0.68460065	MAKE CLOTHES TAKE	-0.08992756
-1.4680148	SHE TAKE DOG	-0.08992756
-1.3316194	HE TAKE DOG	-0.08992756
-1.0883098	VEGETABLE WEEKEND. WALK	-0.08992756
-0.9896026	TAKE DOG WALK	-0.08992756
-0.8703901	DOG WALK PARK.	-0.08992756
-0.98070097	PRACTICE GUITAR PARK.	-0.08992756
-1.0039952	SOCCER FRIEND PARK.	-0.08992756
-0.8703901	VISIT NATIONAL PARK.	-0.08992756
-0.6858022	WALL TRAMPOLINE PARK.	-0.08992756
-1.1507355	PARK. THEY TRY	-0.08992756
-1.1507355	AUTHOR. THEY TRY	-0.08992756
-1.1818122	WATERFALL. I TRY	-0.08992756
-0.9854725	NEW RECIPE TRY	-0.08992756
-1.1768291	NEW RESTAURANT DINNER.	-0.08992756
-1.5750573	ME GO CONCERT	-0.08992756
-1.0398245	NATIONAL PARK. CONCERT	-0.08992756
-0.68700707	RESTAURANT DINNER. CONCERT	-0.08992756
-0.68700707	CREATURE. JAZZ CONCERT	-0.08992756
-1.0141934	DINNER. CONCERT TICKET	-0.08992756
-0.6906738	CONCERT TICKET SELL	-0.08992756
-0.6906738	TICKET SELL OUT	-0.08992756
-0.6906738	SELL OUT QUICKLY.	-0.08992756
-1.1185845	SHELTER. SHE LEARN	-0.08992756
-1.1185845	COMPETITION. SHE LEARN	-0.08992756
-1.2760912	DANCE CLASS LEARN	-0.02686171
-1.2558391	LANGUAGE CLASS LEARN	-1.097986
-1.1514046	FRIENDS. THEY LEARN	-0.08992756
-1.1393702	QUICKLY. I LEARN	-0.08992756
-1.1082923	BREAKFAST. HE LEARN	-0.08992756
-1.525578	I. HE LEARN	-0.08992756
-0.8949516	LEADERSHIP-CONFERENCE ATTEND LEARN	-1.097986
-0.8949516	DANCE-WORKSHOP ATTEND LEARN	-0.0077228188
-0.8949516	CODING-BOOTCAMP ATTEND LEARN	-0.0077228188
-1.8073081	CLASS TAKE LEARN	-1.097986
-1.0102932	WIRE MAKE LEARN	-0.08992756
-1.1020375	DAY. ME LEARN	-0.08992756
-0.67393357	CLASS COOK LEARN	-0.08992756
-0.9575993	KNIT SWEATER LEARN	-0.08992756
-0.68296033	CAR REPAIR LEARN	-0.48920032
-0.8523645	TEDx TALK LEARN	-0.08992756
-0.67393357	SAIL BOAT LEARN	-0.08992756
-0.67393357	I CHILD LEARN	-0.08992756
-1.7221636	PRACTICE. SHE KNIT	-1.097986
-1.1654346	I LEARN KNIT	-0.08992756
-0.8740868	PARK IN. KNIT	-0.08992756
-0.9640881	LEARN KNIT SCARF.	-0.08992756
-0.93454313	CHARITY. SHE PRACTICE	-0.08992756
-0.93454313	CHESS. SHE PRACTICE	-0.08992756
-0.93454313	MEDIA. SHE PRACTICE	-0.08992756
-0.93454313	LANGUAGE. SHE PRACTICE	-0.08992756
-0.93454313	SHIFT. SHE PRACTICE	-0.08992756
-1.0247899	WEEKEND. HE PRACTICE	-0.08992756
-0.9041929	SCARF. HE PRACTICE	-0.08992756
-0.9041929	TONIGHT. HE PRACTICE	-0.08992756
-1.1149845	I. HE PRACTICE	-0.08992756
-0.9041929	IDEA. HE PRACTICE	-0.08992756
-1.1218377	PRODUCE. ME PRACTICE	-0.08992756
-0.62971485	PHOTOGRAPHY SKILL PRACTICE	-0.08992756
-0.57706887	DRAWING SKILL PRACTICE	-0.08992756
-0.62971485	ACROBATIC SKILL PRACTICE	-0.08992756
-0.62971485	TENNIS SKILL PRACTICE	-0.08992756
-0.57706887	ARCHERY SKILL PRACTICE	-0.08992756
-0.57706887	CLIMBING SKILL PRACTICE	-0.08992756
-0.97364056	YOGA POSE PRACTICE	-0.08992756
-0.44459596	KICKBOXING MOVE PRACTICE	-0.48920032
-0.44459596	BREAKDANCE MOVE PRACTICE	-1.097986
-0.44035706	ARTS MOVE PRACTICE	-0.08992756
-0.68220747	HE MAGIC-TRICK PRACTICE	-0.0077228188
-0.68220747	MAGIC TRICK PRACTICE	-0.08992756
-1.4192271	HE PRACTICE PUBLIC	-0.08992756
-1.0534474	ME PRACTICE PUBLIC	-0.08992756
-1.4695272	NEW LEARN. PUBLIC	-0.08992756
-0.5007915	PRACTICE PUBLIC SPEAKING	-0.08992756
-0.4956441	LEARN. PUBLIC SPEAKING	-0.08992756
-1.1578234	PUBLIC SPEAKING SKILL.	-0.08992756
-1.041896	WORKSHOP IMPROVE SKILL.	-0.08992756
-0.6301285	TAKE DEVELOP SKILL.	-1.097986
-0.6301285	ARTISTRY DEVELOP SKILL.	-0.08992756
-1.4468379	STRESS. THEY DANCE	-0.08992756
-1.8838327	HAVE. I DANCE	-0.0077228188
-1.7432771	SHE TAKE DANCE	-0.08992756
-1.0734483	SELECTION HAVE. DANCE	-0.08992756
-1.2659247	STARGAZING HAVE. DANCE	-0.08992756
-1.0738666	SHOW FOR. DANCE	-0.08992756
-0.68460065	CATCHY SONG DANCE	-0.08992756
-1.6774622	DANCE CLASS FRIDAY.	-0.08992756
-1.7188611	<s> THEY CAMPING	-0.08992756
-1.611298	THEY GO CAMPING	-1.097986
